
-1.68616, -3.38159, -2.79858, -1.30395, -0.97955, -0.73780, -2.76718, -2.78480,  0.00000, -2.40138, -1.50287,  1.49487
-1.77490, -3.73755, -3.14841, -1.43884, -1.08839, -0.73780, -2.67792, -3.14413,  0.00000, -2.26545, -1.53953,  4.13965
-2.04114, -3.82654, -1.39929, -1.48381, -0.94327, -0.71889, -2.58865, -3.50346,  0.00000, -2.44669, -1.61284,  4.12048
-1.41992, -3.64856, -1.39929, -1.48381, -1.01583, -0.71889, -2.49939, -3.23396,  0.00000, -2.12953, -1.46622,  4.10132
-1.68616, -3.73755, -2.09894, -1.66366, -1.01583, -0.79456, -2.41013, -2.78480,  0.00000, -2.26545, -1.53953,  4.17798
-2.04114, -3.55957, -2.44876, -1.39388, -0.90699, -0.71889, -2.76718, -3.14413,  0.00000, -2.17484, -1.64949,  4.12048
-1.77490, -3.82654, -2.79858, -1.39388, -0.94327, -0.71889, -2.67792, -3.32380,  0.00000, -2.17484, -1.53953,  4.08215
-1.59741, -3.55957, -2.09894, -1.52877, -1.12467, -0.73780, -2.76718, -3.05430,  0.00000, -2.31076, -1.50287,  4.17798
-1.77490, -3.47058, -2.09894, -1.48381, -1.01583, -0.69997, -2.14233, -2.96447,  0.00000, -2.35607, -1.53953,  4.06299
-1.86365, -3.38159, -1.39929, -1.52877, -1.01583, -0.73780, -2.32086, -3.14413,  0.00000, -2.31076, -1.57618,  4.10132
-1.68616, -3.20361, -1.39929, -1.39388, -1.01583, -0.73780, -2.41013, -3.23396,  0.00000, -2.17484, -1.61284,  4.12048
-1.77490, -3.47058, -2.79858, -1.39388, -1.12467, -0.69997, -2.76718, -3.41363,  0.00000, -2.12953, -1.35625,  4.08215
-2.04114, -3.29260, -1.74911, -1.48381, -0.97955, -0.66213, -2.85645, -2.96447,  0.00000, -2.22014, -1.53953,  4.15881
-1.50867, -3.73755, -2.44876, -1.43884, -1.01583, -0.75672, -2.67792, -3.14413,  0.00000, -2.26545, -1.61284,  4.13965
-1.68616, -3.47058, -2.09894, -1.25899, -0.94327, -0.68105, -2.85645, -2.96447,  0.00000, -2.31076, -1.42956,  4.10132
-1.86365, -3.55957, -0.69965, -1.66366, -0.94327, -0.71889, -2.85645, -3.14413,  0.00000, -2.31076, -1.72281,  4.10132
-1.77490, -3.55957, -0.69965, -1.66366, -1.19723, -0.81348, -2.85645, -3.05430,  0.00000, -2.44669, -1.61284,  4.17798
-1.68616, -3.64856, -3.49823, -1.21402, -1.08839, -0.69997, -2.76718, -2.96447,  0.00000, -2.31076, -1.39291,  4.15881
-1.95239, -3.64856, -1.74911, -1.34892, -0.83443, -0.79456, -2.76718, -2.96447,  0.00000, -2.35607, -1.46622,  4.12048
-1.77490, -3.64856, -2.09894, -1.48381, -1.16095, -0.75672, -2.76718, -2.96447,  0.00000, -2.17484, -1.64949,  4.19714
-1.41992, -3.20361, -1.39929, -1.48381, -0.94327, -0.73780, -2.85645, -3.32380,  0.00000, -2.26545, -1.50287,  4.06299
-1.77490, -3.64856,  0.00000, -1.48381, -0.97955, -0.66213, -2.94571, -3.23396,  0.00000, -2.22014, -1.46622,  4.12048
-1.77490, -3.29260, -0.69965, -1.61870, -1.01583, -0.77564, -2.58865, -2.96447,  0.00000, -2.26545, -1.57618,  4.06299
 1.24243,  0.00000, -8.74557, -1.03417, -1.12467, -0.79456, -2.41013, -3.41363,  0.00000, -2.31076, -1.64949,  4.17798
-4.61475, -1.86877, -4.89752, -1.48381, -1.01583, -0.52971, -2.58865, -3.32380,  0.00000, -2.03891, -1.61284,  4.10132
-0.44373, -4.18250,  0.34982, -1.61870, -0.90699, -1.02157, -2.58865, -3.14413,  0.00000, -2.35607, -1.53953,  4.06299
-6.12341, -27.14172, 31.13425, -2.74279, -2.75726, -1.75938, -2.76718, -3.77296,  0.00000, -2.03891, -1.50287,  4.02466
 8.51953, -5.42834, 18.89044, -1.52877, -5.62335, -1.92964, -3.12424, -3.32380,  0.00000, -2.62793, -1.50287,  4.06299
-4.08228, -6.14026,  1.74911, -1.52877, -0.90699, -0.30269, -2.85645, -2.96447,  0.00000, -2.12953, -1.61284,  4.06299
-1.06494, -7.56409, 20.98938, -0.67446, -1.88654, -0.01892, -2.85645, -3.05430,  0.00000, -2.17484, -1.57618,  4.08215
-2.39612, -2.66968, 17.84097, -1.61870, -1.56003, -0.03784, -2.85645, -2.69497,  0.00000, -2.22014, -1.42956,  4.19714
-3.10608, -3.55957, 13.99292, -1.34892, -1.37863, -0.69997, -2.85645, -2.87463,  0.00000, -2.31076, -1.57618,  4.13965
-2.12988, -1.95776, 20.98938, -1.57373, -1.59631,  0.18918, -2.85645, -2.87463,  0.00000, -2.35607, -1.57618,  4.17798
-1.77490, -3.02563, 30.43460, -1.97841, -0.94327,  0.41620, -2.67792, -3.41363,  0.00000, -2.49200, -1.57618,  4.06299
-0.17749, -3.29260, 32.88336, -1.61870, -1.12467,  0.20810, -2.94571, -2.87463,  0.00000, -2.26545, -1.64949,  4.10132
-0.35498, -3.38159, 36.03177, -1.75359, -0.90699,  0.18918, -2.85645, -2.87463,  0.00000, -2.31076, -1.61284,  4.17798
-1.41992, -3.73755, 39.53000, -1.66366, -0.87071,  0.30269, -2.05307, -2.96447,  0.00000, -2.22014, -1.64949,  4.04382
-1.06494, -5.07239, 43.37805, -1.52877, -1.01583,  0.41620, -2.94571, -3.50346,  0.00000, -1.99360, -1.53953,  4.08215
-1.41992, -3.55957, 43.37805, -1.88848, -0.83443,  0.35944, -2.58865, -3.14413,  0.00000, -2.12953, -1.50287,  4.25464
-1.24243, -3.55957, 43.72787, -1.79855, -0.97955,  0.47295, -2.67792, -2.87463,  0.00000, -2.22014, -1.50287,  4.15881
-1.50867, -3.20361, 43.37805, -1.93344, -0.83443,  0.43511, -2.49939, -2.87463,  0.00000, -2.03891, -1.46622,  4.10132
-1.33118, -3.38159, 44.77734, -1.88848, -0.90699,  0.37836, -2.49939, -3.23396,  0.00000, -2.35607, -1.53953,  4.08215
-1.33118, -3.47058, 42.32858, -1.88848, -0.87071,  0.28377, -2.85645, -3.14413,  0.00000, -2.31076, -1.50287,  4.15881
-1.41992, -3.20361, 44.07770, -1.88848, -0.90699,  0.37836, -3.03497, -3.05430,  0.00000, -2.22014, -1.53953,  4.08215
-1.41992, -3.11462, 44.77734, -1.84352, -0.79815,  0.43511, -2.76718, -3.32380,  0.00000, -2.22014, -1.61284,  4.15881
-1.33118, -3.64856, 43.02823, -1.79855, -0.90699,  0.39728, -3.21350, -3.32380,  0.00000, -2.35607, -1.35625,  4.17798
-1.41992, -3.47058, 43.72787, -1.79855, -1.01583,  0.35944, -2.76718, -3.32380,  0.00000, -2.49200, -1.57618,  4.21631
-1.68616, -3.55957, 43.72787, -1.79855, -0.94327,  0.41620, -3.03497, -3.23396,  0.00000, -2.31076, -1.57618,  4.15881
-1.41992, -3.29260, 43.37805, -2.06834, -0.83443,  0.41620, -2.85645, -3.23396,  0.00000, -2.35607, -1.61284,  4.06299
-1.77490, -3.02563, 43.72787, -1.84352, -0.90699,  0.34052, -2.41013, -2.87463,  0.00000, -2.31076, -1.46622,  4.08215
-1.41992, -3.47058, 44.77734, -1.97841, -0.79815,  0.47295, -2.76718, -3.14413,  0.00000, -2.35607, -1.53953,  4.13965
-1.24243, -3.82654, 44.07770, -1.93344, -0.83443,  0.39728, -3.03497, -3.23396,  0.00000, -2.40138, -1.61284,  4.19714
-1.50867, -3.64856, 45.82681, -1.84352, -0.87071,  0.39728, -2.49939, -3.32380,  0.00000, -2.26545, -1.46622,  4.10132
-1.50867, -3.38159, 45.82681, -1.79855, -0.90699,  0.35944, -2.67792, -3.50346,  0.00000, -2.26545, -1.57618,  4.10132
-1.41992, -3.11462, 45.12717, -1.84352, -0.83443,  0.49187, -2.58865, -3.14413,  0.00000, -2.35607, -1.42956,  4.13965
-1.24243, -3.64856, 43.37805, -1.66366, -0.94327,  0.39728, -2.85645, -3.32380,  0.00000, -2.40138, -1.53953,  4.19714
-1.24243, -3.02563, 42.32858, -1.79855, -0.72559,  0.41620, -2.41013, -2.78480,  0.00000, -2.44669, -1.57618,  4.10132
-1.24243, -3.38159, 44.42752, -1.84352, -0.83443,  0.35944, -2.58865, -3.14413,  0.00000, -2.12953, -1.57618,  4.17798
-1.33118, -3.29260, 45.12717, -1.79855, -0.90699,  0.45403, -2.67792, -3.32380,  0.00000, -2.26545, -1.50287,  4.15881
-1.50867, -2.93665, 44.42752, -1.66366, -0.83443,  0.37836, -2.76718, -2.78480,  0.00000, -2.08422, -1.50287,  4.13965
-1.33118, -3.55957, 44.77734, -1.93344, -1.01583,  0.43511, -2.76718, -2.96447,  0.00000, -2.22014, -1.57618,  4.17798
-1.33118, -3.38159, 45.82681, -2.02337, -0.90699,  0.43511, -2.67792, -2.78480,  0.00000, -2.08422, -1.50287,  4.06299
-1.50867, -3.38159, 45.47699, -2.02337, -0.90699,  0.41620, -3.21350, -3.14413,  0.00000, -2.17484, -1.57618,  4.10132
-1.59741, -3.20361, 44.42752, -1.84352, -0.90699,  0.43511, -2.94571, -3.32380,  0.00000, -2.26545, -1.57618,  4.13965
-1.15369, -2.84766, 44.07770, -1.84352, -0.90699,  0.35944, -2.41013, -3.14413,  0.00000, -2.35607, -1.61284,  4.12048
-1.59741, -3.55957, 42.32858, -1.66366, -0.90699,  0.43511, -3.03497, -3.05430,  0.00000, -2.17484, -1.50287,  4.17798
-1.33118, -3.20361, 44.07770, -1.79855, -0.97955,  0.45403, -2.58865, -3.23396,  0.00000, -2.35607, -1.46622,  4.10132
-1.06494, -3.64856, 45.12717, -1.79855, -0.83443,  0.37836, -2.49939, -3.14413,  0.00000, -2.49200, -1.64949,  4.08215
-1.33118, -3.20361, 45.12717, -2.02337, -0.83443,  0.34052, -2.76718, -3.05430,  0.00000, -2.35607, -1.46622,  4.06299
-1.06494, -3.47058, 43.02823, -1.93344, -0.76187,  0.49187, -2.85645, -3.05430,  0.00000, -2.22014, -1.50287,  4.17798
-1.50867, -3.29260, 43.37805, -1.75359, -0.79815,  0.39728, -2.49939, -3.05430,  0.00000, -2.22014, -1.50287,  4.13965
-0.97620, -3.55957, 45.12717, -1.97841, -0.94327,  0.43511, -2.67792, -3.05430,  0.00000, -2.35607, -1.39291,  4.06299
-1.33118, -3.20361, 43.72787, -1.66366, -0.83443,  0.43511, -2.58865, -2.87463,  0.00000, -2.44669, -1.35625,  4.17798
-1.41992, -3.29260, 42.32858, -1.93344, -0.90699,  0.43511, -2.76718, -2.96447,  0.00000, -2.31076, -1.50287,  4.08215
-1.41992, -3.38159, 45.12717, -1.84352, -0.68931,  0.47295, -2.85645, -3.14413,  0.00000, -2.49200, -1.61284,  4.12048
-1.59741, -3.64856, 44.42752, -2.02337, -0.94327,  0.47295, -2.94571, -3.32380,  0.00000, -2.35607, -1.57618,  4.17798
-1.06494, -3.29260, 44.42752, -1.79855, -0.97955,  0.35944, -2.41013, -3.05430,  0.00000, -2.31076, -1.50287,  4.10132
-1.41992, -3.73755, 46.52646, -1.97841, -0.72559,  0.37836, -2.76718, -3.23396,  0.00000, -2.22014, -1.61284,  4.15881
-1.06494, -3.38159, 44.07770, -1.75359, -0.87071,  0.39728, -2.76718, -3.14413,  0.00000, -2.31076, -1.68615,  4.13965
-1.15369, -3.47058, 44.42752, -1.84352, -0.76187,  0.43511, -2.85645, -2.87463,  0.00000, -2.40138, -1.61284,  4.19714
-1.24243, -3.38159, 46.17664, -1.79855, -0.90699,  0.43511, -2.76718, -3.32380,  0.00000, -2.31076, -1.75946,  4.06299
-1.33118, -3.73755, 44.07770, -1.79855, -0.90699,  0.35944, -3.03497, -3.05430,  0.00000, -2.44669, -1.61284,  4.12048
-1.24243, -3.20361, 46.17664, -1.75359, -0.87071,  0.37836, -2.85645, -3.14413,  0.00000, -2.40138, -1.53953,  4.23547
-1.59741, -3.47058, 44.77734, -1.88848, -0.76187,  0.37836, -2.67792, -3.05430,  0.00000, -2.08422, -1.46622,  4.10132
-1.41992, -3.29260, 44.77734, -1.79855, -0.83443,  0.45403, -2.58865, -3.05430,  0.00000, -2.17484, -1.42956,  4.17798
-1.50867, -3.20361, 45.47699, -1.75359, -1.19723,  0.45403, -2.76718, -2.87463,  0.00000, -2.12953, -1.57618,  4.17798
-1.33118, -3.64856, 41.97876, -1.75359, -0.90699,  0.43511, -2.94571, -2.96447,  0.00000, -2.26545, -1.57618,  4.15881
-1.50867, -3.47058, 44.77734, -1.84352, -0.87071,  0.39728, -2.58865, -2.87463,  0.00000, -2.44669, -1.57618,  4.15881
-1.24243, -3.20361, 44.42752, -1.93344, -0.97955,  0.47295, -3.03497, -3.05430,  0.00000, -2.35607, -1.57618,  4.17798
-1.41992, -3.02563, 45.12717, -1.84352, -0.83443,  0.43511, -2.41013, -3.32380,  0.00000, -2.44669, -1.53953,  4.12048
-1.41992, -3.47058, 44.07770, -1.79855, -0.94327,  0.45403, -2.58865, -3.05430,  0.00000, -2.17484, -1.64949,  4.10132
-1.41992, -3.20361, 45.47699, -1.84352, -0.83443,  0.39728, -2.76718, -3.14413,  0.00000, -2.49200, -1.61284,  4.15881
-1.33118, -3.47058, 44.07770, -1.84352, -0.76187,  0.43511, -2.58865, -3.23396,  0.00000, -2.03891, -1.61284,  4.10132
-0.97620, -3.02563, 43.02823, -1.84352, -0.83443,  0.43511, -2.49939, -3.32380,  0.00000, -2.03891, -1.53953,  4.17798
-1.86365, -3.20361, 44.77734, -1.93344, -0.87071,  0.39728, -2.32086, -3.32380,  0.00000, -2.17484, -1.61284,  4.08215
-1.24243, -3.11462, 44.07770, -1.88848, -0.87071,  0.39728, -2.76718, -2.96447,  0.00000, -2.35607, -1.72281,  4.13965
-1.41992, -3.20361, 44.42752, -1.66366, -1.01583,  0.43511, -2.49939, -3.05430,  0.00000, -2.49200, -1.53953,  4.12048
-1.24243, -3.47058, 42.67841, -1.70863, -0.90699,  0.41620, -3.03497, -3.05430,  0.00000, -2.31076, -1.53953,  4.17798
-1.41992, -3.47058, 43.72787, -1.84352, -0.76187,  0.37836, -2.58865, -3.05430,  0.00000, -2.40138, -1.42956,  4.06299
-1.68616, -3.20361, 44.07770, -1.93344, -1.05211,  0.45403, -2.94571, -2.96447,  0.00000, -2.31076, -1.53953,  4.21631
-1.41992, -3.47058, 43.72787, -1.88848, -0.79815,  0.32161, -2.85645, -3.14413,  0.00000, -2.26545, -1.46622,  4.12048
-1.59741, -3.20361, 42.67841, -1.75359, -0.68931,  0.41620, -2.94571, -3.32380,  0.00000, -2.26545, -1.50287,  4.13965
-1.50867, -3.64856, 44.42752, -1.88848, -0.94327,  0.51079, -2.76718, -3.41363,  0.00000, -2.31076, -1.53953,  4.15881
-1.68616, -3.55957, 45.12717, -1.79855, -0.68931,  0.39728, -2.32086, -3.05430,  0.00000, -2.35607, -1.64949,  4.17798
-1.50867, -3.20361, 45.12717, -1.84352, -0.87071,  0.43511, -2.67792, -3.14413,  0.00000, -2.17484, -1.46622,  4.17798
-1.68616, -3.20361, 44.07770, -1.88848, -0.90699,  0.41620, -2.32086, -3.05430,  0.00000, -2.31076, -1.42956,  4.13965
-1.41992, -3.38159, 45.47699, -1.88848, -0.87071,  0.37836, -2.76718, -2.78480,  0.00000, -2.31076, -1.53953,  4.06299
-1.24243, -3.47058, 42.67841, -1.84352, -0.68931,  0.37836, -2.85645, -3.23396,  0.00000, -2.49200, -1.53953,  4.19714
-1.24243, -3.20361, 44.77734, -1.93344, -0.94327,  0.45403, -2.94571, -2.96447,  0.00000, -2.35607, -1.64949,  4.13965
-1.68616, -3.38159, 45.12717, -1.84352, -0.79815,  0.41620, -2.85645, -3.05430,  0.00000, -2.26545, -1.61284,  4.13965
-0.88745, -3.02563, 44.42752, -1.93344, -0.83443,  0.43511, -2.49939, -2.69497,  0.00000, -2.26545, -1.42956,  4.10132
-1.41992, -3.20361, 44.07770, -1.88848, -0.76187,  0.35944, -2.94571, -3.05430,  0.00000, -2.22014, -1.53953,  4.21631
-1.24243, -3.47058, 44.07770, -1.75359, -0.87071,  0.34052, -2.67792, -2.87463,  0.00000, -2.17484, -1.61284,  4.13965
-1.59741, -3.11462, 44.07770, -1.84352, -0.72559,  0.37836, -2.76718, -3.32380,  0.00000, -2.44669, -1.64949,  4.19714
-1.33118, -2.93665, 44.42752, -1.79855, -0.68931,  0.43511, -2.76718, -2.87463,  0.00000, -2.40138, -1.53953,  4.04382
-1.41992, -3.11462, 43.37805, -1.79855, -0.79815,  0.43511, -2.67792, -2.87463,  0.00000, -2.12953, -1.57618,  4.17798
-1.41992, -3.47058, 45.12717, -1.97841, -0.83443,  0.35944, -2.94571, -2.69497,  0.00000, -2.35607, -1.57618,  4.12048
-1.15369, -3.55957, 44.07770, -1.75359, -0.79815,  0.47295, -2.49939, -2.96447,  0.00000, -2.35607, -1.57618,  4.19714
-1.33118, -3.11462, 43.02823, -1.88848, -1.08839,  0.41620, -3.03497, -2.96447,  0.00000, -2.40138, -1.64949,  4.12048
-1.59741, -3.20361, 43.72787, -1.88848, -0.79815,  0.39728, -2.23160, -3.14413,  0.00000, -2.17484, -1.39291,  4.12048
-1.24243, -3.55957, 44.77734, -1.75359, -0.90699,  0.35944, -2.67792, -2.69497,  0.00000, -2.22014, -1.50287,  4.15881
-1.33118, -3.47058, 43.72787, -2.11330, -0.72559,  0.43511, -2.94571, -3.14413,  0.00000, -2.31076, -1.46622,  4.13965
-1.77490, -3.29260, 44.42752, -1.84352, -0.97955,  0.43511, -2.41013, -2.87463,  0.00000, -2.40138, -1.57618,  4.06299
-1.24243, -3.11462, 43.37805, -1.93344, -0.87071,  0.39728, -2.94571, -2.96447,  0.00000, -2.40138, -1.53953,  4.17798
-1.59741, -3.47058, 44.42752, -1.88848, -0.76187,  0.41620, -2.85645, -2.69497,  0.00000, -2.22014, -1.57618,  4.15881
-1.68616, -3.02563, 43.72787, -1.84352, -0.79815,  0.43511, -2.58865, -2.87463,  0.00000, -2.26545, -1.50287,  4.15881
-1.59741, -3.29260, 44.42752, -1.84352, -0.83443,  0.39728, -2.76718, -3.23396,  0.00000, -2.26545, -1.50287,  4.13965
-1.24243, -3.64856, 45.47699, -1.84352, -0.94327,  0.41620, -2.76718, -3.32380,  0.00000, -2.17484, -1.64949,  4.17798
-0.97620, -3.11462, 44.42752, -1.70863, -0.97955,  0.41620, -2.67792, -2.78480,  0.00000, -2.40138, -1.46622,  4.08215
-1.68616, -3.11462, 44.07770, -1.84352, -0.97955,  0.37836, -2.32086, -2.78480,  0.00000, -2.31076, -1.42956,  4.17798
-1.68616, -3.02563, 43.72787, -1.79855, -0.79815,  0.43511, -2.85645, -3.50346,  0.00000, -2.49200, -1.57618,  4.12048
-1.33118, -3.20361, 45.12717, -1.88848, -0.87071,  0.43511, -2.49939, -3.05430,  0.00000, -2.31076, -1.53953,  4.13965
-1.59741, -3.55957, 43.72787, -1.84352, -1.05211,  0.45403, -3.12424, -3.32380,  0.00000, -2.44669, -1.46622,  4.17798
-1.24243, -3.11462, 44.07770, -2.02337, -0.79815,  0.41620, -2.41013, -2.78480,  0.00000, -2.26545, -1.57618,  4.17798
-1.41992, -3.29260, 45.12717, -1.79855, -0.94327,  0.41620, -2.94571, -3.23396,  0.00000, -2.26545, -1.53953,  4.17798
-1.06494, -3.11462, 43.37805, -1.66366, -1.01583,  0.47295, -2.76718, -2.78480,  0.00000, -2.12953, -1.64949,  4.13965
-1.50867, -3.29260, 45.12717, -1.75359, -0.90699,  0.39728, -2.85645, -3.14413,  0.00000, -2.26545, -1.46622,  4.10132
-1.33118, -3.55957, 44.77734, -1.75359, -0.72559,  0.37836, -2.67792, -2.96447,  0.00000, -2.08422, -1.42956,  4.13965
-1.41992, -3.11462, 43.37805, -1.93344, -0.83443,  0.34052, -2.49939, -2.96447,  0.00000, -2.26545, -1.35625,  4.17798
-1.59741, -3.38159, 46.17664, -1.97841, -0.87071,  0.41620, -2.67792, -2.96447,  0.00000, -2.26545, -1.53953,  4.21631
-1.33118, -3.55957, 42.67841, -1.84352, -0.83443,  0.39728, -2.49939, -2.51530,  0.00000, -2.31076, -1.61284,  4.13965
-1.06494, -3.38159, 45.82681, -1.66366, -0.90699,  0.41620, -2.76718, -3.23396,  0.00000, -2.40138, -1.53953,  4.15881
-1.06494, -3.02563, 44.42752, -1.79855, -0.83443,  0.41620, -2.23160, -3.05430,  0.00000, -2.31076, -1.64949,  4.17798
-1.77490, -3.38159, 43.02823, -1.88848, -0.87071,  0.47295, -2.94571, -3.05430,  0.00000, -2.35607, -1.53953,  4.12048
-1.50867, -3.38159, 44.07770, -2.02337, -0.90699,  0.37836, -2.41013, -2.96447,  0.00000, -2.26545, -1.61284,  4.10132
-1.50867, -3.64856, 44.07770, -2.02337, -0.83443,  0.35944, -2.85645, -2.87463,  0.00000, -2.31076, -1.50287,  4.12048
-1.24243, -3.29260, 44.07770, -1.88848, -0.83443,  0.41620, -2.85645, -3.32380,  0.00000, -2.35607, -1.50287,  4.13965
-1.33118, -3.47058, 42.67841, -1.93344, -0.87071,  0.37836, -2.76718, -3.14413,  0.00000, -2.40138, -1.42956,  4.10132
-1.41992, -3.38159, 44.07770, -1.79855, -0.90699,  0.37836, -2.76718, -3.05430,  0.00000, -2.08422, -1.50287,  4.12048
-1.41992, -3.38159, 45.12717, -1.61870, -0.87071,  0.45403, -2.85645, -3.41363,  0.00000, -2.26545, -1.57618,  4.19714
-1.24243, -3.11462, 44.77734, -1.75359, -0.90699,  0.47295, -2.76718, -3.41363,  0.00000, -2.53731, -1.46622,  4.17798
-1.41992, -3.55957, 43.72787, -1.97841, -0.94327,  0.37836, -3.57056, -3.05430,  0.00000, -2.26545, -1.61284,  4.15881
-1.59741, -3.38159, 44.42752, -1.97841, -0.97955,  0.37836, -2.85645, -2.87463,  0.00000, -2.31076, -1.57618,  4.12048
-1.50867, -3.11462, 44.77734, -1.79855, -0.83443,  0.41620, -2.85645, -2.69497,  0.00000, -2.08422, -1.50287,  4.08215
-1.59741, -3.38159, 44.77734, -1.93344, -0.76187,  0.41620, -2.58865, -2.78480,  0.00000, -2.31076, -1.50287,  4.06299
-1.41992, -3.38159, 44.42752, -1.93344, -0.87071,  0.39728, -2.76718, -2.96447,  0.00000, -2.12953, -1.50287,  4.10132
-1.33118, -3.20361, 45.12717, -2.02337, -0.72559,  0.39728, -2.49939, -2.78480,  0.00000, -2.17484, -1.61284,  4.15881
-1.15369, -3.38159, 44.77734, -1.88848, -0.83443,  0.49187, -2.49939, -3.23396,  0.00000, -2.12953, -1.46622,  4.19714
-1.59741, -3.11462, 45.12717, -2.02337, -0.79815,  0.45403, -2.49939, -2.96447,  0.00000, -2.17484, -1.68615,  4.15881
-1.68616, -3.47058, 44.07770, -1.84352, -0.76187,  0.39728, -2.94571, -2.78480,  0.00000, -2.44669, -1.42956,  4.17798
-1.59741, -3.20361, 43.02823, -1.79855, -0.94327,  0.49187, -2.58865, -2.69497,  0.00000, -2.35607, -1.53953,  4.15881
-1.41992, -3.20361, 45.82681, -1.97841, -0.76187,  0.45403, -2.67792, -3.05430,  0.00000, -2.26545, -1.61284,  4.19714
-1.59741, -3.20361, 45.82681, -1.75359, -0.87071,  0.35944, -2.67792, -3.05430,  0.00000, -2.44669, -1.57618,  4.12048
-1.41992, -3.20361, 42.67841, -1.79855, -0.94327,  0.37836, -2.85645, -3.23396,  0.00000, -2.26545, -1.53953,  4.19714
-1.59741, -3.55957, 44.07770, -1.88848, -0.79815,  0.41620, -3.12424, -2.78480,  0.00000, -2.40138, -1.46622,  4.08215
-1.41992, -3.02563, 44.77734, -1.75359, -0.94327,  0.37836, -2.67792, -3.05430,  0.00000, -2.44669, -1.53953,  4.10132
-1.50867, -3.20361, 44.07770, -1.75359, -0.76187,  0.47295, -2.85645, -2.96447,  0.00000, -2.40138, -1.61284,  4.10132
-1.15369, -3.73755, 44.77734, -1.70863, -0.68931,  0.39728, -2.94571, -3.14413,  0.00000, -2.26545, -1.53953,  4.02466
-1.24243, -3.20361, 44.42752, -1.84352, -0.79815,  0.41620, -2.76718, -2.78480,  0.00000, -2.35607, -1.50287,  4.12048
-1.24243, -3.20361, 45.12717, -1.66366, -0.90699,  0.39728, -3.03497, -3.23396,  0.00000, -2.31076, -1.50287,  4.12048
-1.86365, -2.93665, 44.07770, -1.84352, -0.76187,  0.41620, -2.85645, -2.87463,  0.00000, -2.26545, -1.57618,  4.10132
-1.15369, -3.73755, 43.02823, -1.70863, -0.72559,  0.49187, -2.76718, -3.41363,  0.00000, -2.26545, -1.53953,  4.08215
-1.59741, -3.47058, 42.67841, -1.79855, -0.90699,  0.39728, -3.12424, -3.14413,  0.00000, -2.26545, -1.42956,  4.12048
-1.41992, -3.38159, 43.72787, -1.70863, -0.87071,  0.32161, -2.23160, -2.87463,  0.00000, -2.35607, -1.61284,  4.17798
-1.06494, -3.29260, 44.07770, -1.88848, -0.76187,  0.35944, -2.85645, -2.96447,  0.00000, -2.17484, -1.61284,  4.13965
-1.41992, -3.20361, 44.07770, -1.88848, -0.83443,  0.41620, -2.67792, -2.96447,  0.00000, -2.35607, -1.53953,  4.15881
-1.59741, -3.20361, 44.42752, -1.88848, -0.97955,  0.49187, -2.76718, -2.78480,  0.00000, -2.17484, -1.42956,  4.15881
-1.33118, -2.93665, 45.12717, -1.57373, -0.87071,  0.43511, -2.67792, -2.96447,  0.00000, -2.22014, -1.46622,  4.17798
-1.41992, -3.47058, 44.42752, -1.84352, -0.83443,  0.45403, -2.76718, -2.96447,  0.00000, -2.26545, -1.61284,  4.17798
-1.68616, -3.38159, 44.42752, -2.02337, -0.76187,  0.43511, -2.67792, -3.05430,  0.00000, -2.35607, -1.50287,  4.23547
-1.15369, -3.29260, 43.72787, -2.02337, -0.83443,  0.34052, -2.76718, -3.14413,  0.00000, -2.08422, -1.50287,  4.13965
-1.24243, -3.11462, 44.07770, -1.75359, -0.79815,  0.34052, -2.85645, -3.32380,  0.00000, -2.17484, -1.35625,  4.13965
-1.77490, -3.20361, 44.77734, -1.75359, -0.94327,  0.37836, -2.85645, -2.96447,  0.00000, -2.26545, -1.64949,  4.08215
-1.06494, -3.29260, 43.37805, -1.88848, -0.83443,  0.37836, -2.67792, -3.05430,  0.00000, -2.53731, -1.50287,  4.10132
-1.50867, -3.29260, 44.42752, -1.79855, -0.94327,  0.37836, -2.67792, -2.96447,  0.00000, -2.22014, -1.61284,  4.12048
-1.15369, -3.64856, 45.82681, -1.75359, -0.90699,  0.41620, -2.67792, -2.96447,  0.00000, -2.35607, -1.42956,  4.13965
-1.41992, -3.29260, 45.47699, -1.79855, -1.01583,  0.47295, -2.76718, -3.05430,  0.00000, -2.31076, -1.64949,  4.17798
-1.33118, -3.38159, 45.12717, -2.11330, -0.79815,  0.47295, -2.67792, -2.69497,  0.00000, -2.31076, -1.57618,  4.15881
-1.41992, -3.11462, 44.07770, -2.02337, -0.90699,  0.41620, -2.76718, -3.05430,  0.00000, -2.35607, -1.50287,  4.13965
-1.77490, -3.29260, 44.77734, -1.70863, -0.94327,  0.43511, -2.76718, -2.96447,  0.00000, -2.08422, -1.35625,  4.21631
-1.59741, -3.11462, 43.37805, -2.02337, -0.97955,  0.41620, -3.03497, -3.41363,  0.00000, -2.26545, -1.31960,  4.10132
-1.24243, -3.11462, 46.17664, -1.97841, -0.76187,  0.47295, -2.58865, -2.96447,  0.00000, -2.22014, -1.57618,  4.15881
-1.24243, -3.38159, 43.72787, -1.79855, -0.72559,  0.47295, -2.85645, -2.96447,  0.00000, -2.26545, -1.42956,  4.10132
-1.59741, -2.84766, 44.42752, -1.88848, -0.94327,  0.34052, -2.94571, -3.14413,  0.00000, -2.35607, -1.42956,  4.06299
-1.50867, -3.11462, 43.72787, -1.79855, -0.79815,  0.35944, -2.94571, -3.14413,  0.00000, -2.17484, -1.53953,  4.10132
-1.68616, -3.38159, 44.77734, -1.84352, -0.83443,  0.41620, -2.76718, -2.87463,  0.00000, -2.31076, -1.57618,  4.10132
-1.15369, -3.55957, 44.42752, -1.79855, -0.76187,  0.45403, -2.94571, -3.14413,  0.00000, -2.35607, -1.57618,  4.19714
-1.41992, -3.47058, 43.02823, -1.75359, -0.97955,  0.45403, -2.85645, -3.05430,  0.00000, -2.35607, -1.57618,  4.13965
-1.59741, -2.93665, 44.07770, -1.70863, -0.79815,  0.45403, -3.30276, -3.05430,  0.00000, -2.40138, -1.50287,  4.21631
-1.33118, -3.47058, 44.77734, -1.97841, -0.97955,  0.45403, -2.76718, -3.05430,  0.00000, -2.12953, -1.53953,  4.21631
-1.41992, -3.20361, 44.77734, -1.93344, -0.83443,  0.47295, -2.67792, -2.78480,  0.00000, -2.35607, -1.57618,  4.15881
-1.41992, -3.64856, 44.07770, -1.84352, -0.94327,  0.43511, -2.76718, -2.87463,  0.00000, -2.22014, -1.53953,  4.15881
-1.59741, -3.38159, 43.72787, -1.88848, -0.83443,  0.41620, -2.85645, -2.96447,  0.00000, -2.31076, -1.57618,  4.08215
-1.59741, -3.29260, 46.17664, -1.66366, -0.90699,  0.43511, -2.58865, -3.14413,  0.00000, -2.22014, -1.46622,  4.15881
-1.15369, -3.02563, 46.52646, -1.75359, -0.94327,  0.41620, -2.76718, -2.96447,  0.00000, -2.35607, -1.50287,  4.19714
-1.06494, -3.29260, 43.37805, -1.84352, -0.87071,  0.37836, -2.58865, -2.87463,  0.00000, -2.31076, -1.46622,  4.13965
-1.41992, -3.38159, 47.22610, -1.75359, -0.97955,  0.45403, -2.67792, -2.87463,  0.00000, -2.26545, -1.53953,  4.06299
-1.68616, -3.38159, 44.42752, -1.75359, -0.87071,  0.45403, -2.67792, -3.14413,  0.00000, -2.22014, -1.53953,  4.23547
-1.50867, -3.11462, 44.07770, -1.93344, -1.01583,  0.47295, -3.03497, -2.78480,  0.00000, -2.26545, -1.53953,  4.15881
-1.50867, -3.29260, 45.12717, -1.88848, -0.72559,  0.41620, -2.94571, -2.87463,  0.00000, -2.26545, -1.64949,  4.12048
-1.33118, -3.47058, 44.77734, -1.84352, -1.01583,  0.41620, -2.41013, -3.41363,  0.00000, -2.35607, -1.50287,  4.10132
-1.68616, -3.29260, 44.07770, -2.02337, -0.83443,  0.41620, -2.58865, -2.96447,  0.00000, -2.31076, -1.46622,  4.15881
-1.41992, -3.11462, 43.72787, -1.93344, -0.87071,  0.37836, -2.76718, -2.96447,  0.00000, -2.22014, -1.50287,  4.10132
-1.33118, -3.47058, 44.07770, -1.66366, -0.87071,  0.37836, -2.67792, -2.87463,  0.00000, -2.40138, -1.72281,  4.12048
-1.50867, -3.29260, 45.12717, -1.75359, -0.87071,  0.43511, -2.49939, -3.05430,  0.00000, -2.35607, -1.61284,  4.12048
-1.59741, -3.29260, 44.42752, -1.84352, -0.83443,  0.47295, -2.67792, -3.14413,  0.00000, -2.17484, -1.53953,  4.12048
-1.41992, -3.20361, 43.02823, -1.70863, -0.97955,  0.41620, -2.67792, -2.60514,  0.00000, -2.26545, -1.61284,  4.13965
-1.59741, -3.38159, 44.42752, -1.75359, -0.87071,  0.35944, -2.85645, -3.23396,  0.00000, -2.35607, -1.42956,  4.13965
-1.15369, -3.47058, 44.07770, -1.84352, -0.94327,  0.39728, -2.85645, -2.96447,  0.00000, -2.31076, -1.64949,  4.15881
-1.59741, -3.38159, 44.42752, -1.88848, -0.90699,  0.39728, -2.94571, -3.14413,  0.00000, -2.31076, -1.61284,  4.10132
-1.59741, -3.47058, 44.77734, -1.79855, -0.90699,  0.37836, -2.67792, -2.96447,  0.00000, -2.49200, -1.50287,  4.13965
-1.15369, -3.38159, 43.72787, -1.84352, -0.79815,  0.41620, -2.58865, -2.78480,  0.00000, -2.17484, -1.57618,  4.12048
-1.68616, -3.38159, 44.42752, -2.06834, -0.87071,  0.39728, -2.67792, -3.05430,  0.00000, -2.22014, -1.53953,  4.15881
-1.15369, -3.38159, 44.42752, -2.15826, -0.87071,  0.41620, -2.41013, -2.96447,  0.00000, -2.49200, -1.46622,  4.17798
-1.41992, -3.47058, 45.47699, -1.75359, -0.87071,  0.41620, -2.94571, -3.41363,  0.00000, -2.26545, -1.64949,  4.08215
-1.41992, -3.11462, 46.87628, -1.79855, -0.87071,  0.45403, -2.23160, -3.50346,  0.00000, -2.31076, -1.61284,  4.06299
-1.33118, -3.47058, 43.72787, -1.75359, -0.83443,  0.32161, -2.67792, -3.23396,  0.00000, -2.35607, -1.50287,  4.12048
-1.06494, -3.47058, 44.42752, -1.93344, -0.79815,  0.41620, -2.85645, -2.87463,  0.00000, -2.22014, -1.61284,  4.10132
-1.33118, -3.73755, 46.17664, -1.75359, -0.65303,  0.47295, -3.21350, -3.23396,  0.00000, -2.22014, -1.53953,  4.02466
-1.59741, -2.84766, 50.37451, -1.66366, -0.90699,  0.49187, -2.85645, -3.59329,  0.00000, -2.26545, -1.57618,  4.10132
-1.24243, -0.53394, 58.77026, -1.93344, -0.94327,  0.66213, -2.85645, -3.14413,  0.00000, -2.49200, -1.61284,  4.13965
-1.06494, -1.24585, 53.17310, -2.11330, -0.94327,  0.64321, -3.21350, -3.32380,  0.00000, -2.26545, -1.39291,  4.19714
-0.70996, -2.75867, 52.12363, -1.70863, -0.76187,  0.60538, -2.58865, -2.87463,  0.00000, -2.40138, -1.46622,  4.04382
-0.97620, -3.91553, 49.32504, -1.57373, -0.76187,  0.51079, -2.49939, -2.69497,  0.00000, -2.31076, -1.83277,  4.10132
-0.97620, -4.00452, 50.02469, -1.48381, -0.83443,  0.58646, -2.85645, -3.23396,  0.00000, -2.31076, -1.46622,  4.12048
-0.53247, -4.18250, 49.32504, -1.48381, -0.76187,  0.58646, -2.94571, -3.05430,  0.00000, -2.12953, -1.50287,  4.12048
-0.88745, -2.93665, 52.82327, -1.57373, -0.72559,  0.69997, -2.94571, -3.23396,  0.00000, -2.40138, -1.57618,  4.10132
-1.50867, -3.38159, 51.77380, -1.48381, -0.90699,  0.62430, -3.03497, -3.14413,  0.00000, -2.31076, -1.53953,  4.15881
-0.88745, -5.16138, 60.16956, -1.97841, -0.83443,  0.79456, -2.85645, -2.60514,  0.00000, -2.40138, -1.68615,  4.13965
-2.92859, -3.91553, 72.41336, -2.42805, -0.58047,  0.85131, -2.41013, -2.87463,  0.00000, -2.26545, -1.57618,  4.13965
-2.57361, -2.75867, 61.21902, -1.88848, -0.68931,  0.77564, -2.49939, -3.05430,  0.00000, -2.31076, -1.53953,  4.13965
-1.68616, -2.40271, 60.16956, -1.70863, -0.76187,  0.87023, -2.85645, -3.23396,  0.00000, -2.22014, -1.64949,  4.23547
-1.06494, -2.40271, 61.21902, -1.52877, -0.65303,  0.96482, -2.49939, -2.87463,  0.00000, -2.12953, -1.39291,  4.15881
-1.86365, -3.02563, 66.46637, -1.84352, -0.79815,  0.96482, -2.85645, -2.69497,  0.00000, -2.35607, -1.64949,  4.12048
-3.10608, -1.06787, 70.31442, -1.70863, -0.50792,  1.09725, -2.49939, -3.23396,  0.00000, -2.53731, -1.57618,  4.13965
 4.52600, -0.71191, 75.21194, -1.12410, -0.97955,  1.49452, -2.67792, -2.69497,  0.00000, -2.35607, -1.61284,  4.21631
 1.50867, -3.91553, 69.96460, -2.33812, -1.16095,  1.05941, -2.41013, -3.23396,  0.00000, -2.26545, -1.61284,  4.10132
-0.35498, -3.47058, 59.12009, -2.06834, -0.97955,  0.69997, -2.32086, -3.14413,  0.00000, -2.08422, -1.42956,  4.12048
-2.04114, -1.51282, 51.42398, -2.11330, -0.79815,  0.60538, -2.76718, -2.69497,  0.00000, -2.17484, -1.53953,  4.13965
-6.65588, -17.26392,  5.24734,  2.11330, -3.59169,  4.23764, -0.62485, -4.40178,  0.00000, -2.49200, -1.46622,  3.69885
-8.60828, 10.41174, 30.08478, -5.26077,  0.87071,  2.47826, -2.14233, -2.24581,  0.00000, -2.44669, -1.68615,  4.23547
-0.17749, -9.87781, 51.42398,  0.80935,  0.50792, -0.01892, -2.58865, -3.14413,  0.00000, -2.85447, -1.68615,  4.00549
-1.50867, -4.80542, 80.80911, -1.43884, -1.01583, -0.07567, -2.41013, -3.05430,  0.00000, -2.35607, -1.57618,  3.92883
 3.19482, -5.51733, 76.61124, -1.66366, -0.97955,  1.09725, -2.67792, -2.96447,  0.00000, -2.26545, -1.79612,  3.98633
 2.04114, -5.42834, 80.45929, -1.84352, -0.76187,  1.24859, -2.94571, -3.05430,  0.00000, -2.22014, -1.35625,  3.96716
 0.62122, -4.71643, 81.85858, -1.79855, -0.76187,  1.30534, -2.76718, -3.32380,  0.00000, -2.35607, -1.57618,  3.98633
 0.79871, -4.00452, 82.90805, -1.97841, -0.87071,  1.41885, -2.94571, -3.32380,  0.00000, -2.40138, -1.46622,  3.98633
 0.26624, -3.29260, 85.35681, -2.15826, -0.72559,  1.39993, -2.67792, -2.60514,  0.00000, -2.22014, -1.61284,  3.96716
-0.26624, -2.31372, 88.15540, -2.15826, -0.83443,  1.47561, -2.76718, -2.96447,  0.00000, -2.40138, -1.57618,  3.89050
 0.00000, -2.66968, 86.05646, -2.29316, -0.65303,  1.45669, -3.03497, -2.87463,  0.00000, -2.53731, -1.57618,  4.04382
-0.44373, -2.58069, 86.40628, -2.47301, -0.65303,  1.34318, -2.76718, -2.87463,  0.00000, -2.40138, -1.53953,  4.00549
-0.79871, -3.11462, 87.80557, -2.29316, -0.58047,  1.45669, -2.76718, -3.23396,  0.00000, -2.12953, -1.53953,  3.98633
-1.15369, -3.55957, 88.85504, -2.33812, -0.61675,  1.41885, -2.76718, -2.78480,  0.00000, -2.12953, -1.42956,  3.96716
-0.97620, -3.20361, 89.20486, -2.38308, -0.83443,  1.53236, -3.03497, -3.05430,  0.00000, -2.31076, -1.50287,  3.90967
-0.97620, -2.93665, 88.15540, -2.24819, -0.61675,  1.43777, -3.03497, -2.96447,  0.00000, -2.40138, -1.46622,  3.98633
-1.06494, -3.02563, 87.80557, -2.56294, -0.61675,  1.39993, -2.67792, -3.14413,  0.00000, -2.26545, -1.61284,  3.96716
-1.06494, -3.11462, 89.55469, -2.33812, -0.58047,  1.43777, -2.67792, -3.05430,  0.00000, -2.31076, -1.53953,  3.98633
-1.15369, -3.02563, 88.50522, -2.38308, -0.79815,  1.43777, -2.67792, -2.96447,  0.00000, -2.12953, -1.53953,  3.96716
-1.15369, -3.29260, 88.15540, -2.47301, -0.54420,  1.38102, -2.94571, -3.23396,  0.00000, -2.26545, -1.57618,  4.02466
-1.15369, -3.29260, 89.55469, -2.33812, -0.58047,  1.43777, -2.49939, -3.14413,  0.00000, -2.26545, -1.61284,  4.02466
-1.15369, -3.29260, 88.85504, -2.11330, -0.58047,  1.43777, -2.67792, -3.41363,  0.00000, -2.26545, -1.53953,  3.92883
-0.97620, -2.84766, 89.20486, -2.47301, -0.72559,  1.45669, -2.94571, -2.60514,  0.00000, -2.35607, -1.42956,  4.02466
-1.33118, -3.47058, 88.85504, -2.47301, -0.65303,  1.45669, -2.49939, -2.96447,  0.00000, -2.22014, -1.42956,  3.96716
-0.97620, -3.02563, 88.50522, -2.42805, -0.54420,  1.41885, -2.49939, -3.14413,  0.00000, -2.49200, -1.53953,  3.98633
-1.24243, -3.29260, 87.80557, -2.38308, -0.54420,  1.43777, -3.12424, -3.32380,  0.00000, -2.31076, -1.50287,  3.89050
-1.06494, -2.93665, 87.80557, -2.29316, -0.79815,  1.43777, -2.85645, -3.59329,  0.00000, -2.17484, -1.53953,  3.94800
-1.24243, -2.84766, 88.15540, -2.38308, -0.47164,  1.32426, -2.85645, -3.23396,  0.00000, -2.40138, -1.50287,  3.92883
-1.24243, -3.11462, 88.15540, -2.29316, -0.58047,  1.41885, -2.49939, -3.41363,  0.00000, -2.44669, -1.57618,  4.00549
-1.24243, -3.29260, 90.25433, -2.47301, -0.65303,  1.38102, -2.85645, -2.60514,  0.00000, -2.17484, -1.57618,  4.00549
-0.79871, -3.38159, 88.15540, -2.15826, -0.61675,  1.45669, -2.58865, -2.69497,  0.00000, -1.94829, -1.57618,  3.94800
-1.15369, -3.47058, 88.85504, -2.38308, -0.50792,  1.39993, -2.58865, -2.96447,  0.00000, -2.22014, -1.50287,  3.98633
-1.06494, -3.29260, 88.85504, -2.47301, -0.68931,  1.51344, -2.76718, -3.05430,  0.00000, -2.40138, -1.72281,  3.98633
-1.15369, -3.11462, 89.20486, -2.15826, -0.50792,  1.45669, -3.12424, -3.23396,  0.00000, -2.26545, -1.57618,  3.96716
-1.06494, -3.38159, 86.40628, -2.24819, -0.76187,  1.32426, -3.03497, -3.23396,  0.00000, -2.31076, -1.57618,  4.00549
-0.79871, -3.38159, 87.10593, -2.42805, -0.72559,  1.41885, -2.85645, -3.14413,  0.00000, -2.35607, -1.46622,  4.04382
-1.15369, -3.55957, 87.80557, -2.29316, -0.68931,  1.43777, -3.12424, -3.14413,  0.00000, -2.35607, -1.39291,  3.96716
-0.88745, -3.20361, 88.85504, -2.38308, -0.61675,  1.47561, -2.58865, -3.14413,  0.00000, -2.40138, -1.50287,  3.96716
-0.79871, -2.93665, 88.85504, -2.38308, -0.79815,  1.43777, -2.94571, -3.14413,  0.00000, -2.17484, -1.50287,  4.06299
-1.15369, -2.93665, 87.80557, -2.42805, -0.68931,  1.39993, -2.85645, -3.05430,  0.00000, -2.31076, -1.53953,  3.96716
-1.06494, -3.29260, 89.20486, -2.38308, -0.65303,  1.39993, -2.41013, -2.96447,  0.00000, -2.31076, -1.61284,  3.94800
-1.15369, -3.11462, 88.50522, -2.20323, -0.54420,  1.45669, -2.76718, -2.78480,  0.00000, -2.35607, -1.53953,  4.00549
-1.33118, -3.29260, 88.50522, -2.33812, -0.68931,  1.45669, -2.58865, -3.05430,  0.00000, -2.22014, -1.61284,  3.96716
-1.06494, -3.20361, 87.45575, -2.29316, -0.72559,  1.30534, -2.94571, -2.87463,  0.00000, -2.03891, -1.53953,  3.96716
-1.06494, -3.38159, 88.85504, -2.29316, -0.54420,  1.43777, -2.85645, -3.05430,  0.00000, -2.35607, -1.61284,  3.98633
-1.06494, -3.47058, 88.50522, -2.38308, -0.58047,  1.43777, -3.03497, -3.32380,  0.00000, -2.31076, -1.53953,  3.94800
-1.41992, -3.29260, 89.20486, -2.29316, -0.72559,  1.36210, -2.94571, -3.05430,  0.00000, -2.49200, -1.57618,  4.00549
-1.33118, -3.02563, 88.15540, -2.42805, -0.65303,  1.39993, -2.94571, -3.23396,  0.00000, -2.12953, -1.50287,  3.94800
-0.88745, -3.29260, 88.50522, -2.24819, -0.58047,  1.36210, -2.85645, -3.14413,  0.00000, -2.31076, -1.61284,  4.00549
-0.97620, -3.20361, 88.85504, -2.15826, -0.79815,  1.45669, -2.67792, -3.05430,  0.00000, -2.40138, -1.68615,  3.94800
-0.97620, -3.11462, 87.80557, -2.47301, -0.68931,  1.45669, -2.67792, -2.96447,  0.00000, -2.31076, -1.39291,  4.04382
-1.15369, -2.84766, 88.50522, -2.47301, -0.79815,  1.38102, -2.58865, -2.87463,  0.00000, -2.08422, -1.53953,  3.98633
-1.24243, -3.29260, 88.85504, -2.20323, -0.61675,  1.47561, -2.85645, -2.78480,  0.00000, -2.49200, -1.46622,  4.04382
-1.15369, -3.38159, 88.15540, -2.51797, -0.65303,  1.43777, -2.58865, -3.05430,  0.00000, -2.03891, -1.53953,  3.94800
-1.33118, -3.29260, 89.55469, -2.47301, -0.72559,  1.36210, -3.21350, -2.87463,  0.00000, -2.31076, -1.57618,  4.02466
-1.59741, -3.11462, 88.50522, -2.29316, -0.76187,  1.45669, -2.94571, -2.96447,  0.00000, -2.17484, -1.61284,  4.00549
-1.06494, -3.29260, 88.50522, -2.38308, -0.65303,  1.49452, -2.58865, -2.69497,  0.00000, -2.35607, -1.50287,  3.98633
-1.41992, -2.75867, 88.50522, -2.47301, -0.58047,  1.45669, -2.49939, -3.05430,  0.00000, -2.22014, -1.50287,  3.96716
-1.33118, -2.84766, 87.45575, -2.29316, -0.61675,  1.39993, -3.03497, -3.23396,  0.00000, -2.31076, -1.61284,  4.02466
-1.06494, -3.29260, 88.50522, -2.47301, -0.65303,  1.43777, -3.12424, -3.23396,  0.00000, -2.22014, -1.61284,  4.02466
-0.79871, -3.29260, 89.20486, -2.47301, -0.61675,  1.41885, -2.85645, -3.23396,  0.00000, -2.35607, -1.57618,  3.98633
-0.88745, -3.02563, 88.50522, -2.47301, -0.61675,  1.43777, -3.03497, -3.23396,  0.00000, -2.22014, -1.61284,  3.96716
-0.97620, -2.93665, 88.50522, -2.24819, -0.54420,  1.41885, -2.76718, -3.05430,  0.00000, -2.12953, -1.61284,  3.98633
-0.88745, -3.29260, 88.85504, -2.11330, -0.61675,  1.41885, -2.76718, -3.50346,  0.00000, -2.17484, -1.61284,  4.02466
-0.97620, -3.47058, 88.50522, -2.11330, -0.65303,  1.39993, -2.85645, -3.23396,  0.00000, -2.35607, -1.46622,  3.98633
-1.24243, -3.29260, 87.45575, -2.29316, -0.65303,  1.43777, -2.85645, -3.05430,  0.00000, -2.17484, -1.42956,  3.94800
-0.97620, -3.29260, 88.50522, -2.29316, -0.87071,  1.39993, -2.67792, -3.23396,  0.00000, -2.35607, -1.50287,  4.02466
-0.97620, -3.11462, 87.80557, -2.29316, -0.61675,  1.39993, -2.94571, -2.96447,  0.00000, -2.26545, -1.64949,  3.96716
-1.15369, -3.20361, 89.20486, -2.47301, -0.65303,  1.43777, -2.49939, -2.78480,  0.00000, -2.44669, -1.53953,  3.92883
-1.24243, -3.02563, 88.15540, -2.42805, -0.65303,  1.39993, -3.21350, -2.87463,  0.00000, -2.40138, -1.50287,  3.96716
-1.15369, -3.38159, 88.50522, -2.47301, -0.76187,  1.38102, -2.58865, -2.87463,  0.00000, -2.35607, -1.46622,  3.98633
-1.15369, -3.29260, 86.75610, -2.47301, -0.72559,  1.51344, -2.85645, -3.14413,  0.00000, -2.31076, -1.68615,  3.98633
-1.15369, -2.93665, 88.85504, -2.29316, -0.76187,  1.39993, -3.12424, -3.14413,  0.00000, -2.26545, -1.39291,  4.00549
-1.06494, -3.20361, 88.15540, -2.38308, -0.72559,  1.45669, -2.58865, -2.96447,  0.00000, -2.31076, -1.42956,  3.96716
-0.97620, -3.29260, 88.15540, -2.51797, -0.65303,  1.36210, -2.41013, -2.96447,  0.00000, -2.22014, -1.53953,  3.98633
-0.97620, -3.20361, 88.50522, -2.47301, -0.87071,  1.39993, -2.58865, -3.05430,  0.00000, -2.22014, -1.57618,  3.98633
-1.24243, -3.02563, 88.50522, -2.42805, -0.58047,  1.43777, -2.49939, -2.96447,  0.00000, -2.12953, -1.57618,  3.90967
-1.06494, -2.75867, 88.85504, -2.20323, -0.79815,  1.45669, -2.32086, -2.96447,  0.00000, -2.35607, -1.46622,  3.98633
-0.97620, -3.02563, 87.80557, -2.38308, -0.68931,  1.43777, -2.32086, -3.14413,  0.00000, -2.26545, -1.61284,  4.02466
-1.15369, -3.11462, 88.15540, -2.06834, -0.65303,  1.38102, -2.94571, -2.78480,  0.00000, -2.40138, -1.46622,  3.92883
-1.15369, -3.20361, 88.85504, -2.42805, -0.68931,  1.45669, -2.58865, -2.96447,  0.00000, -2.12953, -1.42956,  3.96716
-1.33118, -2.66968, 90.25433, -2.33812, -0.65303,  1.41885, -3.03497, -3.41363,  0.00000, -2.26545, -1.46622,  3.94800
-0.88745, -3.11462, 88.15540, -2.47301, -0.76187,  1.43777, -2.58865, -2.69497,  0.00000, -2.44669, -1.61284,  3.96716
-0.79871, -3.11462, 88.50522, -2.38308, -0.68931,  1.38102, -3.12424, -3.23396,  0.00000, -2.31076, -1.61284,  4.02466
-0.62122, -3.82654, 85.70663, -2.33812, -0.65303,  1.38102, -2.76718, -3.14413,  0.00000, -2.35607, -1.53953,  4.00549
-1.06494, -2.93665, 87.45575, -2.47301, -0.87071,  1.45669, -2.85645, -3.23396,  0.00000, -2.31076, -1.61284,  3.98633
-1.15369, -3.11462, 86.75610, -2.56294, -0.54420,  1.38102, -2.76718, -3.32380,  0.00000, -2.26545, -1.46622,  4.02466
-1.24243, -3.47058, 88.85504, -2.29316, -0.58047,  1.39993, -2.94571, -2.96447,  0.00000, -2.35607, -1.46622,  4.02466
-1.24243, -3.02563, 88.15540, -2.29316, -0.61675,  1.47561, -2.58865, -3.32380,  0.00000, -2.26545, -1.53953,  3.98633
-1.41992, -3.02563, 88.50522, -2.51797, -0.65303,  1.43777, -2.41013, -2.96447,  0.00000, -2.12953, -1.57618,  3.94800
-1.24243, -3.47058, 88.15540, -2.51797, -0.68931,  1.41885, -2.41013, -3.14413,  0.00000, -2.26545, -1.75946,  3.94800
-1.33118, -3.29260, 88.50522, -2.29316, -0.68931,  1.45669, -2.76718, -3.32380,  0.00000, -2.31076, -1.68615,  3.94800
-1.24243, -3.38159, 87.80557, -2.38308, -0.61675,  1.39993, -3.03497, -3.05430,  0.00000, -2.12953, -1.57618,  3.89050
-1.06494, -2.75867, 87.10593, -2.33812, -0.58047,  1.47561, -2.67792, -3.14413,  0.00000, -2.35607, -1.61284,  3.92883
-1.15369, -3.11462, 88.15540, -2.42805, -0.58047,  1.43777, -2.67792, -3.23396,  0.00000, -2.26545, -1.53953,  4.00549
-1.24243, -2.84766, 88.15540, -2.38308, -0.58047,  1.43777, -3.12424, -3.14413,  0.00000, -2.22014, -1.50287,  3.96716
-0.79871, -3.38159, 87.10593, -2.56294, -0.68931,  1.45669, -2.58865, -3.05430,  0.00000, -2.40138, -1.61284,  4.00549
-1.33118, -3.29260, 86.75610, -2.33812, -0.72559,  1.45669, -2.67792, -3.14413,  0.00000, -2.03891, -1.86943,  3.89050
-1.68616, -3.29260, 87.45575, -2.42805, -0.61675,  1.41885, -2.49939, -3.32380,  0.00000, -2.17484, -1.64949,  3.96716
-1.24243, -3.47058, 88.50522, -2.11330, -0.58047,  1.41885, -2.76718, -2.78480,  0.00000, -2.40138, -1.61284,  3.96716
-1.41992, -2.93665, 87.80557, -2.47301, -0.72559,  1.47561, -2.76718, -3.14413,  0.00000, -2.26545, -1.57618,  3.94800
-1.24243, -3.47058, 89.55469, -2.29316, -0.61675,  1.51344, -3.03497, -2.96447,  0.00000, -2.44669, -1.53953,  3.94800
-1.15369, -3.29260, 88.50522, -2.38308, -0.61675,  1.47561, -2.67792, -3.23396,  0.00000, -2.35607, -1.46622,  3.92883
-1.33118, -3.55957, 88.85504, -2.47301, -0.61675,  1.39993, -2.58865, -2.87463,  0.00000, -2.49200, -1.75946,  3.94800
-0.79871, -3.38159, 87.80557, -2.38308, -0.58047,  1.38102, -3.12424, -2.87463,  0.00000, -2.35607, -1.53953,  3.92883
-0.88745, -3.38159, 86.75610, -2.51797, -0.72559,  1.49452, -2.67792, -3.32380,  0.00000, -2.44669, -1.72281,  4.00549
-1.24243, -3.47058, 89.20486, -2.24819, -0.76187,  1.43777, -2.94571, -3.14413,  0.00000, -2.53731, -1.57618,  3.96716
-1.50867, -3.29260, 89.55469, -2.38308, -0.72559,  1.45669, -2.67792, -3.05430,  0.00000, -2.44669, -1.53953,  3.92883
-1.06494, -3.11462, 88.15540, -2.20323, -0.58047,  1.45669, -2.49939, -2.87463,  0.00000, -2.31076, -1.46622,  3.98633
-1.06494, -3.11462, 88.50522, -2.20323, -0.54420,  1.39993, -2.85645, -2.78480,  0.00000, -2.26545, -1.57618,  3.96716
-1.15369, -2.93665, 89.90451, -2.42805, -0.79815,  1.49452, -2.49939, -2.69497,  0.00000, -2.26545, -1.68615,  3.96716
-0.97620, -3.29260, 86.75610, -2.33812, -0.68931,  1.38102, -2.76718, -2.87463,  0.00000, -2.26545, -1.57618,  3.94800
-1.41992, -3.20361, 87.80557, -2.11330, -0.72559,  1.45669, -3.30276, -2.87463,  0.00000, -2.35607, -1.53953,  3.96716
-0.70996, -3.29260, 87.45575, -2.38308, -0.61675,  1.47561, -2.94571, -2.96447,  0.00000, -2.53731, -1.50287,  3.92883
-1.33118, -3.20361, 88.50522, -2.56294, -0.68931,  1.41885, -3.12424, -3.14413,  0.00000, -2.35607, -1.72281,  3.96716
-1.15369, -3.29260, 87.80557, -2.38308, -0.79815,  1.39993, -2.76718, -3.05430,  0.00000, -2.44669, -1.53953,  4.04382
-1.15369, -3.11462, 87.45575, -2.33812, -0.65303,  1.43777, -2.94571, -3.14413,  0.00000, -2.26545, -1.61284,  3.92883
-1.06494, -3.20361, 88.15540, -2.47301, -0.58047,  1.39993, -2.94571, -3.32380,  0.00000, -2.12953, -1.61284,  4.00549
-1.06494, -3.38159, 89.90451, -2.51797, -0.61675,  1.38102, -2.76718, -2.96447,  0.00000, -2.22014, -1.61284,  3.98633
-1.06494, -3.38159, 88.15540, -2.29316, -0.61675,  1.41885, -2.94571, -2.96447,  0.00000, -2.22014, -1.50287,  4.02466
-1.33118, -3.02563, 87.80557, -2.24819, -0.79815,  1.45669, -2.67792, -2.96447,  0.00000, -2.26545, -1.75946,  3.98633
-1.24243, -2.93665, 87.80557, -2.38308, -0.61675,  1.41885, -2.49939, -3.05430,  0.00000, -2.44669, -1.53953,  4.04382
-0.79871, -3.02563, 89.20486, -2.47301, -0.68931,  1.45669, -2.76718, -3.05430,  0.00000, -2.22014, -1.61284,  3.89050
-1.41992, -3.02563, 87.45575, -2.42805, -0.58047,  1.41885, -2.94571, -2.78480,  0.00000, -2.44669, -1.46622,  3.98633
-1.15369, -3.38159, 88.15540, -2.29316, -0.58047,  1.53236, -2.94571, -3.23396,  0.00000, -2.53731, -1.72281,  4.00549
-1.24243, -3.11462, 89.20486, -2.51797, -0.68931,  1.41885, -2.85645, -3.14413,  0.00000, -2.31076, -1.42956,  3.98633
-1.06494, -3.20361, 87.10593, -2.33812, -0.54420,  1.43777, -3.03497, -2.78480,  0.00000, -2.22014, -1.53953,  4.04382
-1.06494, -3.11462, 88.15540, -2.38308, -0.68931,  1.39993, -2.58865, -3.05430,  0.00000, -2.40138, -1.61284,  4.00549
-0.97620, -3.11462, 88.85504, -2.47301, -0.72559,  1.49452, -2.94571, -3.23396,  0.00000, -2.22014, -1.72281,  4.06299
-1.24243, -2.75867, 87.10593, -2.47301, -0.68931,  1.38102, -2.76718, -2.96447,  0.00000, -2.22014, -1.68615,  3.98633
-1.15369, -3.02563, 88.50522, -2.29316, -0.61675,  1.49452, -2.76718, -3.05430,  0.00000, -2.08422, -1.53953,  4.02466
-1.15369, -3.02563, 87.80557, -2.42805, -0.68931,  1.30534, -2.94571, -2.60514,  0.00000, -2.53731, -1.50287,  3.92883
-0.70996, -3.29260, 87.80557, -2.15826, -0.58047,  1.41885, -3.03497, -3.05430,  0.00000, -2.40138, -1.53953,  3.92883
-0.79871, -3.38159, 87.45575, -2.38308, -0.61675,  1.49452, -2.32086, -2.96447,  0.00000, -2.40138, -1.57618,  3.90967
-1.41992, -2.66968, 87.10593, -2.42805, -0.79815,  1.39993, -2.94571, -2.69497,  0.00000, -2.40138, -1.57618,  3.90967
-1.06494, -3.55957, 88.85504, -2.47301, -0.54420,  1.39993, -2.85645, -2.60514,  0.00000, -2.17484, -1.53953,  4.00549
-1.06494, -3.29260, 89.90451, -2.56294, -0.72559,  1.43777, -2.58865, -2.87463,  0.00000, -2.17484, -1.57618,  4.00549
-1.50867, -3.20361, 88.15540, -2.29316, -0.61675,  1.39993, -2.76718, -3.05430,  0.00000, -2.40138, -1.53953,  3.94800
-1.33118, -3.02563, 89.55469, -2.56294, -0.68931,  1.47561, -3.03497, -3.23396,  0.00000, -2.26545, -1.46622,  3.96716
-1.50867, -3.20361, 88.15540, -2.33812, -0.54420,  1.43777, -2.58865, -2.78480,  0.00000, -2.35607, -1.50287,  3.94800
-0.79871, -3.38159, 87.80557, -2.29316, -0.50792,  1.41885, -2.49939, -2.96447,  0.00000, -2.31076, -1.53953,  3.96716
-1.15369, -3.47058, 88.15540, -2.29316, -0.65303,  1.39993, -2.58865, -3.32380,  0.00000, -2.31076, -1.39291,  3.96716
-1.33118, -3.20361, 88.15540, -2.47301, -0.72559,  1.43777, -2.58865, -2.87463,  0.00000, -2.17484, -1.42956,  3.96716
-0.79871, -3.29260, 88.85504, -2.20323, -0.68931,  1.45669, -2.85645, -3.14413,  0.00000, -2.17484, -1.68615,  3.96716
-1.15369, -3.11462, 86.75610, -2.33812, -0.76187,  1.39993, -2.49939, -2.78480,  0.00000, -2.44669, -1.53953,  4.02466
-1.59741, -2.66968, 89.90451, -2.33812, -0.61675,  1.41885, -2.58865, -2.87463,  0.00000, -2.17484, -1.61284,  3.92883
-0.97620, -3.11462, 87.45575, -2.29316, -0.72559,  1.39993, -2.49939, -3.32380,  0.00000, -2.22014, -1.53953,  4.00549
-0.88745, -3.47058, 87.45575, -2.24819, -0.72559,  1.34318, -2.67792, -3.23396,  0.00000, -2.12953, -1.46622,  3.92883
-1.24243, -3.29260, 88.50522, -2.38308, -0.61675,  1.47561, -2.85645, -2.96447,  0.00000, -2.31076, -1.50287,  3.96716
-1.15369, -3.02563, 88.85504, -2.33812, -0.68931,  1.41885, -3.03497, -2.78480,  0.00000, -2.22014, -1.50287,  4.02466
-1.06494, -3.20361, 89.20486, -2.38308, -0.72559,  1.41885, -2.49939, -2.96447,  0.00000, -2.44669, -1.61284,  3.96716
-1.33118, -3.64856, 87.80557, -2.42805, -0.47164,  1.43777, -2.58865, -2.96447,  0.00000, -2.35607, -1.53953,  3.90967
-0.97620, -3.64856, 88.15540, -2.33812, -0.68931,  1.39993, -2.76718, -2.87463,  0.00000, -2.22014, -1.61284,  3.96716
-0.88745, -3.47058, 87.80557, -2.38308, -0.72559,  1.39993, -3.12424, -3.23396,  0.00000, -2.17484, -1.50287,  4.04382
-1.24243, -3.55957, 88.85504, -2.51797, -0.61675,  1.41885, -2.76718, -3.23396,  0.00000, -2.40138, -1.57618,  4.00549
-1.15369, -3.11462, 88.50522, -2.42805, -0.72559,  1.36210, -2.76718, -2.78480,  0.00000, -2.12953, -1.64949,  3.90967
-0.70996, -3.11462, 88.15540, -2.33812, -0.79815,  1.38102, -2.76718, -2.78480,  0.00000, -2.40138, -1.46622,  3.96716
-1.06494, -3.02563, 87.45575, -2.33812, -0.61675,  1.36210, -2.49939, -3.23396,  0.00000, -2.40138, -1.61284,  4.02466
-1.33118, -3.11462, 89.20486, -2.38308, -0.68931,  1.39993, -2.58865, -3.05430,  0.00000, -2.22014, -1.61284,  4.00549
-1.15369, -3.38159, 89.90451, -2.42805, -0.65303,  1.45669, -2.76718, -2.60514,  0.00000, -2.22014, -1.61284,  3.98633
-1.41992, -3.20361, 89.20486, -2.33812, -0.54420,  1.38102, -2.76718, -3.05430,  0.00000, -2.40138, -1.72281,  3.94800
-1.06494, -3.29260, 87.10593, -2.33812, -0.58047,  1.45669, -2.94571, -2.69497,  0.00000, -2.35607, -1.53953,  3.94800
-1.06494, -3.11462, 87.80557, -2.20323, -0.72559,  1.43777, -2.85645, -2.87463,  0.00000, -2.49200, -1.57618,  3.94800
-1.15369, -3.11462, 85.70663, -2.51797, -0.76187,  1.43777, -2.85645, -2.96447,  0.00000, -2.44669, -1.68615,  4.02466
-0.97620, -3.29260, 88.50522, -2.51797, -0.54420,  1.43777, -2.94571, -3.32380,  0.00000, -2.31076, -1.64949,  4.00549
-0.70996, -3.20361, 87.10593, -2.33812, -0.65303,  1.39993, -2.85645, -3.14413,  0.00000, -2.26545, -1.68615,  3.92883
-1.24243, -3.11462, 87.80557, -2.24819, -0.54420,  1.49452, -2.94571, -3.05430,  0.00000, -2.31076, -1.42956,  4.00549
-1.24243, -3.73755, 88.15540, -2.29316, -0.54420,  1.39993, -2.85645, -3.14413,  0.00000, -2.35607, -1.57618,  3.94800
-1.15369, -3.38159, 87.80557, -2.38308, -0.83443,  1.39993, -3.12424, -3.05430,  0.00000, -2.31076, -1.42956,  4.02466
-1.41992, -3.47058, 89.55469, -2.15826, -0.65303,  1.49452, -2.85645, -3.05430,  0.00000, -2.17484, -1.46622,  3.94800
-0.79871, -3.55957, 87.45575, -2.42805, -0.54420,  1.38102, -2.76718, -3.05430,  0.00000, -2.22014, -1.46622,  3.98633
-0.70996, -2.84766, 89.20486, -2.51797, -0.61675,  1.39993, -2.67792, -3.41363,  0.00000, -2.44669, -1.61284,  3.98633
-0.88745, -3.29260, 88.15540, -2.38308, -0.83443,  1.41885, -2.67792, -2.87463,  0.00000, -2.44669, -1.64949,  3.92883
-0.97620, -3.55957, 89.55469, -2.51797, -0.65303,  1.36210, -2.23160, -3.05430,  0.00000, -2.17484, -1.64949,  3.89050
-1.24243, -2.84766, 87.45575, -2.20323, -0.65303,  1.36210, -2.85645, -2.78480,  0.00000, -2.44669, -1.57618,  3.90967
-1.24243, -3.38159, 88.15540, -2.47301, -0.50792,  1.41885, -2.94571, -3.23396,  0.00000, -2.31076, -1.68615,  3.94800
-1.50867, -3.55957, 88.50522, -2.29316, -0.61675,  1.39993, -2.85645, -3.14413,  0.00000, -2.22014, -1.50287,  3.94800
-1.33118, -2.84766, 88.50522, -2.33812, -0.61675,  1.39993, -2.76718, -2.87463,  0.00000, -2.17484, -1.53953,  4.04382
-1.15369, -3.55957, 88.50522, -2.38308, -0.72559,  1.39993, -2.76718, -2.78480,  0.00000, -2.17484, -1.53953,  4.06299
-1.33118, -3.38159, 87.45575, -2.33812, -0.61675,  1.41885, -2.76718, -2.69497,  0.00000, -2.40138, -1.46622,  4.02466
-1.06494, -3.02563, 88.85504, -2.42805, -0.72559,  1.39993, -2.49939, -3.23396,  0.00000, -2.35607, -1.42956,  3.92883
-0.88745, -3.55957, 88.85504, -2.33812, -0.65303,  1.43777, -2.94571, -3.05430,  0.00000, -2.12953, -1.61284,  3.92883
-1.33118, -3.29260, 88.15540, -2.38308, -0.65303,  1.43777, -2.67792, -3.23396,  0.00000, -2.22014, -1.31960,  4.00549
-1.06494, -3.47058, 88.85504, -2.38308, -0.50792,  1.41885, -2.76718, -2.60514,  0.00000, -2.35607, -1.53953,  3.98633
-1.06494, -3.38159, 88.50522, -2.20323, -0.76187,  1.41885, -2.67792, -2.78480,  0.00000, -2.22014, -1.79612,  4.00549
-0.88745, -3.29260, 87.45575, -2.33812, -0.61675,  1.41885, -2.67792, -3.32380,  0.00000, -2.22014, -1.61284,  4.00549
-0.97620, -3.47058, 88.15540, -2.29316, -0.76187,  1.51344, -2.94571, -2.78480,  0.00000, -2.44669, -1.72281,  3.94800
-0.79871, -3.11462, 89.90451, -2.33812, -0.58047,  1.43777, -2.76718, -3.05430,  0.00000, -2.22014, -1.57618,  3.89050
-1.33118, -3.02563, 88.15540, -2.33812, -0.72559,  1.41885, -2.85645, -2.96447,  0.00000, -2.31076, -1.50287,  3.96716
-1.15369, -3.55957, 87.10593, -2.33812, -0.68931,  1.43777, -2.49939, -3.32380,  0.00000, -2.35607, -1.53953,  4.00549
-0.79871, -2.93665, 89.55469, -2.20323, -0.58047,  1.41885, -3.03497, -3.14413,  0.00000, -2.12953, -1.57618,  3.94800
-0.88745, -3.20361, 90.60416, -2.47301, -0.72559,  1.47561, -2.67792, -3.32380,  0.00000, -2.22014, -1.53953,  3.98633
 1.24243, -4.44946, 98.30026, -2.74279, -0.83443,  1.57020, -2.67792, -3.14413,  0.00000, -2.22014, -1.42956,  3.94800
-0.17749, -4.27148, 94.45221, -2.47301, -0.65303,  1.47561, -2.67792, -2.87463,  0.00000, -2.12953, -1.42956,  4.00549
-0.17749, -4.00452, 90.95398, -2.65287, -0.76187,  1.45669, -2.67792, -3.05430,  0.00000, -2.26545, -1.57618,  3.98633
-0.26624, -4.18250, 90.60416, -2.42805, -0.65303,  1.36210, -2.67792, -2.96447,  0.00000, -2.26545, -1.57618,  4.02466
-0.70996, -3.02563, 90.25433, -2.24819, -0.58047,  1.41885, -2.85645, -3.14413,  0.00000, -2.31076, -1.57618,  3.98633
-0.70996, -3.29260, 91.30380, -2.38308, -0.65303,  1.45669, -3.12424, -3.59329,  0.00000, -2.31076, -1.68615,  3.98633
-0.88745, -4.18250, 91.65363, -2.24819, -0.54420,  1.51344, -2.67792, -3.05430,  0.00000, -2.22014, -1.50287,  3.96716
-0.44373, -4.00452, 93.75256, -2.47301, -0.72559,  1.58912, -2.67792, -2.96447,  0.00000, -2.44669, -1.50287,  3.98633
-0.88745, -3.73755, 95.50168, -2.33812, -0.65303,  1.55128, -3.03497, -2.96447,  0.00000, -2.40138, -1.53953,  3.96716
-1.06494, -4.98340, 95.85150, -2.42805, -0.61675,  1.66479, -2.67792, -3.14413,  0.00000, -2.35607, -1.72281,  3.92883
-0.70996, -4.44946, 97.25079, -2.42805, -0.68931,  1.57020, -2.49939, -2.69497,  0.00000, -2.49200, -1.57618,  3.94800
-1.59741, -5.07239, 96.20132, -2.33812, -0.65303,  1.62695, -2.76718, -2.87463,  0.00000, -2.17484, -1.50287,  3.98633
-0.88745, -5.96228, 94.45221, -2.65287, -0.68931,  1.55128, -2.85645, -2.96447,  0.00000, -2.35607, -1.64949,  4.02466
-1.06494, -6.05127, 97.25079, -2.51797, -0.50792,  1.70262, -2.94571, -2.96447,  0.00000, -2.26545, -1.46622,  3.98633
-0.35498, -5.07239, 92.70309, -2.69783, -0.72559,  1.55128, -2.58865, -3.23396,  0.00000, -2.22014, -1.31960,  3.94800
-1.68616, -4.44946, 90.95398, -2.42805, -0.54420,  1.45669, -2.58865, -2.87463,  0.00000, -2.31076, -1.72281,  3.94800
-8.16455, -8.72095, 73.81265, -1.79855,  1.81398,  1.66479, -2.49939, -3.23396,  0.00000, -2.40138, -1.53953,  3.98633
-8.34204, -7.74207, 85.35681, -3.14747, -0.03628,  0.85131, -2.76718, -2.60514,  0.00000, -2.17484, -1.57618,  4.06299
-4.79224, -5.96228, 104.59708, -2.24819, -0.14512,  2.23233, -2.94571, -3.05430,  0.00000, -2.26545, -1.53953,  3.92883
-3.72729, -8.45398, 105.99637, -2.33812, -0.21768,  2.08098, -3.12424, -3.23396,  0.00000, -2.44669, -1.72281,  4.00549
-1.59741, -4.18250, 107.39566, -1.88848, -0.39908,  1.96748, -2.67792, -2.96447,  0.00000, -2.31076, -1.57618,  3.96716
-0.70996, -4.18250, 106.34619, -1.79855, -0.65303,  1.85397, -2.58865, -2.96447,  0.00000, -2.22014, -1.53953,  4.00549
 0.17749, -3.64856, 108.44513, -1.66366, -0.68931,  1.91072, -2.49939, -3.50346,  0.00000, -2.08422, -1.35625,  4.04382
 0.62122, -5.78430, 108.09531, -2.06834, -0.68931,  1.77830, -2.58865, -3.14413,  0.00000, -2.17484, -1.68615,  3.94800
 1.06494, -6.49622, 110.19424, -2.11330, -0.47164,  1.79721, -3.30276, -3.23396,  0.00000, -2.44669, -1.50287,  3.96716
 0.44373, -5.42834, 112.29318, -1.93344, -0.39908,  1.96748, -3.03497, -3.23396,  0.00000, -2.40138, -1.61284,  3.94800
 0.70996, -6.76318, 114.74194, -1.88848, -0.39908,  2.06207, -2.41013, -2.69497,  0.00000, -2.22014, -1.39291,  4.00549
 1.68616, -7.29712, 115.09177, -2.06834, -0.79815,  2.00531, -2.49939, -3.41363,  0.00000, -2.26545, -1.42956,  3.98633
 1.86365, -6.85217, 114.74194, -2.24819, -0.61675,  1.89180, -2.94571, -3.05430,  0.00000, -2.35607, -1.57618,  4.02466
 1.77490, -7.47510, 116.14124, -1.84352, -0.61675,  2.06207, -3.03497, -2.78480,  0.00000, -2.40138, -1.39291,  4.00549
 0.88745, -4.62744, 116.14124, -1.61870, -0.58047,  2.17557, -2.85645, -2.96447,  0.00000, -2.35607, -1.50287,  3.94800
 0.35498, -4.71643, 116.49106, -1.52877, -0.54420,  2.27016, -2.76718, -3.23396,  0.00000, -2.17484, -1.35625,  3.89050
-0.70996, -5.42834, 115.09177, -1.39388, -0.36280,  2.21341, -3.03497, -3.05430,  0.00000, -2.31076, -1.68615,  4.00549
-0.62122, -5.60632, 117.54053, -1.57373, -0.29024,  2.40259, -2.85645, -3.14413,  0.00000, -2.08422, -1.57618,  3.96716
-0.79871, -5.33936, 117.19070, -1.48381, -0.36280,  2.34584, -2.58865, -3.23396,  0.00000, -2.22014, -1.57618,  4.00549
-1.24243, -5.87329, 114.39212, -1.43884, -0.29024,  2.36475, -2.58865, -2.69497,  0.00000, -2.22014, -1.64949,  4.02466
-1.41992, -6.40723, 118.59000, -1.52877, -0.32652,  2.27016, -2.58865, -2.87463,  0.00000, -2.40138, -1.53953,  3.98633
-1.24243, -6.58521, 116.84088, -1.70863, -0.25396,  2.32692, -2.85645, -3.32380,  0.00000, -2.31076, -1.46622,  3.94800
-0.88745, -7.38611, 116.49106, -1.79855, -0.29024,  2.25125, -2.58865, -2.78480,  0.00000, -2.17484, -1.57618,  4.02466
-2.21863, -7.20813, 119.63947, -1.97841,  0.29024,  2.44043, -2.76718, -3.32380,  0.00000, -2.40138, -1.61284,  3.90967
-0.08875, -6.40723, 120.68893, -1.61870, -0.39908,  2.49718, -2.67792, -2.96447,  0.00000, -2.22014, -1.50287,  4.02466
-2.04114, -7.11914, 121.03876, -1.43884, -0.29024,  2.55394, -2.85645, -2.87463,  0.00000, -2.35607, -1.50287,  4.02466
 0.44373, -5.42834, 123.13770, -1.52877,  0.47164,  2.61069, -2.49939, -2.96447,  0.00000, -2.53731, -1.35625,  3.92883
-3.01733, -4.80542, 119.28964, -1.48381,  0.21768,  2.53502, -2.67792, -3.05430,  0.00000, -2.22014, -1.42956,  4.00549
-0.62122, -6.58521, 120.68893, -1.88848, -0.29024,  2.42151, -3.12424, -2.60514,  0.00000, -2.26545, -1.57618,  3.94800
-0.62122, -6.76318, 112.99283, -1.48381,  0.07256,  2.53502, -2.67792, -3.05430,  0.00000, -2.22014, -1.42956,  3.96716
-1.41992, -5.60632, 110.19424, -1.34892,  0.29024,  2.66744, -2.85645, -3.14413,  0.00000, -2.35607, -1.61284,  4.00549
-1.33118, -6.49622, 107.39566, -1.12410, -0.21768,  2.17557, -2.76718, -3.14413,  0.00000, -2.31076, -1.64949,  4.06299
25.20361, -40.49011, 322.18701, 10.83628, -2.06794,  4.99436, -2.85645, -3.14413,  0.00000, -2.44669, -1.46622,  3.98633
-12.24683, -13.43738, 33.93283, -0.17986,  2.35818, -4.31331, -3.65982, -3.68312,  0.00000, -2.03891, -1.53953,  3.81384
12.33557, -5.07239, 126.63593, -2.02337, -2.97493,  2.53502, -3.03497, -2.42547,  0.00000, -2.40138, -1.79612,  3.98633
-1.86365, -4.71643, 128.73486, -2.02337, -0.03628,  2.59177, -3.03497, -2.78480,  0.00000, -2.26545, -1.53953,  3.98633
-2.57361, -3.20361, 121.38858, -1.93344,  0.03628,  1.74046, -3.21350, -2.96447,  0.00000, -2.44669, -1.42956,  3.96716
-1.15369, -2.22473, 129.78433, -1.97841, -0.21768,  2.40259, -2.94571, -2.78480,  0.00000, -2.17484, -1.57618,  3.90967
-0.70996, -2.40271, 129.78433, -2.38308, -0.18140,  2.47826, -2.76718, -3.14413,  0.00000, -2.22014, -1.57618,  3.89050
-1.33118, -1.42383, 130.83380, -2.56294, -0.32652,  2.47826, -3.03497, -2.87463,  0.00000, -2.49200, -1.31960,  3.92883
-1.15369, -2.75867, 132.93274, -2.74279, -0.32652,  2.42151, -3.03497, -2.78480,  0.00000, -2.40138, -1.68615,  3.98633
-1.15369, -2.93665, 131.18362, -2.83272, -0.32652,  2.45934, -2.58865, -2.42547,  0.00000, -2.49200, -1.68615,  4.02466
-0.88745, -2.75867, 133.28256, -2.87769, -0.32652,  2.34584, -2.76718, -3.23396,  0.00000, -2.40138, -1.42956,  3.89050
-0.79871, -3.11462, 132.23309, -2.78776, -0.25396,  2.47826, -2.49939, -3.14413,  0.00000, -2.40138, -1.53953,  3.96716
-1.15369, -2.93665, 134.33203, -2.65287, -0.36280,  2.40259, -2.94571, -3.05430,  0.00000, -2.44669, -1.42956,  3.96716
-0.62122, -2.93665, 131.88327, -2.92265, -0.39908,  2.44043, -2.49939, -3.14413,  0.00000, -2.40138, -1.57618,  3.92883
-1.06494, -3.02563, 131.88327, -3.01258, -0.25396,  2.34584, -2.76718, -2.87463,  0.00000, -2.26545, -1.61284,  3.92883
-0.88745, -2.49170, 132.58292, -2.78776, -0.39908,  2.32692, -2.67792, -3.23396,  0.00000, -2.26545, -1.46622,  4.02466
-0.79871, -3.02563, 132.93274, -2.96761, -0.39908,  2.40259, -2.76718, -2.96447,  0.00000, -2.40138, -1.46622,  3.96716
-0.26624, -2.93665, 132.93274, -2.87769, -0.29024,  2.38367, -2.67792, -2.78480,  0.00000, -2.62793, -1.50287,  3.94800
-0.79871, -2.93665, 132.58292, -2.96761, -0.36280,  2.45934, -2.85645, -2.96447,  0.00000, -2.35607, -1.57618,  3.92883
-0.70996, -3.29260, 132.23309, -2.78776, -0.32652,  2.40259, -2.94571, -3.32380,  0.00000, -2.22014, -1.57618,  3.98633
-0.79871, -3.02563, 131.88327, -2.87769, -0.21768,  2.42151, -2.67792, -3.14413,  0.00000, -2.31076, -1.46622,  4.02466
-0.44373, -2.84766, 133.28256, -3.19243, -0.39908,  2.42151, -2.49939, -2.96447,  0.00000, -2.49200, -1.53953,  3.98633
-0.79871, -2.93665, 131.88327, -2.65287, -0.29024,  2.38367, -2.58865, -3.23396,  0.00000, -2.31076, -1.46622,  3.90967
-0.62122, -3.11462, 131.53345, -2.87769, -0.39908,  2.38367, -2.85645, -2.87463,  0.00000, -2.26545, -1.42956,  3.89050
-0.97620, -2.84766, 132.23309, -2.83272, -0.25396,  2.42151, -2.76718, -2.78480,  0.00000, -2.26545, -1.53953,  3.90967
-0.97620, -3.29260, 131.88327, -2.92265, -0.32652,  2.34584, -2.94571, -3.05430,  0.00000, -2.44669, -1.61284,  3.92883
-0.44373, -3.38159, 133.28256, -2.83272, -0.21768,  2.36475, -2.67792, -3.32380,  0.00000, -2.35607, -1.53953,  3.92883
-0.70996, -3.38159, 131.88327, -2.78776, -0.32652,  2.42151, -2.85645, -3.05430,  0.00000, -2.35607, -1.50287,  3.92883
-0.97620, -2.75867, 133.63239, -2.92265, -0.29024,  2.45934, -2.76718, -3.23396,  0.00000, -2.17484, -1.53953,  3.96716
-1.06494, -3.11462, 131.53345, -2.83272, -0.50792,  2.42151, -2.67792, -2.87463,  0.00000, -2.44669, -1.50287,  3.96716
-0.79871, -3.38159, 131.88327, -2.87769, -0.32652,  2.36475, -2.58865, -2.96447,  0.00000, -2.40138, -1.75946,  3.89050
-0.97620, -3.20361, 134.33203, -3.01258, -0.36280,  2.45934, -2.67792, -2.60514,  0.00000, -2.58262, -1.57618,  4.00549
-1.06494, -3.20361, 131.18362, -2.96761, -0.36280,  2.38367, -2.85645, -3.05430,  0.00000, -1.99360, -1.46622,  3.96716
-0.79871, -2.93665, 132.23309, -2.83272, -0.36280,  2.45934, -2.85645, -3.32380,  0.00000, -2.31076, -1.53953,  3.90967
-0.88745, -3.02563, 131.88327, -2.96761, -0.32652,  2.32692, -2.58865, -3.14413,  0.00000, -2.17484, -1.46622,  3.92883
-1.15369, -3.20361, 131.88327, -2.92265, -0.36280,  2.40259, -2.58865, -2.78480,  0.00000, -2.22014, -1.35625,  3.94800
-0.70996, -3.20361, 132.93274, -2.87769, -0.36280,  2.36475, -2.85645, -3.14413,  0.00000, -2.26545, -1.64949,  3.96716
-1.15369, -3.02563, 132.93274, -2.96761, -0.39908,  2.36475, -2.76718, -3.23396,  0.00000, -2.26545, -1.57618,  3.92883
-0.79871, -3.11462, 131.88327, -2.92265, -0.10884,  2.30800, -2.58865, -3.14413,  0.00000, -2.17484, -1.53953,  3.96716
-0.53247, -3.11462, 131.88327, -2.78776, -0.36280,  2.42151, -2.85645, -3.23396,  0.00000, -2.44669, -1.50287,  3.90967
-0.70996, -3.29260, 133.98221, -2.69783, -0.32652,  2.36475, -2.94571, -3.05430,  0.00000, -2.26545, -1.50287,  3.89050
-0.53247, -2.93665, 132.23309, -2.83272, -0.32652,  2.49718, -2.76718, -3.14413,  0.00000, -2.40138, -1.57618,  4.00549
-0.88745, -3.11462, 132.23309, -2.92265, -0.29024,  2.45934, -2.94571, -2.78480,  0.00000, -2.31076, -1.53953,  3.90967
-0.88745, -2.93665, 131.53345, -2.92265, -0.36280,  2.36475, -2.85645, -2.96447,  0.00000, -2.31076, -1.64949,  4.02466
-0.70996, -3.11462, 132.23309, -2.96761, -0.36280,  2.44043, -2.58865, -3.14413,  0.00000, -2.12953, -1.31960,  3.96716
-1.15369, -2.84766, 132.23309, -2.92265, -0.29024,  2.32692, -2.76718, -2.96447,  0.00000, -2.26545, -1.39291,  3.96716
-1.06494, -3.38159, 133.63239, -2.92265, -0.36280,  2.45934, -2.76718, -2.87463,  0.00000, -2.40138, -1.64949,  4.02466
-0.62122, -3.29260, 132.23309, -2.83272, -0.39908,  2.38367, -2.76718, -2.96447,  0.00000, -2.58262, -1.50287,  3.98633
-0.62122, -3.02563, 132.23309, -2.83272, -0.36280,  2.40259, -2.58865, -3.05430,  0.00000, -2.31076, -1.61284,  3.94800
-0.70996, -3.55957, 134.68185, -2.87769, -0.29024,  2.44043, -2.76718, -2.87463,  0.00000, -2.40138, -1.39291,  4.02466
-0.62122, -2.93665, 132.23309, -2.83272, -0.25396,  2.40259, -2.94571, -3.41363,  0.00000, -2.31076, -1.50287,  3.98633
-0.70996, -3.29260, 132.23309, -2.74279, -0.32652,  2.42151, -2.67792, -2.87463,  0.00000, -2.49200, -1.50287,  3.94800
-0.70996, -3.02563, 131.18362, -2.78776, -0.25396,  2.38367, -2.76718, -2.87463,  0.00000, -2.40138, -1.42956,  3.90967
-1.15369, -3.11462, 133.98221, -3.01258, -0.32652,  2.45934, -2.94571, -2.96447,  0.00000, -2.44669, -1.50287,  3.98633
-0.70996, -3.11462, 133.63239, -2.87769, -0.21768,  2.44043, -2.23160, -2.96447,  0.00000, -2.26545, -1.46622,  3.98633
-0.44373, -2.93665, 134.68185, -2.87769, -0.32652,  2.44043, -3.03497, -2.87463,  0.00000, -2.44669, -1.64949,  3.90967
-1.06494, -3.38159, 131.88327, -2.96761, -0.39908,  2.38367, -2.49939, -3.32380,  0.00000, -2.31076, -1.53953,  3.92883
-0.62122, -3.11462, 131.18362, -2.96761, -0.36280,  2.42151, -2.94571, -2.69497,  0.00000, -2.40138, -1.42956,  3.98633
-0.88745, -3.38159, 130.83380, -2.87769, -0.32652,  2.40259, -2.67792, -2.51530,  0.00000, -2.26545, -1.57618,  4.04382
-0.62122, -3.11462, 132.58292, -2.83272, -0.29024,  2.34584, -2.85645, -2.87463,  0.00000, -2.17484, -1.42956,  3.92883
-0.70996, -3.20361, 132.23309, -3.14747, -0.39908,  2.40259, -2.58865, -2.87463,  0.00000, -2.31076, -1.53953,  3.94800
-0.88745, -2.93665, 132.23309, -2.69783, -0.32652,  2.38367, -2.67792, -3.05430,  0.00000, -2.22014, -1.57618,  4.02466
-0.44373, -2.93665, 132.93274, -2.83272, -0.36280,  2.38367, -2.67792, -2.96447,  0.00000, -2.22014, -1.42956,  3.90967
-0.70996, -3.11462, 132.23309, -2.87769, -0.43536,  2.40259, -2.58865, -3.14413,  0.00000, -2.17484, -1.46622,  3.87134
-0.79871, -3.02563, 131.53345, -2.87769, -0.25396,  2.36475, -3.03497, -2.60514,  0.00000, -2.58262, -1.64949,  3.96716
-0.62122, -2.58069, 134.33203, -2.78776, -0.32652,  2.36475, -2.76718, -3.23396,  0.00000, -2.31076, -1.53953,  3.92883
-0.88745, -3.29260, 132.58292, -2.92265, -0.29024,  2.42151, -2.94571, -2.87463,  0.00000, -2.26545, -1.53953,  3.92883
-0.79871, -3.20361, 131.88327, -2.96761, -0.32652,  2.36475, -3.03497, -2.69497,  0.00000, -2.40138, -1.50287,  3.96716
-0.62122, -2.93665, 131.53345, -2.83272, -0.29024,  2.42151, -3.03497, -3.05430,  0.00000, -2.26545, -1.53953,  3.90967
-0.70996, -2.75867, 132.93274, -2.87769, -0.39908,  2.45934, -2.76718, -3.05430,  0.00000, -2.31076, -1.61284,  3.94800
-0.97620, -3.02563, 132.93274, -2.83272, -0.36280,  2.40259, -2.76718, -3.32380,  0.00000, -2.40138, -1.42956,  3.94800
-0.70996, -2.93665, 131.53345, -2.96761, -0.47164,  2.42151, -2.67792, -3.14413,  0.00000, -2.22014, -1.50287,  3.96716
-0.88745, -3.20361, 133.98221, -2.96761, -0.21768,  2.44043, -2.67792, -2.87463,  0.00000, -2.12953, -1.53953,  3.98633
-0.62122, -3.38159, 131.88327, -2.69783, -0.39908,  2.32692, -3.30276, -2.87463,  0.00000, -2.35607, -1.75946,  3.92883
-0.88745, -3.29260, 132.58292, -2.74279, -0.36280,  2.25125, -2.49939, -2.78480,  0.00000, -2.22014, -1.68615,  3.87134
-0.79871, -3.11462, 131.88327, -2.87769, -0.43536,  2.38367, -2.76718, -3.14413,  0.00000, -2.35607, -1.61284,  3.96716
-0.70996, -3.11462, 133.28256, -3.01258, -0.29024,  2.38367, -2.58865, -3.14413,  0.00000, -2.31076, -1.57618,  4.00549
-0.70996, -3.20361, 133.28256, -3.10250, -0.18140,  2.34584, -2.58865, -2.51530,  0.00000, -2.26545, -1.50287,  3.98633
-0.88745, -2.75867, 131.18362, -2.96761, -0.32652,  2.42151, -2.58865, -2.96447,  0.00000, -2.31076, -1.53953,  3.90967
-0.70996, -3.20361, 132.58292, -3.01258, -0.25396,  2.34584, -2.67792, -2.87463,  0.00000, -2.35607, -1.57618,  3.92883
-0.44373, -3.02563, 131.53345, -2.78776, -0.32652,  2.40259, -2.76718, -3.05430,  0.00000, -2.08422, -1.46622,  3.92883
-0.62122, -3.11462, 132.58292, -2.92265, -0.25396,  2.40259, -2.76718, -3.14413,  0.00000, -2.12953, -1.68615,  3.98633
-0.70996, -2.84766, 132.23309, -2.78776, -0.43536,  2.40259, -2.67792, -3.23396,  0.00000, -2.53731, -1.50287,  3.98633
-0.88745, -2.49170, 133.28256, -2.56294, -0.36280,  2.42151, -2.76718, -2.96447,  0.00000, -2.31076, -1.57618,  3.92883
-0.97620, -3.47058, 131.53345, -2.92265, -0.25396,  2.40259, -2.85645, -3.05430,  0.00000, -2.35607, -1.46622,  3.85217
-0.70996, -2.93665, 131.88327, -2.65287, -0.47164,  2.44043, -2.85645, -2.78480,  0.00000, -2.40138, -1.42956,  3.98633
-0.62122, -2.75867, 131.88327, -2.74279, -0.43536,  2.36475, -2.85645, -3.14413,  0.00000, -2.31076, -1.64949,  3.98633
-0.53247, -3.38159, 132.93274, -2.69783, -0.39908,  2.40259, -2.76718, -3.05430,  0.00000, -2.12953, -1.50287,  3.89050
-0.53247, -2.75867, 133.63239, -2.92265, -0.25396,  2.40259, -2.58865, -3.05430,  0.00000, -2.31076, -1.57618,  3.90967
-0.53247, -2.84766, 131.53345, -2.83272, -0.32652,  2.42151, -2.49939, -3.05430,  0.00000, -2.22014, -1.46622,  3.94800
-0.79871, -2.84766, 132.23309, -2.78776, -0.29024,  2.36475, -2.58865, -2.87463,  0.00000, -2.35607, -1.61284,  3.92883
-0.97620, -2.84766, 131.88327, -2.87769, -0.32652,  2.34584, -2.94571, -3.05430,  0.00000, -2.31076, -1.61284,  3.89050
-0.88745, -3.29260, 131.88327, -2.92265, -0.43536,  2.40259, -2.49939, -2.96447,  0.00000, -2.49200, -1.46622,  3.94800
-0.53247, -2.93665, 131.18362, -3.10250, -0.32652,  2.38367, -2.85645, -2.78480,  0.00000, -2.17484, -1.53953,  3.96716
-0.88745, -3.29260, 133.63239, -2.87769, -0.29024,  2.36475, -2.85645, -2.96447,  0.00000, -2.12953, -1.64949,  3.81384
-1.06494, -3.29260, 132.58292, -2.96761, -0.36280,  2.32692, -2.85645, -2.96447,  0.00000, -2.35607, -1.53953,  4.00549
-0.97620, -3.02563, 132.58292, -2.83272, -0.32652,  2.30800, -2.67792, -2.69497,  0.00000, -2.17484, -1.61284,  3.92883
-0.97620, -3.20361, 133.63239, -3.05754, -0.32652,  2.32692, -2.58865, -2.60514,  0.00000, -2.44669, -1.50287,  3.94800
-1.15369, -3.55957, 131.18362, -2.96761, -0.32652,  2.36475, -2.58865, -3.14413,  0.00000, -2.31076, -1.57618,  3.92883
-0.88745, -3.64856, 132.93274, -2.92265, -0.39908,  2.40259, -2.94571, -2.96447,  0.00000, -2.12953, -1.53953,  3.92883
-0.70996, -3.38159, 131.88327, -3.01258, -0.39908,  2.40259, -2.85645, -2.78480,  0.00000, -2.26545, -1.61284,  4.00549
-0.97620, -3.38159, 133.28256, -2.74279, -0.29024,  2.42151, -3.03497, -2.87463,  0.00000, -2.40138, -1.64949,  3.92883
-1.15369, -2.84766, 132.23309, -3.05754, -0.25396,  2.42151, -2.49939, -2.78480,  0.00000, -2.49200, -1.50287,  3.94800
-1.15369, -3.02563, 131.88327, -2.87769, -0.32652,  2.34584, -2.67792, -3.05430,  0.00000, -2.17484, -1.57618,  3.94800
-0.62122, -3.02563, 132.93274, -3.01258, -0.10884,  2.38367, -3.03497, -3.05430,  0.00000, -2.35607, -1.57618,  3.98633
-1.15369, -3.29260, 132.58292, -2.78776, -0.39908,  2.47826, -2.94571, -3.05430,  0.00000, -2.26545, -1.42956,  3.98633
-0.88745, -3.11462, 133.28256, -2.92265, -0.32652,  2.40259, -3.21350, -2.60514,  0.00000, -2.44669, -1.64949,  4.00549
-0.79871, -3.47058, 131.53345, -3.01258, -0.47164,  2.34584, -2.58865, -2.96447,  0.00000, -2.22014, -1.53953,  3.89050
-0.79871, -2.93665, 132.58292, -2.87769, -0.36280,  2.42151, -3.03497, -2.96447,  0.00000, -2.40138, -1.42956,  3.92883
-0.70996, -2.84766, 134.33203, -2.96761, -0.47164,  2.42151, -2.67792, -3.14413,  0.00000, -2.35607, -1.46622,  4.00549
-0.70996, -2.84766, 135.03168, -2.69783, -0.47164,  2.44043, -2.32086, -2.78480,  0.00000, -2.35607, -1.50287,  3.85217
-0.53247, -2.93665, 132.58292, -2.83272, -0.32652,  2.38367, -2.67792, -3.05430,  0.00000, -2.26545, -1.50287,  4.00549
-1.15369, -3.47058, 132.58292, -2.83272, -0.32652,  2.51610, -2.67792, -2.96447,  0.00000, -2.40138, -1.61284,  3.92883
-0.88745, -3.02563, 133.98221, -2.92265, -0.36280,  2.34584, -2.41013, -3.05430,  0.00000, -2.17484, -1.57618,  3.96716
-0.97620, -3.02563, 131.53345, -2.78776, -0.32652,  2.45934, -3.03497, -2.96447,  0.00000, -2.03891, -1.75946,  3.94800
-0.62122, -2.75867, 130.83380, -2.96761, -0.36280,  2.40259, -3.03497, -2.78480,  0.00000, -2.31076, -1.72281,  3.87134
-1.06494, -3.20361, 132.58292, -2.69783, -0.29024,  2.38367, -2.76718, -3.05430,  0.00000, -2.08422, -1.72281,  3.90967
-0.79871, -3.11462, 132.58292, -2.78776, -0.36280,  2.36475, -2.49939, -2.69497,  0.00000, -2.35607, -1.46622,  3.89050
-0.79871, -3.20361, 131.88327, -2.69783, -0.25396,  2.42151, -2.76718, -3.14413,  0.00000, -2.35607, -1.61284,  3.92883
-0.79871, -3.11462, 130.83380, -2.96761, -0.32652,  2.42151, -2.67792, -2.87463,  0.00000, -2.49200, -1.46622,  3.98633
-0.70996, -3.02563, 132.58292, -3.05754, -0.36280,  2.42151, -2.76718, -3.14413,  0.00000, -2.40138, -1.57618,  3.94800
-0.88745, -3.11462, 131.53345, -2.87769, -0.32652,  2.38367, -2.49939, -3.32380,  0.00000, -2.31076, -1.39291,  3.90967
-0.88745, -2.93665, 133.63239, -2.65287, -0.36280,  2.42151, -3.03497, -2.87463,  0.00000, -2.35607, -1.61284,  4.02466
-0.79871, -3.11462, 132.23309, -2.83272, -0.25396,  2.40259, -2.49939, -3.14413,  0.00000, -2.22014, -1.50287,  3.94800
-0.70996, -2.93665, 132.93274, -2.87769, -0.29024,  2.42151, -2.94571, -2.96447,  0.00000, -2.31076, -1.46622,  4.02466
-0.88745, -3.02563, 132.58292, -2.69783, -0.36280,  2.42151, -3.03497, -2.96447,  0.00000, -2.40138, -1.53953,  3.90967
-0.88745, -2.84766, 130.83380, -2.74279, -0.39908,  2.38367, -2.76718, -2.96447,  0.00000, -2.22014, -1.53953,  3.92883
-0.62122, -3.02563, 132.58292, -2.96761, -0.39908,  2.40259, -3.12424, -3.23396,  0.00000, -2.22014, -1.64949,  3.98633
-0.88745, -3.02563, 132.23309, -2.78776, -0.32652,  2.38367, -3.21350, -3.05430,  0.00000, -2.17484, -1.50287,  3.89050
-0.62122, -2.84766, 134.33203, -2.87769, -0.32652,  2.38367, -2.76718, -2.96447,  0.00000, -2.22014, -1.46622,  3.90967
-0.88745, -2.93665, 132.58292, -2.78776, -0.32652,  2.36475, -2.76718, -2.96447,  0.00000, -2.26545, -1.46622,  3.98633
-0.97620, -3.20361, 131.18362, -2.83272, -0.32652,  2.36475, -2.85645, -3.23396,  0.00000, -2.40138, -1.53953,  3.96716
-0.62122, -3.02563, 132.58292, -2.92265, -0.36280,  2.40259, -2.67792, -3.14413,  0.00000, -2.40138, -1.50287,  3.90967
-0.53247, -2.66968, 135.03168, -3.10250, -0.39908,  2.38367, -3.12424, -2.96447,  0.00000, -2.22014, -1.61284,  3.85217
-0.88745, -3.02563, 133.28256, -2.83272, -0.32652,  2.36475, -2.32086, -2.78480,  0.00000, -2.22014, -1.64949,  3.98633
-0.97620, -2.84766, 132.23309, -2.87769, -0.43536,  2.45934, -3.12424, -3.41363,  0.00000, -2.40138, -1.39291,  3.92883
-0.88745, -3.02563, 131.53345, -2.74279, -0.43536,  2.34584, -2.32086, -3.23396,  0.00000, -2.22014, -1.50287,  4.02466
-0.88745, -3.20361, 133.28256, -2.78776, -0.32652,  2.38367, -2.49939, -2.69497,  0.00000, -2.17484, -1.46622,  3.96716
-0.79871, -2.93665, 131.88327, -2.87769, -0.29024,  2.38367, -2.76718, -2.78480,  0.00000, -2.26545, -1.50287,  3.92883
-0.79871, -3.20361, 133.63239, -2.83272, -0.36280,  2.44043, -2.67792, -3.23396,  0.00000, -2.31076, -1.68615,  3.94800
-0.88745, -3.20361, 132.23309, -2.83272, -0.29024,  2.44043, -2.94571, -2.69497,  0.00000, -2.31076, -1.61284,  3.96716
-0.88745, -3.02563, 131.88327, -2.83272, -0.25396,  2.38367, -2.76718, -2.69497,  0.00000, -2.26545, -1.61284,  3.96716
-0.53247, -3.02563, 133.98221, -2.83272, -0.39908,  2.40259, -2.85645, -3.32380,  0.00000, -2.44669, -1.42956,  3.89050
-0.79871, -3.29260, 132.23309, -3.01258, -0.29024,  2.45934, -2.76718, -3.05430,  0.00000, -2.17484, -1.46622,  4.02466
-0.88745, -2.84766, 133.28256, -2.96761, -0.32652,  2.44043, -3.12424, -3.05430,  0.00000, -2.26545, -1.53953,  4.02466
-0.70996, -2.84766, 132.93274, -2.74279, -0.43536,  2.38367, -2.76718, -3.32380,  0.00000, -2.08422, -1.64949,  3.98633
-0.79871, -3.38159, 131.88327, -2.92265, -0.39908,  2.36475, -2.49939, -2.96447,  0.00000, -2.40138, -1.64949,  3.94800
-0.79871, -2.93665, 130.83380, -2.92265, -0.32652,  2.36475, -2.58865, -2.87463,  0.00000, -2.26545, -1.57618,  3.96716
-0.88745, -2.93665, 132.23309, -2.87769, -0.29024,  2.38367, -2.85645, -3.14413,  0.00000, -2.35607, -1.53953,  3.96716
-0.62122, -3.29260, 132.58292, -2.96761, -0.47164,  2.40259, -2.49939, -2.78480,  0.00000, -2.22014, -1.61284,  3.98633
-0.79871, -2.75867, 132.93274, -2.96761, -0.43536,  2.44043, -2.49939, -2.87463,  0.00000, -2.31076, -1.53953,  3.92883
-0.79871, -3.29260, 133.98221, -2.96761, -0.18140,  2.32692, -2.58865, -3.32380,  0.00000, -2.31076, -1.53953,  3.90967
-0.62122, -3.47058, 131.53345, -2.96761, -0.36280,  2.32692, -3.03497, -3.14413,  0.00000, -2.31076, -1.53953,  3.94800
-1.06494, -3.11462, 134.33203, -2.83272, -0.32652,  2.32692, -2.85645, -2.60514,  0.00000, -2.17484, -1.57618,  3.94800
-0.70996, -3.02563, 132.93274, -2.92265, -0.43536,  2.40259, -3.12424, -2.87463,  0.00000, -2.40138, -1.64949,  3.87134
-0.79871, -3.20361, 132.58292, -2.74279, -0.21768,  2.44043, -2.76718, -2.96447,  0.00000, -2.26545, -1.64949,  3.94800
-0.79871, -3.02563, 133.63239, -2.78776, -0.32652,  2.34584, -2.85645, -2.69497,  0.00000, -2.49200, -1.61284,  3.90967
-0.88745, -3.20361, 130.83380, -2.78776, -0.29024,  2.34584, -2.85645, -3.05430,  0.00000, -2.44669, -1.61284,  3.98633
-0.70996, -3.20361, 131.18362, -2.78776, -0.39908,  2.40259, -2.85645, -3.05430,  0.00000, -2.31076, -1.39291,  4.04382
-0.88745, -3.29260, 131.18362, -2.69783, -0.18140,  2.44043, -2.49939, -3.14413,  0.00000, -2.26545, -1.50287,  4.00549
-0.97620, -2.84766, 132.58292, -3.01258, -0.25396,  2.34584, -2.67792, -2.96447,  0.00000, -2.44669, -1.64949,  4.04382
-0.70996, -3.02563, 132.58292, -2.78776, -0.25396,  2.36475, -2.85645, -3.41363,  0.00000, -2.12953, -1.50287,  3.94800
-0.44373, -3.47058, 131.53345, -2.78776, -0.29024,  2.42151, -2.58865, -3.14413,  0.00000, -2.44669, -1.50287,  3.94800
-0.70996, -3.38159, 131.53345, -2.83272, -0.43536,  2.45934, -2.76718, -2.51530,  0.00000, -2.08422, -1.35625,  3.94800
-0.88745, -3.11462, 132.23309, -2.78776, -0.29024,  2.40259, -2.76718, -3.14413,  0.00000, -2.17484, -1.57618,  3.92883
-0.97620, -3.29260, 132.23309, -2.87769, -0.36280,  2.40259, -3.30276, -2.96447,  0.00000, -2.31076, -1.57618,  3.94800
-0.62122, -3.20361, 133.28256, -2.65287, -0.43536,  2.44043, -2.58865, -3.05430,  0.00000, -2.40138, -1.57618,  3.96716
-1.06494, -3.02563, 131.53345, -2.96761, -0.36280,  2.38367, -2.49939, -2.78480,  0.00000, -2.44669, -1.50287,  3.92883
-0.62122, -2.93665, 131.88327, -2.87769, -0.36280,  2.40259, -2.41013, -3.05430,  0.00000, -2.26545, -1.50287,  3.94800
-1.06494, -3.11462, 132.58292, -2.92265, -0.36280,  2.44043, -3.03497, -2.69497,  0.00000, -2.35607, -1.46622,  3.92883
-0.97620, -2.93665, 131.53345, -2.92265, -0.32652,  2.38367, -2.49939, -2.78480,  0.00000, -2.31076, -1.53953,  3.90967
-0.62122, -3.02563, 133.63239, -2.87769, -0.29024,  2.38367, -2.85645, -2.87463,  0.00000, -2.40138, -1.57618,  3.92883
-0.35498, -3.11462, 131.88327, -2.78776, -0.36280,  2.45934, -2.58865, -2.96447,  0.00000, -2.17484, -1.68615,  3.87134
-0.62122, -3.55957, 132.23309, -2.87769, -0.29024,  2.49718, -2.49939, -3.14413,  0.00000, -2.12953, -1.64949,  3.85217
-0.97620, -3.29260, 131.53345, -2.96761, -0.43536,  2.34584, -2.85645, -2.60514,  0.00000, -2.35607, -1.50287,  3.98633
-0.79871, -3.11462, 131.53345, -2.92265, -0.25396,  2.44043, -2.76718, -3.23396,  0.00000, -2.35607, -1.35625,  4.04382
-0.97620, -3.20361, 132.58292, -2.96761, -0.47164,  2.44043, -2.85645, -3.05430,  0.00000, -2.44669, -1.50287,  3.98633
-1.24243, -3.20361, 132.58292, -2.87769, -0.25396,  2.42151, -2.94571, -3.32380,  0.00000, -2.40138, -1.57618,  3.92883
-0.79871, -3.02563, 130.83380, -2.87769, -0.39908,  2.38367, -2.67792, -2.96447,  0.00000, -1.99360, -1.50287,  3.94800
-0.79871, -3.20361, 133.28256, -2.78776, -0.39908,  2.44043, -2.76718, -2.87463,  0.00000, -2.26545, -1.57618,  3.90967
-0.97620, -3.11462, 132.23309, -2.92265, -0.32652,  2.36475, -3.03497, -2.96447,  0.00000, -2.35607, -1.53953,  3.92883
-1.15369, -3.02563, 132.23309, -2.74279, -0.39908,  2.38367, -2.49939, -2.87463,  0.00000, -2.31076, -1.35625,  3.96716
-0.79871, -3.20361, 131.88327, -2.83272, -0.25396,  2.40259, -2.49939, -2.87463,  0.00000, -2.03891, -1.50287,  3.92883
-0.88745, -3.55957, 131.53345, -2.69783, -0.36280,  2.38367, -2.49939, -3.23396,  0.00000, -2.08422, -1.50287,  3.94800
-0.97620, -2.93665, 131.53345, -2.83272, -0.36280,  2.44043, -2.85645, -2.96447,  0.00000, -2.53731, -1.61284,  3.98633
-0.62122, -3.29260, 135.03168, -2.87769, -0.25396,  2.47826, -3.30276, -3.32380,  0.00000, -2.12953, -1.61284,  3.94800
-0.88745, -3.38159, 131.88327, -2.83272, -0.32652,  2.42151, -2.85645, -3.23396,  0.00000, -2.35607, -1.72281,  3.92883
-0.62122, -3.38159, 133.63239, -2.96761, -0.36280,  2.36475, -2.58865, -3.41363,  0.00000, -2.22014, -1.68615,  3.98633
-0.44373, -3.55957, 132.23309, -2.96761, -0.32652,  2.40259, -2.76718, -3.14413,  0.00000, -2.17484, -1.61284,  3.90967
-0.70996, -3.20361, 133.28256, -2.78776, -0.32652,  2.34584, -2.67792, -3.14413,  0.00000, -2.22014, -1.42956,  4.00549
-0.62122, -2.75867, 132.58292, -2.69783, -0.32652,  2.45934, -3.12424, -2.96447,  0.00000, -2.26545, -1.53953,  3.94800
-0.62122, -3.20361, 132.58292, -2.78776, -0.39908,  2.42151, -2.67792, -2.78480,  0.00000, -2.35607, -1.46622,  3.98633
-0.70996, -3.11462, 133.98221, -2.69783, -0.43536,  2.36475, -2.49939, -3.14413,  0.00000, -2.35607, -1.46622,  3.98633
-0.62122, -3.20361, 133.28256, -2.92265, -0.32652,  2.38367, -2.58865, -3.41363,  0.00000, -2.08422, -1.46622,  3.83301
-0.97620, -2.93665, 132.93274, -2.69783, -0.18140,  2.38367, -2.67792, -2.96447,  0.00000, -2.31076, -1.53953,  3.89050
-0.88745, -3.29260, 133.63239, -2.87769, -0.43536,  2.44043, -2.58865, -2.96447,  0.00000, -2.08422, -1.57618,  3.90967
-0.79871, -3.20361, 133.28256, -2.74279, -0.29024,  2.42151, -2.67792, -2.87463,  0.00000, -2.17484, -1.39291,  3.94800
-0.53247, -3.47058, 131.88327, -2.87769, -0.50792,  2.38367, -2.67792, -3.23396,  0.00000, -2.08422, -1.57618,  3.90967
-0.70996, -3.20361, 132.58292, -2.83272, -0.36280,  2.40259, -2.76718, -2.78480,  0.00000, -2.31076, -1.68615,  3.96716
-0.53247, -3.20361, 132.23309, -2.87769, -0.29024,  2.44043, -2.76718, -3.41363,  0.00000, -2.26545, -1.50287,  3.89050
-0.97620, -3.02563, 131.53345, -2.74279, -0.36280,  2.44043, -2.58865, -2.78480,  0.00000, -2.17484, -1.53953,  3.96716
-0.79871, -3.11462, 132.23309, -2.87769, -0.43536,  2.32692, -2.67792, -3.14413,  0.00000, -2.08422, -1.46622,  3.90967
-0.79871, -2.93665, 132.58292, -2.96761, -0.47164,  2.44043, -2.94571, -3.23396,  0.00000, -2.49200, -1.50287,  4.00549
-0.79871, -3.38159, 132.58292, -2.83272, -0.32652,  2.42151, -2.67792, -3.14413,  0.00000, -2.12953, -1.64949,  3.94800
-0.53247, -3.38159, 133.63239, -2.60790, -0.32652,  2.36475, -2.67792, -2.87463,  0.00000, -2.17484, -1.39291,  3.87134
-0.79871, -3.20361, 132.58292, -2.83272, -0.43536,  2.45934, -2.94571, -2.96447,  0.00000, -2.22014, -1.53953,  4.00549
-0.70996, -3.20361, 132.58292, -2.87769, -0.39908,  2.44043, -2.94571, -2.96447,  0.00000, -2.26545, -1.46622,  4.02466
-0.79871, -3.29260, 132.23309, -3.01258, -0.21768,  2.40259, -2.49939, -3.32380,  0.00000, -2.44669, -1.57618,  3.96716
-0.79871, -3.29260, 132.23309, -2.92265, -0.39908,  2.40259, -2.85645, -3.41363,  0.00000, -2.31076, -1.53953,  3.98633
-0.97620, -3.38159, 132.23309, -3.05754, -0.32652,  2.44043, -3.21350, -2.69497,  0.00000, -2.35607, -1.50287,  3.87134
-0.53247, -2.84766, 132.58292, -2.96761, -0.29024,  2.32692, -2.58865, -3.14413,  0.00000, -2.26545, -1.57618,  3.96716
-0.70996, -3.47058, 131.88327, -2.92265, -0.29024,  2.42151, -2.49939, -3.32380,  0.00000, -2.26545, -1.50287,  3.96716
-0.88745, -3.11462, 132.58292, -2.92265, -0.39908,  2.38367, -3.03497, -2.78480,  0.00000, -2.44669, -1.57618,  3.92883
-11.00439, -5.25037, 243.12698,  0.89928, -3.15633,  4.59708, -2.41013, -3.14413,  0.00000, -2.17484, -1.39291,  3.92883
-8.51953,  3.02563, 131.18362, -2.33812, -1.41491,  0.39728, -3.03497, -2.96447,  0.00000, -2.22014, -1.53953,  3.92883
-3.37231, -13.88232, 161.96805, -2.87769,  0.21768,  3.51875, -2.94571, -3.23396,  0.00000, -2.26545, -1.57618,  3.96716
 6.12341,  0.00000, 229.48389, -6.83450,  5.11543,  4.16197, -2.85645, -2.78480,  0.00000, -2.40138, -1.61284,  3.89050
-2.48486,  0.88989, 131.88327, -2.56294, -0.61675,  2.13774, -2.94571, -2.87463,  0.00000, -2.26545, -1.72281,  3.96716
 5.85718, -5.69531, 156.02106, -3.19243, -0.54420,  3.02689, -2.41013, -2.96447,  0.00000, -2.17484, -1.39291,  3.81384
 2.66235, -5.69531, 155.67123, -3.59711,  0.03628,  3.00797, -2.41013, -2.87463,  0.00000, -2.26545, -1.50287,  3.98633
-0.35498, -1.69080, 156.37088, -3.23740,  0.07256,  2.95121, -2.85645, -3.05430,  0.00000, -2.35607, -1.35625,  3.94800
 3.19482, -3.11462, 158.81964, -2.87769, -0.18140,  2.93230, -2.49939, -3.05430,  0.00000, -2.58262, -1.61284,  3.90967
 4.17102, -1.95776, 166.51575, -2.74279, -0.07256,  3.12148, -2.85645, -2.69497,  0.00000, -2.35607, -1.68615,  3.87134
 4.17102, -3.29260, 168.26486, -2.83272,  0.00000,  2.93230, -3.03497, -3.23396,  0.00000, -2.53731, -1.57618,  3.90967
 4.79224, -2.75867, 171.76309, -2.96761, -0.10884,  3.14039, -2.32086, -2.87463,  0.00000, -2.49200, -1.50287,  3.87134
 3.99353, -2.22473, 173.86203, -2.96761, -0.29024,  3.31066, -2.67792, -2.96447,  0.00000, -2.35607, -1.61284,  3.92883
 2.21863, -2.49170, 175.61115, -3.23740,  0.14512,  3.29174, -2.76718, -2.60514,  0.00000, -2.26545, -1.57618,  3.81384
 0.44373, -3.20361, 177.36026, -3.32732,  0.32652,  3.44308, -3.12424, -2.78480,  0.00000, -2.35607, -1.50287,  3.92883
 0.26624, -3.20361, 177.71008, -3.68703,  0.39908,  3.51875, -2.58865, -3.14413,  0.00000, -2.26545, -1.64949,  3.90967
-1.95239, -3.82654, 178.75955, -3.50718,  0.50792,  3.63226, -2.67792, -2.87463,  0.00000, -2.22014, -1.46622,  3.94800
 0.17749, -2.22473, 179.80902, -3.46222,  0.43536,  3.49984, -3.12424, -2.87463,  0.00000, -2.35607, -1.61284,  3.87134
 0.00000, -2.40271, 178.05991, -3.28236,  0.32652,  3.63226, -2.49939, -2.96447,  0.00000, -2.12953, -1.53953,  3.90967
-0.62122, -2.93665, 178.05991, -3.55214,  0.50792,  3.59443, -2.67792, -2.96447,  0.00000, -2.26545, -1.50287,  3.90967
 0.53247, -2.49170, 180.50867, -3.19243,  0.39908,  3.49984, -2.67792, -2.78480,  0.00000, -2.35607, -1.53953,  3.92883
-0.26624, -3.11462, 179.80902, -3.55214,  0.68931,  3.51875, -2.49939, -3.05430,  0.00000, -2.35607, -1.57618,  3.94800
-0.53247, -3.55957, 177.71008, -3.23740,  0.29024,  3.59443, -2.67792, -2.96447,  0.00000, -2.03891, -1.61284,  4.00549
-0.62122, -3.29260, 178.05991, -3.46222,  0.50792,  3.61335, -3.03497, -3.14413,  0.00000, -2.26545, -1.57618,  3.98633
-0.62122, -3.11462, 179.45920, -3.41725,  0.39908,  3.49984, -2.76718, -2.78480,  0.00000, -2.22014, -1.57618,  4.00549
-0.26624, -3.20361, 178.75955, -3.64207,  0.36280,  3.46200, -2.94571, -3.14413,  0.00000, -2.12953, -1.64949,  3.92883
-0.62122, -2.84766, 179.45920, -3.32732,  0.50792,  3.46200, -3.21350, -3.05430,  0.00000, -2.26545, -1.39291,  3.90967
-0.79871, -3.29260, 179.10938, -3.77696,  0.54420,  3.49984, -2.76718, -2.78480,  0.00000, -2.31076, -1.53953,  3.94800
-0.44373, -2.93665, 179.45920, -3.59711,  0.54420,  3.49984, -2.58865, -3.14413,  0.00000, -2.26545, -1.50287,  3.94800
 0.08875, -3.11462, 180.15884, -3.64207,  0.39908,  3.55659, -2.76718, -2.60514,  0.00000, -2.26545, -1.64949,  3.89050
-0.26624, -3.20361, 180.15884, -3.41725,  0.47164,  3.55659, -2.67792, -3.32380,  0.00000, -2.40138, -1.53953,  3.98633
-0.26624, -3.38159, 178.40973, -3.37229,  0.32652,  3.53767, -2.41013, -3.23396,  0.00000, -2.17484, -1.53953,  3.94800
-0.53247, -2.93665, 179.80902, -3.46222,  0.68931,  3.57551, -2.67792, -3.05430,  0.00000, -2.31076, -1.57618,  3.92883
-0.26624, -2.75867, 178.40973, -3.28236,  0.54420,  3.67010, -3.03497, -3.32380,  0.00000, -1.99360, -1.64949,  3.90967
-0.35498, -3.02563, 178.75955, -3.46222,  0.54420,  3.51875, -3.12424, -3.05430,  0.00000, -2.35607, -1.50287,  3.98633
-0.35498, -3.20361, 179.45920, -3.41725,  0.43536,  3.57551, -2.76718, -3.41363,  0.00000, -2.31076, -1.68615,  3.90967
-0.26624, -3.38159, 178.05991, -3.46222,  0.50792,  3.59443, -2.76718, -3.14413,  0.00000, -2.12953, -1.50287,  3.92883
-0.62122, -3.29260, 178.75955, -3.41725,  0.43536,  3.49984, -2.76718, -3.05430,  0.00000, -2.31076, -1.50287,  3.94800
-0.44373, -2.58069, 178.75955, -3.37229,  0.54420,  3.57551, -3.03497, -2.24581,  0.00000, -2.17484, -1.53953,  3.98633
-0.79871, -2.66968, 178.05991, -3.55214,  0.39908,  3.48092, -2.67792, -2.87463,  0.00000, -2.31076, -1.46622,  3.87134
-0.35498, -3.02563, 178.40973, -3.50718,  0.39908,  3.63226, -2.94571, -2.96447,  0.00000, -2.26545, -1.50287,  3.90967
-0.62122, -2.93665, 179.45920, -3.55214,  0.61675,  3.51875, -2.85645, -2.96447,  0.00000, -2.49200, -1.72281,  3.94800
-0.17749, -3.20361, 179.80902, -3.41725,  0.43536,  3.44308, -2.85645, -2.96447,  0.00000, -2.12953, -1.53953,  3.96716
-0.53247, -2.84766, 179.45920, -3.55214,  0.39908,  3.46200, -2.85645, -2.69497,  0.00000, -2.17484, -1.61284,  3.85217
-0.17749, -3.29260, 180.50867, -3.50718,  0.43536,  3.67010, -2.85645, -2.87463,  0.00000, -2.17484, -1.68615,  3.98633
-0.44373, -2.93665, 178.40973, -3.55214,  0.50792,  3.53767, -2.85645, -2.96447,  0.00000, -2.40138, -1.57618,  3.96716
-0.53247, -3.11462, 179.80902, -3.46222,  0.47164,  3.55659, -2.58865, -2.96447,  0.00000, -2.40138, -1.46622,  3.87134
-0.26624, -3.11462, 176.66061, -3.37229,  0.36280,  3.59443, -3.21350, -3.23396,  0.00000, -2.17484, -1.79612,  3.90967
-0.08875, -3.11462, 179.10938, -3.37229,  0.39908,  3.57551, -2.76718, -2.96447,  0.00000, -2.44669, -1.42956,  3.94800
-0.35498, -3.11462, 179.45920, -3.41725,  0.50792,  3.59443, -2.67792, -3.05430,  0.00000, -2.44669, -1.42956,  3.96716
-0.53247, -2.75867, 178.75955, -3.41725,  0.50792,  3.59443, -2.49939, -2.96447,  0.00000, -2.22014, -1.53953,  3.92883
-0.35498, -3.11462, 178.05991, -3.50718,  0.50792,  3.61335, -2.23160, -2.96447,  0.00000, -2.31076, -1.61284,  3.89050
-0.53247, -3.38159, 178.40973, -3.50718,  0.39908,  3.49984, -2.49939, -2.96447,  0.00000, -2.12953, -1.39291,  3.92883
-0.35498, -2.58069, 179.10938, -3.23740,  0.54420,  3.61335, -3.21350, -3.23396,  0.00000, -2.26545, -1.53953,  3.94800
-0.70996, -2.84766, 179.10938, -3.50718,  0.58047,  3.59443, -3.03497, -2.87463,  0.00000, -2.26545, -1.68615,  3.89050
-0.53247, -2.58069, 179.10938, -3.55214,  0.47164,  3.36741, -2.49939, -3.41363,  0.00000, -2.22014, -1.72281,  3.92883
-0.44373, -2.93665, 178.75955, -3.37229,  0.47164,  3.59443, -2.67792, -2.96447,  0.00000, -2.22014, -1.53953,  3.98633
-0.53247, -3.29260, 179.45920, -3.32732,  0.43536,  3.61335, -2.76718, -2.96447,  0.00000, -2.26545, -1.68615,  3.92883
-0.44373, -3.11462, 178.05991, -3.46222,  0.47164,  3.51875, -2.67792, -2.78480,  0.00000, -2.31076, -1.53953,  3.89050
-0.53247, -2.75867, 179.10938, -3.46222,  0.61675,  3.53767, -3.03497, -3.14413,  0.00000, -2.31076, -1.57618,  3.92883
-0.53247, -2.75867, 179.45920, -3.50718,  0.61675,  3.59443, -2.49939, -2.69497,  0.00000, -2.22014, -1.61284,  3.83301
-0.35498, -2.93665, 178.40973, -3.37229,  0.50792,  3.49984, -2.58865, -2.96447,  0.00000, -2.26545, -1.50287,  3.90967
-0.44373, -3.29260, 180.15884, -3.59711,  0.43536,  3.51875, -2.85645, -3.14413,  0.00000, -2.31076, -1.64949,  3.90967
-0.26624, -2.75867, 177.71008, -3.41725,  0.39908,  3.53767, -2.85645, -3.32380,  0.00000, -2.35607, -1.57618,  3.85217
-0.62122, -2.93665, 179.10938, -3.46222,  0.43536,  3.53767, -2.67792, -3.14413,  0.00000, -2.26545, -1.42956,  3.87134
-0.62122, -2.75867, 179.10938, -3.41725,  0.36280,  3.53767, -3.03497, -3.32380,  0.00000, -2.26545, -1.46622,  3.98633
-0.53247, -2.93665, 179.80902, -3.50718,  0.47164,  3.59443, -2.85645, -3.05430,  0.00000, -2.44669, -1.53953,  3.83301
-0.44373, -3.02563, 178.40973, -3.55214,  0.50792,  3.57551, -2.94571, -2.78480,  0.00000, -2.35607, -1.64949,  3.89050
-0.88745, -3.02563, 178.75955, -3.41725,  0.50792,  3.57551, -2.76718, -3.14413,  0.00000, -2.44669, -1.57618,  3.89050
-0.53247, -2.58069, 177.71008, -3.68703,  0.47164,  3.57551, -2.94571, -3.05430,  0.00000, -2.31076, -1.53953,  4.00549
-0.35498, -2.75867, 178.40973, -3.50718,  0.50792,  3.57551, -2.94571, -3.23396,  0.00000, -2.03891, -1.57618,  3.87134
-0.26624, -3.02563, 177.71008, -3.23740,  0.65303,  3.51875, -2.41013, -3.05430,  0.00000, -2.22014, -1.53953,  3.87134
-0.62122, -3.38159, 180.15884, -3.55214,  0.58047,  3.53767, -2.94571, -3.32380,  0.00000, -2.22014, -1.61284,  3.94800
-0.53247, -3.11462, 178.75955, -3.59711,  0.50792,  3.63226, -2.94571, -2.69497,  0.00000, -2.35607, -1.57618,  3.96716
-0.44373, -2.84766, 179.45920, -3.50718,  0.58047,  3.63226, -2.76718, -2.69497,  0.00000, -2.17484, -1.64949,  3.89050
-0.79871, -2.75867, 180.85849, -3.46222,  0.50792,  3.51875, -2.85645, -2.87463,  0.00000, -2.40138, -1.53953,  3.85217
 0.08875, -3.02563, 179.45920, -3.41725,  0.50792,  3.53767, -2.49939, -2.87463,  0.00000, -2.22014, -1.61284,  3.90967
-0.62122, -3.11462, 178.05991, -3.46222,  0.61675,  3.55659, -2.32086, -2.69497,  0.00000, -2.26545, -1.64949,  3.92883
-0.62122, -2.84766, 179.80902, -3.41725,  0.54420,  3.57551, -2.41013, -3.41363,  0.00000, -2.26545, -1.61284,  3.92883
-0.44373, -2.75867, 177.71008, -3.37229,  0.50792,  3.55659, -2.94571, -2.96447,  0.00000, -2.40138, -1.50287,  3.90967
-0.62122, -3.20361, 180.85849, -3.55214,  0.47164,  3.55659, -2.94571, -2.87463,  0.00000, -2.26545, -1.42956,  3.94800
-0.62122, -2.84766, 178.75955, -3.46222,  0.39908,  3.48092, -2.85645, -2.96447,  0.00000, -2.35607, -1.53953,  3.92883
-0.62122, -2.58069, 179.45920, -3.59711,  0.50792,  3.55659, -2.85645, -2.87463,  0.00000, -2.31076, -1.39291,  3.96716
-0.17749, -3.02563, 180.15884, -3.59711,  0.43536,  3.55659, -2.67792, -3.14413,  0.00000, -2.22014, -1.61284,  3.94800
-0.26624, -2.93665, 179.80902, -3.46222,  0.43536,  3.53767, -2.85645, -3.14413,  0.00000, -2.40138, -1.42956,  3.87134
-0.44373, -2.75867, 179.80902, -3.50718,  0.58047,  3.59443, -2.67792, -2.69497,  0.00000, -2.17484, -1.35625,  3.89050
-0.44373, -3.47058, 179.10938, -3.41725,  0.50792,  3.51875, -2.94571, -2.78480,  0.00000, -2.40138, -1.50287,  3.90967
-0.53247, -2.93665, 179.45920, -3.46222,  0.43536,  3.59443, -2.94571, -3.05430,  0.00000, -2.22014, -1.53953,  3.92883
-0.53247, -2.84766, 179.45920, -3.46222,  0.39908,  3.59443, -2.85645, -2.96447,  0.00000, -2.44669, -1.46622,  3.98633
-0.62122, -2.84766, 178.75955, -3.50718,  0.58047,  3.53767, -2.58865, -3.05430,  0.00000, -2.22014, -1.64949,  3.94800
 0.08875, -3.29260, 179.10938, -3.50718,  0.47164,  3.55659, -2.58865, -3.05430,  0.00000, -2.31076, -1.64949,  3.96716
-0.62122, -2.84766, 178.40973, -3.46222,  0.47164,  3.51875, -2.94571, -3.23396,  0.00000, -2.31076, -1.61284,  3.94800
-0.44373, -2.93665, 179.80902, -3.37229,  0.47164,  3.53767, -2.94571, -3.05430,  0.00000, -2.40138, -1.46622,  3.92883
-0.26624, -2.84766, 179.10938, -3.41725,  0.58047,  3.59443, -2.58865, -3.23396,  0.00000, -2.26545, -1.64949,  3.94800
-0.53247, -3.02563, 178.05991, -3.41725,  0.50792,  3.55659, -2.76718, -3.23396,  0.00000, -2.58262, -1.61284,  3.81384
-0.53247, -2.93665, 178.75955, -3.46222,  0.58047,  3.51875, -2.94571, -3.50346,  0.00000, -2.40138, -1.61284,  3.89050
-0.44373, -3.11462, 180.50867, -3.37229,  0.39908,  3.49984, -2.58865, -3.32380,  0.00000, -2.40138, -1.57618,  3.90967
-0.79871, -3.20361, 179.80902, -3.46222,  0.47164,  3.49984, -2.76718, -2.96447,  0.00000, -2.49200, -1.68615,  3.94800
-0.44373, -2.58069, 178.75955, -3.59711,  0.50792,  3.53767, -2.94571, -2.69497,  0.00000, -2.31076, -1.42956,  3.89050
-0.70996, -2.93665, 179.10938, -3.37229,  0.43536,  3.57551, -2.76718, -2.87463,  0.00000, -2.22014, -1.39291,  3.92883
-0.62122, -2.75867, 179.10938, -3.37229,  0.58047,  3.48092, -2.58865, -3.14413,  0.00000, -2.22014, -1.46622,  4.06299
-0.53247, -2.66968, 180.15884, -3.68703,  0.61675,  3.57551, -2.94571, -3.05430,  0.00000, -2.44669, -1.53953,  3.89050
-0.44373, -3.11462, 179.10938, -3.59711,  0.43536,  3.55659, -2.67792, -3.05430,  0.00000, -2.08422, -1.64949,  3.90967
-0.53247, -2.75867, 178.75955, -3.55214,  0.43536,  3.59443, -2.85645, -2.87463,  0.00000, -2.22014, -1.57618,  3.89050
-0.70996, -2.93665, 178.40973, -3.64207,  0.36280,  3.59443, -2.67792, -2.96447,  0.00000, -2.22014, -1.61284,  3.92883
-0.44373, -2.75867, 180.85849, -3.41725,  0.54420,  3.55659, -2.58865, -3.05430,  0.00000, -2.08422, -1.53953,  3.94800
-0.17749, -2.58069, 180.50867, -3.37229,  0.47164,  3.55659, -2.41013, -3.32380,  0.00000, -2.22014, -1.75946,  3.92883
-0.53247, -3.02563, 179.45920, -3.59711,  0.50792,  3.57551, -2.85645, -3.05430,  0.00000, -2.40138, -1.46622,  3.98633
-0.44373, -3.02563, 178.05991, -3.50718,  0.58047,  3.59443, -2.67792, -3.05430,  0.00000, -2.08422, -1.61284,  3.89050
-0.53247, -3.11462, 178.05991, -3.46222,  0.50792,  3.53767, -2.49939, -2.69497,  0.00000, -2.44669, -1.46622,  3.96716
-0.53247, -3.02563, 178.75955, -3.50718,  0.47164,  3.53767, -2.85645, -3.14413,  0.00000, -2.40138, -1.53953,  3.90967
-0.70996, -3.02563, 178.75955, -3.46222,  0.50792,  3.57551, -2.58865, -2.69497,  0.00000, -2.31076, -1.64949,  3.89050
-0.53247, -2.58069, 179.10938, -3.41725,  0.47164,  3.61335, -2.85645, -2.69497,  0.00000, -2.03891, -1.53953,  3.87134
-0.35498, -2.58069, 178.05991, -3.46222,  0.39908,  3.55659, -2.67792, -2.87463,  0.00000, -2.22014, -1.68615,  3.92883
-0.79871, -3.02563, 179.10938, -3.37229,  0.47164,  3.55659, -2.58865, -2.87463,  0.00000, -2.26545, -1.57618,  3.96716
-0.62122, -2.75867, 178.40973, -3.37229,  0.54420,  3.51875, -3.03497, -2.78480,  0.00000, -2.22014, -1.61284,  3.98633
-0.35498, -3.02563, 179.80902, -3.64207,  0.47164,  3.57551, -2.58865, -3.32380,  0.00000, -2.35607, -1.57618,  3.94800
-0.44373, -2.93665, 178.05991, -3.46222,  0.36280,  3.49984, -2.67792, -2.87463,  0.00000, -2.35607, -1.61284,  3.89050
-0.35498, -3.02563, 179.10938, -3.59711,  0.47164,  3.57551, -2.49939, -2.96447,  0.00000, -2.35607, -1.53953,  3.89050
-0.70996, -2.84766, 178.40973, -3.59711,  0.54420,  3.53767, -2.85645, -3.05430,  0.00000, -2.35607, -1.39291,  3.89050
-0.53247, -3.11462, 178.40973, -3.46222,  0.65303,  3.61335, -2.85645, -3.23396,  0.00000, -2.35607, -1.53953,  3.92883
-0.62122, -2.58069, 178.75955, -3.55214,  0.43536,  3.49984, -3.03497, -3.05430,  0.00000, -2.40138, -1.46622,  3.87134
-0.26624, -3.11462, 178.75955, -3.41725,  0.43536,  3.51875, -3.12424, -2.69497,  0.00000, -2.22014, -1.31960,  3.96716
-0.62122, -2.66968, 179.10938, -3.55214,  0.54420,  3.53767, -2.76718, -3.14413,  0.00000, -2.26545, -1.61284,  3.90967
-0.53247, -3.20361, 179.10938, -3.41725,  0.58047,  3.55659, -3.03497, -2.96447,  0.00000, -2.35607, -1.57618,  3.94800
-0.70996, -3.11462, 179.10938, -3.37229,  0.54420,  3.51875, -3.12424, -2.87463,  0.00000, -2.22014, -1.53953,  3.92883
-0.17749, -2.75867, 179.45920, -3.59711,  0.58047,  3.61335, -2.76718, -2.69497,  0.00000, -2.44669, -1.53953,  3.89050
-0.53247, -3.20361, 179.45920, -3.37229,  0.32652,  3.51875, -2.85645, -3.05430,  0.00000, -2.22014, -1.57618,  3.94800
-0.08875, -3.11462, 177.36026, -3.50718,  0.47164,  3.49984, -2.85645, -2.96447,  0.00000, -2.26545, -1.42956,  3.94800
-0.08875, -2.75867, 178.40973, -3.32732,  0.54420,  3.55659, -2.85645, -2.51530,  0.00000, -2.08422, -1.46622,  3.92883
-0.26624, -3.02563, 179.45920, -3.37229,  0.50792,  3.55659, -3.21350, -2.96447,  0.00000, -2.35607, -1.53953,  3.96716
-0.35498, -2.75867, 179.10938, -3.55214,  0.43536,  3.53767, -2.58865, -3.05430,  0.00000, -2.40138, -1.42956,  3.96716
-0.44373, -3.11462, 179.45920, -3.46222,  0.54420,  3.59443, -2.76718, -3.32380,  0.00000, -2.35607, -1.46622,  3.94800
-0.44373, -3.20361, 180.85849, -3.37229,  0.43536,  3.59443, -3.21350, -3.14413,  0.00000, -2.35607, -1.42956,  3.89050
-0.17749, -2.93665, 180.15884, -3.46222,  0.47164,  3.55659, -3.03497, -2.78480,  0.00000, -2.31076, -1.57618,  3.87134
