
-2.92859, -3.55957, -2.44876, -1.61870, -1.05211, -0.81348, -3.03497, -3.77296,  0.00000, -2.53731, -1.72281,  1.62903
-2.66235, -3.38159, -1.74911, -1.66366, -1.05211, -0.71889, -3.30276, -3.68312,  0.00000, -2.35607, -1.79612,  4.25464
-2.48486, -3.91553, -1.39929, -1.61870, -1.05211, -0.83239, -3.39203, -3.59329,  0.00000, -2.40138, -1.75946,  4.23547
-3.10608, -3.82654, -1.74911, -1.61870, -0.90699, -0.79456, -3.12424, -3.59329,  0.00000, -2.40138, -1.72281,  4.25464
-2.57361, -3.82654, -4.19788, -1.79855, -1.08839, -0.79456, -3.39203, -3.23396,  0.00000, -2.40138, -1.75946,  4.19714
-2.83984, -3.82654, -3.49823, -1.70863, -1.12467, -0.79456, -2.94571, -3.68312,  0.00000, -2.35607, -1.72281,  4.19714
-2.66235, -3.82654, -2.44876, -1.79855, -1.05211, -0.81348, -3.12424, -3.68312,  0.00000, -2.26545, -1.75946,  4.23547
-2.75110, -3.64856, -2.79858, -1.70863, -0.90699, -0.81348, -2.76718, -3.32380,  0.00000, -2.40138, -1.79612,  4.19714
-2.83984, -3.73755, -1.74911, -1.52877, -0.97955, -0.81348, -3.21350, -3.23396,  0.00000, -2.49200, -1.75946,  4.17798
-2.92859, -3.29260, -2.44876, -1.66366, -1.12467, -0.77564, -3.39203, -3.59329,  0.00000, -2.58262, -1.75946,  4.19714
-3.10608, -3.20361, -3.49823, -1.79855, -1.05211, -0.88915, -3.21350, -3.23396,  0.00000, -2.53731, -1.64949,  4.31213
-2.83984, -4.09351, -1.74911, -1.84352, -1.12467, -0.73780, -3.21350, -3.14413,  0.00000, -2.40138, -1.72281,  4.19714
-2.83984, -3.73755, -2.79858, -1.75359, -1.12467, -0.73780, -3.12424, -3.59329,  0.00000, -2.49200, -1.72281,  4.21631
-2.75110, -3.47058, -1.04947, -1.57373, -1.08839, -0.81348, -3.21350, -3.77296,  0.00000, -2.22014, -1.72281,  4.27380
-2.48486, -3.73755, -1.74911, -1.70863, -1.05211, -0.79456, -3.12424, -3.14413,  0.00000, -2.44669, -1.79612,  4.21631
-2.83984, -3.64856, -4.19788, -1.88848, -1.26979, -0.83239, -3.21350, -3.50346,  0.00000, -2.44669, -1.86943,  4.19714
-2.66235, -3.47058, -3.84805, -1.75359, -0.87071, -0.81348, -3.30276, -3.32380,  0.00000, -2.67323, -1.61284,  4.21631
-2.92859, -3.82654, -3.14841, -1.70863, -1.16095, -0.79456, -3.03497, -3.14413,  0.00000, -2.58262, -1.64949,  4.15881
-2.48486, -4.00452, -3.49823, -1.61870, -1.01583, -0.79456, -3.03497, -3.59329,  0.00000, -2.44669, -1.75946,  4.15881
-2.21863, -3.73755, -2.09894, -1.61870, -1.16095, -0.79456, -3.12424, -3.41363,  0.00000, -2.44669, -1.75946,  4.19714
-2.83984, -3.73755, -2.44876, -1.70863, -1.08839, -0.81348, -3.48129, -3.77296,  0.00000, -2.62793, -1.72281,  4.27380
-2.75110, -3.91553, -3.14841, -1.57373, -1.05211, -0.79456, -3.03497, -3.59329,  0.00000, -2.58262, -1.75946,  4.23547
-2.39612, -3.91553, -2.79858, -1.84352, -1.08839, -0.79456, -3.21350, -3.77296,  0.00000, -2.40138, -1.86943,  4.27380
-2.57361, -3.73755, -4.19788, -1.61870, -1.23351, -0.85131, -3.30276, -3.68312,  0.00000, -2.40138, -1.64949,  4.15881
-2.48486, -3.55957, -2.09894, -1.75359, -0.97955, -0.85131, -3.48129, -3.41363,  0.00000, -2.53731, -1.75946,  4.12048
-2.83984, -4.18250, -2.09894, -1.70863, -1.01583, -0.69997, -3.57056, -3.50346,  0.00000, -2.53731, -1.72281,  4.21631
-2.92859, -4.18250, -3.49823, -1.61870, -1.05211, -0.81348, -3.21350, -3.32380,  0.00000, -2.40138, -1.68615,  4.23547
-2.83984, -3.91553, -3.49823, -1.84352, -1.23351, -0.83239, -3.03497, -3.59329,  0.00000, -2.49200, -1.72281,  4.15881
-2.39612, -3.73755, -1.74911, -1.70863, -0.97955, -0.79456, -3.03497, -3.41363,  0.00000, -2.40138, -1.72281,  4.19714
-2.75110, -4.00452, -3.14841, -1.79855, -1.12467, -0.75672, -3.12424, -3.50346,  0.00000, -2.49200, -1.68615,  4.12048
-2.92859, -4.00452, -0.34982, -1.61870, -1.19723, -0.81348, -3.12424, -3.77296,  0.00000, -2.44669, -1.83277,  4.08215
-2.66235, -3.64856, -1.39929, -1.70863, -1.08839, -0.83239, -3.03497, -3.32380,  0.00000, -2.35607, -1.90608,  4.17798
-2.83984, -3.82654, -3.14841, -1.66366, -1.08839, -0.75672, -2.85645, -3.50346,  0.00000, -2.58262, -1.75946,  4.19714
-2.92859, -3.73755, -1.74911, -1.66366, -0.97955, -0.81348, -3.21350, -3.59329,  0.00000, -2.44669, -1.72281,  4.19714
-3.01733, -3.64856, -2.79858, -1.70863, -1.08839, -0.81348, -3.21350, -3.77296,  0.00000, -2.49200, -1.90608,  4.17798
-2.75110, -4.09351, -3.14841, -1.79855, -1.05211, -0.79456, -2.85645, -3.68312,  0.00000, -2.49200, -1.75946,  4.15881
-2.66235, -3.82654, -3.49823, -1.84352, -1.16095, -0.79456, -2.94571, -3.77296,  0.00000, -2.58262, -1.72281,  4.17798
-2.75110, -4.00452, -2.09894, -1.66366, -0.97955, -0.83239, -2.76718, -3.23396,  0.00000, -2.26545, -1.83277,  4.23547
-2.83984, -4.00452, -3.14841, -1.66366, -0.97955, -0.83239, -3.12424, -3.41363,  0.00000, -2.49200, -1.79612,  4.19714
-2.66235, -3.73755, -2.44876, -1.75359, -1.08839, -0.83239, -2.94571, -3.95262,  0.00000, -2.53731, -1.61284,  4.21631
-2.75110, -3.64856, -2.44876, -1.70863, -1.12467, -0.75672, -2.85645, -3.59329,  0.00000, -2.26545, -1.86943,  4.21631
-2.48486, -3.64856, -3.84805, -1.61870, -1.01583, -0.85131, -2.85645, -3.86279,  0.00000, -2.35607, -1.68615,  4.21631
-2.66235, -3.73755, -2.79858, -1.79855, -1.08839, -0.73780, -3.12424, -3.68312,  0.00000, -2.35607, -1.61284,  4.19714
-2.57361, -4.00452, -1.04947, -1.57373, -1.05211, -0.83239, -3.39203, -3.50346,  0.00000, -2.67323, -1.72281,  4.19714
-2.48486, -3.91553, -3.84805, -1.79855, -1.12467, -0.79456, -2.94571, -3.50346,  0.00000, -2.53731, -1.68615,  4.27380
-2.48486, -3.64856, -3.14841, -1.70863, -1.12467, -0.85131, -3.21350, -3.05430,  0.00000, -2.26545, -1.79612,  4.25464
-2.92859, -3.73755, -3.14841, -1.75359, -1.23351, -0.83239, -3.12424, -3.50346,  0.00000, -2.58262, -1.79612,  4.12048
-3.01733, -4.18250, -2.79858, -1.88848, -1.19723, -0.75672, -3.03497, -3.41363,  0.00000, -2.31076, -1.79612,  4.25464
-2.75110, -3.47058, -1.39929, -1.61870, -1.12467, -0.81348, -2.94571, -3.77296,  0.00000, -2.44669, -1.75946,  4.21631
-2.48486, -4.09351, -3.49823, -1.70863, -1.08839, -0.75672, -3.65982, -3.68312,  0.00000, -2.26545, -1.83277,  4.25464
-2.66235, -3.82654, -2.79858, -1.66366, -1.05211, -0.87023, -3.30276, -3.23396,  0.00000, -2.44669, -1.75946,  4.25464
-2.92859, -3.82654, -3.49823, -1.88848, -1.08839, -0.81348, -2.94571, -3.50346,  0.00000, -2.44669, -1.79612,  4.19714
-2.48486, -3.73755, -2.44876, -1.70863, -0.97955, -0.83239, -3.65982, -3.50346,  0.00000, -2.44669, -1.79612,  4.17798
-2.66235, -4.00452, -2.09894, -1.70863, -1.16095, -0.81348, -3.30276, -3.59329,  0.00000, -2.58262, -1.86943,  4.15881
-2.39612, -3.64856, -4.19788, -1.61870, -1.16095, -0.87023, -3.12424, -3.95262,  0.00000, -2.26545, -1.57618,  4.21631
-2.75110, -3.47058, -1.74911, -1.79855, -1.12467, -0.69997, -3.39203, -3.32380,  0.00000, -2.40138, -1.75946,  4.25464
-2.48486, -4.09351, -2.44876, -1.79855, -1.05211, -0.87023, -3.21350, -3.77296,  0.00000, -2.58262, -1.90608,  4.25464
-2.83984, -3.91553, -2.44876, -1.79855, -1.12467, -0.75672, -3.39203, -3.50346,  0.00000, -2.44669, -1.79612,  4.17798
-2.92859, -3.91553, -3.14841, -1.61870, -1.12467, -0.75672, -2.85645, -3.95262,  0.00000, -2.40138, -1.83277,  4.17798
-2.75110, -4.36047, -1.74911, -1.79855, -1.01583, -0.77564, -3.30276, -3.68312,  0.00000, -2.49200, -1.68615,  4.29297
-2.66235, -4.09351, -2.79858, -1.70863, -1.05211, -0.79456, -3.39203, -3.50346,  0.00000, -2.40138, -1.72281,  4.17798
-2.75110, -3.82654, -3.14841, -1.75359, -1.08839, -0.83239, -3.30276, -3.50346,  0.00000, -2.62793, -1.72281,  4.25464
-3.01733, -3.73755, -2.79858, -1.66366, -1.08839, -0.77564, -3.03497, -3.32380,  0.00000, -2.31076, -1.72281,  4.15881
-2.83984, -3.82654, -2.79858, -1.43884, -1.19723, -0.85131, -3.12424, -3.50346,  0.00000, -2.49200, -1.83277,  4.19714
-2.92859, -3.55957, -2.09894, -1.70863, -1.08839, -0.73780, -2.94571, -3.41363,  0.00000, -2.58262, -1.79612,  4.19714
-2.75110, -4.00452, -3.14841, -1.66366, -1.26979, -0.85131, -3.48129, -3.32380,  0.00000, -2.35607, -1.72281,  4.27380
-2.48486, -3.55957, -3.14841, -1.79855, -0.97955, -0.79456, -3.21350, -3.68312,  0.00000, -2.53731, -1.75946,  4.15881
-2.83984, -3.73755, -2.09894, -1.79855, -1.19723, -0.77564, -3.21350, -3.68312,  0.00000, -2.71854, -1.61284,  4.19714
-2.75110, -3.38159, -1.74911, -1.79855, -1.08839, -0.79456, -3.21350, -3.59329,  0.00000, -2.44669, -1.72281,  4.25464
-3.10608, -3.82654, -3.49823, -1.66366, -1.05211, -0.79456, -3.03497, -3.23396,  0.00000, -2.31076, -1.75946,  4.13965
-2.75110, -3.82654, -1.04947, -1.66366, -1.19723, -0.87023, -3.12424, -3.32380,  0.00000, -2.35607, -1.90608,  4.17798
-2.75110, -3.47058, -1.39929, -1.66366, -1.12467, -0.75672, -3.03497, -3.95262,  0.00000, -2.44669, -1.79612,  4.25464
-2.75110, -4.09351, -2.44876, -1.66366, -1.16095, -0.77564, -3.21350, -3.59329,  0.00000, -2.31076, -1.75946,  4.17798
-2.66235, -3.91553, -1.39929, -1.57373, -1.05211, -0.79456, -3.57056, -3.68312,  0.00000, -2.44669, -1.83277,  4.19714
-2.75110, -3.91553, -2.09894, -1.66366, -0.90699, -0.88915, -3.30276, -3.59329,  0.00000, -2.40138, -1.83277,  4.23547
-2.92859, -3.64856, -2.09894, -1.70863, -1.01583, -0.81348, -2.94571, -3.68312,  0.00000, -2.58262, -1.86943,  4.19714
-2.75110, -4.00452, -3.14841, -1.88848, -1.12467, -0.77564, -3.12424, -3.50346,  0.00000, -2.49200, -1.79612,  4.19714
-2.39612, -3.73755, -2.09894, -1.75359, -0.94327, -0.77564, -3.12424, -3.50346,  0.00000, -2.40138, -1.64949,  4.23547
-3.10608, -3.82654, -0.69965, -1.66366, -1.05211, -0.87023, -2.94571, -3.77296,  0.00000, -2.53731, -1.79612,  4.19714
-2.66235, -3.73755, -2.09894, -1.75359, -0.97955, -0.79456, -3.39203, -3.32380,  0.00000, -2.40138, -1.79612,  4.12048
-2.83984, -3.91553, -2.09894, -1.70863, -1.16095, -0.81348, -3.48129, -3.59329,  0.00000, -2.67323, -1.90608,  4.17798
-2.48486, -3.73755, -4.19788, -1.84352, -1.16095, -0.83239, -3.30276, -3.23396,  0.00000, -2.58262, -1.72281,  4.17798
-2.39612, -3.82654, -1.04947, -1.75359, -0.90699, -0.81348, -3.48129, -3.59329,  0.00000, -2.49200, -1.72281,  4.29297
-3.01733, -4.18250, -2.44876, -1.70863, -1.01583, -0.81348, -3.30276, -3.32380,  0.00000, -2.35607, -1.64949,  4.29297
-2.66235, -3.47058, -1.74911, -1.79855, -1.12467, -0.75672, -2.94571, -3.41363,  0.00000, -2.44669, -1.72281,  4.21631
-2.66235, -3.11462, -2.09894, -1.61870, -1.01583, -0.77564, -3.21350, -3.59329,  0.00000, -2.40138, -1.75946,  4.19714
-2.66235, -3.64856, -2.44876, -1.70863, -0.97955, -0.87023, -3.12424, -3.59329,  0.00000, -2.40138, -1.61284,  4.23547
-2.66235, -3.91553, -2.09894, -1.61870, -1.05211, -0.87023, -3.12424, -3.32380,  0.00000, -2.62793, -1.68615,  4.23547
-2.92859, -4.00452, -3.84805, -1.88848, -1.16095, -0.87023, -3.39203, -3.14413,  0.00000, -2.40138, -1.79612,  4.15881
-2.48486, -3.82654, -2.44876, -1.75359, -1.05211, -0.88915, -2.94571, -3.14413,  0.00000, -2.53731, -1.83277,  4.23547
-2.66235, -3.55957, -3.84805, -1.75359, -1.12467, -0.77564, -2.94571, -3.41363,  0.00000, -2.35607, -1.83277,  4.12048
-3.19482, -3.82654, -3.14841, -1.75359, -1.16095, -0.79456, -3.21350, -3.41363,  0.00000, -2.53731, -1.75946,  4.23547
-2.83984, -3.91553, -1.74911, -1.66366, -1.19723, -0.83239, -3.30276, -3.77296,  0.00000, -2.40138, -1.79612,  4.19714
-2.57361, -3.82654, -2.44876, -1.75359, -1.05211, -0.77564, -3.57056, -3.50346,  0.00000, -2.40138, -1.86943,  4.19714
-2.75110, -4.09351, -1.74911, -1.88848, -1.12467, -0.87023, -3.12424, -3.50346,  0.00000, -2.22014, -1.79612,  4.27380
-2.48486, -3.47058, -2.79858, -1.70863, -1.08839, -0.79456, -3.21350, -3.50346,  0.00000, -2.49200, -1.86943,  4.27380
-2.57361, -3.73755, -3.84805, -1.79855, -1.08839, -0.75672, -3.03497, -3.41363,  0.00000, -2.53731, -1.64949,  4.23547
-2.83984, -4.00452, -4.19788, -1.75359, -1.05211, -0.79456, -3.30276, -3.32380,  0.00000, -2.40138, -1.79612,  4.17798
-2.92859, -4.09351, -2.79858, -1.79855, -1.16095, -0.73780, -3.21350, -3.59329,  0.00000, -2.44669, -1.86943,  4.23547
-2.48486, -3.82654, -2.79858, -1.66366, -1.01583, -0.79456, -3.12424, -3.77296,  0.00000, -2.35607, -1.72281,  4.27380
-2.57361, -3.64856, -1.74911, -1.70863, -0.87071, -0.81348, -3.12424, -3.50346,  0.00000, -2.40138, -1.79612,  4.13965
-2.92859, -4.00452, -3.14841, -1.70863, -0.94327, -0.79456, -3.12424, -3.86279,  0.00000, -2.35607, -1.72281,  4.17798
-0.17749, -6.22925,  0.69965, -0.67446, -1.16095,  0.62430, -2.76718, -3.68312,  0.00000, -2.40138, -1.83277,  4.25464
-3.46106, -4.09351, -9.09540, -1.34892, -1.08839, -0.62430, -3.03497, -3.86279,  0.00000, -2.26545, -1.79612,  4.15881
-2.39612, -3.47058, -4.19788, -1.93344, -1.01583, -1.07833, -2.94571, -4.04245,  0.00000, -2.40138, -1.83277,  4.12048
-6.38965, -10.41174,  6.29681,  0.08993, -1.52375,  0.11351, -2.41013, -3.32380,  0.00000, -2.17484, -1.83277,  4.25464
-2.30737, -5.07239, -4.89752, -1.66366, -0.87071, -0.52971, -3.39203, -3.59329,  0.00000, -2.67323, -1.83277,  4.19714
-3.72729, -5.69531, -8.04593, -1.70863, -1.26979, -1.81613, -3.30276, -4.04245,  0.00000, -2.49200, -1.75946,  4.15881
-1.24243, -4.00452,  1.74911, -1.75359, -1.59631, -0.88915, -3.12424, -3.59329,  0.00000, -2.80916, -1.83277,  4.12048
-5.50220,  8.98792, -5.59717, -0.80935, -1.23351, -0.68105, -3.39203, -3.50346,  0.00000, -2.35607, -1.75946,  4.25464
-1.24243,  0.53394,  6.29681, -1.75359, -0.32652,  0.34052, -3.12424, -3.14413,  0.00000, -2.40138, -1.72281,  4.29297
-3.46106, -5.96228, 11.54416, -3.46222, -1.37863, -0.98374, -3.48129, -3.05430,  0.00000, -2.40138, -1.75946,  4.23547
-3.28357, -4.71643, 25.88690, -1.30395,  0.61675, -0.39728, -3.39203, -3.68312,  0.00000, -2.62793, -1.61284,  4.08215
-4.17102, -4.62744, 22.38867, -1.84352, -0.47164,  0.00000, -2.94571, -3.95262,  0.00000, -2.35607, -1.75946,  4.19714
-2.66235, -4.27148, 25.18726, -2.11330, -1.01583, -0.32161, -2.94571, -3.41363,  0.00000, -2.22014, -1.68615,  4.10132
-2.48486, -4.09351, 29.73495, -1.88848, -1.05211, -0.26485, -2.85645, -3.68312,  0.00000, -2.58262, -1.83277,  4.17798
-1.59741, -3.47058, 33.23318, -1.84352, -1.01583, -0.05675, -3.65982, -3.50346,  0.00000, -2.22014, -1.75946,  4.17798
-1.50867, -4.36047, 37.43106, -1.57373, -0.97955,  0.00000, -3.57056, -3.95262,  0.00000, -2.31076, -1.83277,  4.19714
-1.41992, -3.29260, 39.87982, -1.97841, -0.94327,  0.22702, -3.30276, -3.32380,  0.00000, -2.35607, -1.72281,  4.21631
-2.57361, -2.93665, 41.62894, -1.61870, -0.83443,  0.26485, -3.30276, -3.32380,  0.00000, -2.26545, -1.79612,  4.21631
-2.21863, -3.47058, 42.32858, -1.57373, -1.08839,  0.35944, -3.12424, -3.77296,  0.00000, -2.44669, -1.72281,  4.19714
-2.30737, -3.29260, 44.07770, -1.79855, -1.08839,  0.39728, -3.21350, -4.04245,  0.00000, -2.35607, -1.68615,  4.25464
-2.04114, -3.55957, 42.67841, -1.88848, -0.97955,  0.37836, -3.21350, -3.68312,  0.00000, -2.44669, -1.90608,  4.12048
-2.30737, -3.38159, 43.37805, -1.61870, -0.97955,  0.45403, -3.12424, -3.77296,  0.00000, -2.44669, -1.75946,  4.17798
-2.30737, -3.38159, 43.72787, -1.61870, -0.87071,  0.39728, -3.57056, -3.95262,  0.00000, -2.49200, -1.75946,  4.13965
-2.21863, -3.38159, 43.37805, -1.97841, -0.97955,  0.43511, -3.21350, -3.50346,  0.00000, -2.44669, -1.75946,  4.15881
-1.95239, -3.29260, 44.77734, -1.70863, -1.05211,  0.37836, -3.12424, -3.50346,  0.00000, -2.40138, -1.86943,  4.21631
-2.30737, -3.38159, 43.72787, -1.75359, -0.97955,  0.45403, -3.39203, -3.32380,  0.00000, -2.44669, -1.64949,  4.08215
-2.21863, -4.00452, 44.07770, -1.70863, -0.90699,  0.35944, -3.03497, -3.86279,  0.00000, -2.49200, -1.68615,  4.21631
-2.66235, -3.64856, 44.07770, -1.75359, -1.05211,  0.34052, -3.03497, -3.59329,  0.00000, -2.49200, -1.64949,  4.06299
-2.48486, -3.82654, 44.77734, -1.84352, -1.12467,  0.39728, -2.85645, -3.59329,  0.00000, -2.40138, -1.64949,  4.19714
-2.21863, -3.47058, 44.07770, -1.61870, -0.97955,  0.37836, -3.30276, -3.50346,  0.00000, -2.58262, -1.79612,  4.21631
-2.21863, -3.82654, 43.37805, -1.75359, -1.05211,  0.41620, -3.21350, -3.23396,  0.00000, -2.44669, -1.72281,  4.17798
-2.57361, -3.38159, 43.72787, -1.75359, -1.12467,  0.47295, -2.85645, -3.32380,  0.00000, -2.49200, -1.68615,  4.19714
-2.04114, -3.38159, 45.12717, -1.84352, -0.94327,  0.35944, -3.21350, -3.41363,  0.00000, -2.35607, -1.79612,  4.19714
-2.30737, -4.00452, 43.02823, -1.52877, -1.12467,  0.35944, -2.85645, -3.50346,  0.00000, -2.40138, -1.75946,  4.23547
-2.12988, -3.64856, 42.67841, -1.70863, -0.90699,  0.45403, -3.21350, -3.23396,  0.00000, -2.44669, -1.72281,  4.21631
-2.12988, -4.18250, 43.72787, -1.79855, -1.01583,  0.34052, -2.94571, -3.59329,  0.00000, -2.49200, -1.86943,  4.21631
-2.48486, -3.47058, 44.42752, -1.75359, -1.01583,  0.35944, -3.21350, -2.96447,  0.00000, -2.40138, -1.75946,  4.23547
-2.57361, -3.11462, 43.72787, -1.66366, -0.87071,  0.34052, -3.03497, -3.23396,  0.00000, -2.49200, -1.68615,  4.15881
-2.21863, -3.64856, 43.37805, -1.70863, -0.83443,  0.41620, -2.94571, -3.32380,  0.00000, -2.49200, -1.86943,  4.21631
-2.21863, -3.11462, 43.37805, -1.75359, -1.01583,  0.41620, -3.21350, -3.68312,  0.00000, -2.53731, -1.75946,  4.21631
-2.04114, -3.47058, 43.37805, -1.75359, -0.97955,  0.43511, -2.94571, -3.77296,  0.00000, -2.44669, -1.64949,  4.27380
-2.48486, -3.73755, 41.97876, -1.93344, -0.94327,  0.32161, -3.03497, -3.41363,  0.00000, -2.40138, -1.57618,  4.23547
-2.48486, -3.38159, 43.02823, -1.79855, -0.83443,  0.37836, -3.48129, -3.68312,  0.00000, -2.31076, -1.75946,  4.19714
-2.48486, -4.18250, 43.72787, -1.66366, -1.05211,  0.47295, -3.03497, -3.68312,  0.00000, -2.31076, -1.75946,  4.25464
-2.21863, -3.55957, 43.72787, -1.88848, -0.90699,  0.39728, -3.21350, -3.05430,  0.00000, -2.35607, -1.64949,  4.19714
-2.57361, -3.29260, 43.72787, -1.70863, -0.83443,  0.47295, -2.85645, -3.41363,  0.00000, -2.31076, -1.72281,  4.15881
-2.21863, -3.55957, 42.32858, -1.70863, -0.97955,  0.43511, -3.21350, -3.50346,  0.00000, -2.44669, -1.75946,  4.15881
-2.21863, -3.91553, 44.42752, -1.75359, -0.90699,  0.34052, -3.30276, -4.04245,  0.00000, -2.35607, -1.86943,  4.25464
-2.39612, -3.47058, 44.42752, -1.88848, -1.01583,  0.37836, -3.21350, -3.68312,  0.00000, -2.53731, -1.72281,  4.23547
-2.66235, -3.91553, 44.07770, -1.75359, -0.90699,  0.39728, -2.94571, -3.32380,  0.00000, -2.49200, -1.68615,  4.23547
-2.12988, -3.38159, 42.67841, -1.75359, -1.05211,  0.45403, -2.76718, -3.68312,  0.00000, -2.44669, -1.64949,  4.23547
-2.04114, -3.73755, 43.72787, -1.57373, -0.97955,  0.41620, -3.39203, -3.41363,  0.00000, -2.40138, -1.68615,  4.21631
-2.30737, -3.82654, 43.02823, -1.93344, -0.90699,  0.32161, -3.21350, -3.50346,  0.00000, -2.53731, -1.72281,  4.17798
-2.04114, -3.73755, 43.02823, -1.88848, -1.08839,  0.41620, -3.03497, -3.05430,  0.00000, -2.31076, -1.75946,  4.19714
-1.95239, -3.64856, 42.32858, -1.75359, -0.97955,  0.43511, -3.21350, -3.59329,  0.00000, -2.35607, -1.75946,  4.17798
-2.66235, -3.73755, 44.07770, -1.66366, -0.87071,  0.37836, -2.76718, -3.50346,  0.00000, -2.40138, -1.86943,  4.19714
-2.30737, -3.55957, 43.02823, -1.84352, -0.94327,  0.35944, -3.21350, -3.41363,  0.00000, -2.35607, -1.75946,  4.15881
-2.48486, -3.64856, 43.02823, -1.79855, -0.94327,  0.39728, -2.85645, -3.14413,  0.00000, -2.44669, -1.83277,  4.21631
-2.30737, -3.55957, 44.77734, -1.93344, -1.08839,  0.39728, -3.30276, -3.32380,  0.00000, -2.44669, -1.72281,  4.13965
-2.12988, -3.02563, 44.77734, -1.66366, -0.94327,  0.43511, -2.94571, -3.50346,  0.00000, -2.26545, -1.64949,  4.17798
-2.30737, -3.55957, 43.72787, -1.75359, -1.01583,  0.35944, -2.94571, -3.23396,  0.00000, -2.31076, -1.83277,  4.21631
-2.39612, -3.73755, 44.07770, -1.70863, -0.94327,  0.28377, -3.30276, -3.50346,  0.00000, -2.67323, -1.75946,  4.25464
-2.39612, -3.47058, 44.42752, -1.52877, -0.94327,  0.41620, -3.48129, -3.32380,  0.00000, -2.62793, -1.64949,  4.17798
-2.30737, -3.38159, 44.07770, -1.93344, -1.08839,  0.39728, -3.30276, -3.32380,  0.00000, -2.53731, -1.75946,  4.15881
-2.12988, -3.38159, 44.07770, -1.84352, -1.08839,  0.47295, -3.21350, -3.41363,  0.00000, -2.49200, -1.83277,  4.27380
-2.12988, -3.55957, 41.97876, -1.75359, -0.90699,  0.35944, -2.94571, -3.41363,  0.00000, -2.58262, -1.72281,  4.19714
-2.04114, -3.47058, 44.77734, -1.97841, -0.97955,  0.39728, -3.30276, -3.32380,  0.00000, -2.49200, -1.57618,  4.31213
-2.57361, -3.73755, 44.07770, -1.79855, -1.01583,  0.30269, -3.03497, -3.41363,  0.00000, -2.53731, -1.68615,  4.17798
-2.30737, -4.00452, 43.72787, -1.79855, -0.83443,  0.47295, -3.03497, -3.41363,  0.00000, -2.53731, -1.68615,  4.27380
-2.30737, -3.82654, 43.72787, -1.79855, -1.01583,  0.39728, -3.12424, -3.59329,  0.00000, -2.35607, -1.79612,  4.17798
-2.39612, -4.09351, 43.72787, -1.70863, -0.87071,  0.37836, -3.12424, -3.77296,  0.00000, -2.44669, -1.79612,  4.25464
-2.12988, -3.55957, 42.32858, -1.79855, -0.97955,  0.35944, -3.12424, -3.77296,  0.00000, -2.22014, -1.72281,  4.21631
-2.48486, -3.82654, 43.72787, -1.75359, -1.08839,  0.41620, -3.48129, -3.23396,  0.00000, -2.40138, -1.68615,  4.15881
-2.21863, -3.64856, 44.42752, -1.79855, -0.94327,  0.34052, -3.21350, -3.41363,  0.00000, -2.58262, -1.75946,  4.15881
-2.21863, -3.73755, 42.32858, -1.70863, -1.08839,  0.30269, -3.57056, -3.68312,  0.00000, -2.35607, -1.75946,  4.23547
-2.39612, -3.64856, 43.37805, -1.75359, -1.08839,  0.41620, -3.39203, -3.50346,  0.00000, -2.53731, -1.75946,  4.21631
-2.48486, -3.29260, 44.07770, -1.97841, -1.16095,  0.41620, -3.30276, -3.95262,  0.00000, -2.31076, -1.79612,  4.19714
-2.39612, -3.55957, 43.02823, -1.79855, -0.97955,  0.43511, -3.30276, -3.59329,  0.00000, -2.53731, -1.61284,  4.25464
-2.21863, -3.64856, 41.97876, -1.75359, -0.90699,  0.39728, -3.12424, -3.41363,  0.00000, -2.44669, -1.68615,  4.17798
-2.57361, -3.55957, 43.02823, -1.75359, -1.05211,  0.34052, -3.03497, -3.50346,  0.00000, -2.58262, -1.75946,  4.17798
-2.30737, -3.29260, 43.37805, -1.75359, -1.05211,  0.35944, -3.03497, -3.50346,  0.00000, -2.31076, -1.64949,  4.21631
-2.30737, -3.73755, 44.42752, -1.84352, -1.08839,  0.45403, -3.21350, -3.59329,  0.00000, -2.49200, -1.79612,  4.31213
-2.39612, -3.55957, 41.62894, -1.88848, -1.16095,  0.37836, -3.12424, -3.59329,  0.00000, -2.35607, -1.68615,  4.19714
-2.21863, -3.73755, 43.02823, -1.70863, -1.01583,  0.39728, -3.39203, -3.23396,  0.00000, -2.40138, -1.68615,  4.15881
-2.57361, -3.55957, 43.02823, -1.70863, -1.01583,  0.34052, -3.39203, -3.59329,  0.00000, -2.62793, -1.72281,  4.15881
-2.48486, -3.73755, 43.37805, -1.79855, -0.97955,  0.34052, -3.21350, -3.41363,  0.00000, -2.49200, -1.83277,  4.15881
-2.12988, -3.82654, 43.72787, -1.97841, -0.76187,  0.39728, -3.21350, -3.77296,  0.00000, -2.26545, -1.57618,  4.21631
-2.30737, -3.82654, 44.42752, -1.70863, -1.12467,  0.35944, -3.39203, -3.32380,  0.00000, -2.53731, -1.86943,  4.19714
-2.30737, -3.64856, 44.42752, -1.61870, -1.01583,  0.41620, -3.12424, -3.41363,  0.00000, -2.49200, -1.79612,  4.23547
-2.39612, -3.64856, 44.07770, -1.70863, -1.08839,  0.43511, -3.03497, -3.32380,  0.00000, -2.31076, -1.72281,  4.17798
-2.30737, -3.29260, 43.37805, -1.93344, -1.08839,  0.39728, -2.85645, -3.14413,  0.00000, -2.40138, -1.75946,  4.25464
-2.21863, -3.29260, 44.42752, -1.84352, -1.08839,  0.30269, -3.30276, -3.59329,  0.00000, -2.40138, -1.72281,  4.17798
-2.39612, -3.73755, 44.77734, -1.61870, -0.97955,  0.34052, -2.94571, -3.05430,  0.00000, -2.40138, -1.83277,  4.21631
-2.75110, -3.38159, 42.32858, -1.75359, -0.94327,  0.37836, -3.30276, -3.59329,  0.00000, -2.44669, -1.75946,  4.23547
-2.12988, -3.47058, 44.07770, -1.75359, -0.87071,  0.49187, -3.12424, -3.23396,  0.00000, -2.49200, -1.61284,  4.17798
-2.30737, -3.82654, 42.32858, -1.61870, -0.97955,  0.37836, -2.85645, -3.59329,  0.00000, -2.40138, -1.83277,  4.13965
-2.39612, -3.64856, 42.67841, -1.75359, -1.01583,  0.35944, -3.21350, -3.68312,  0.00000, -2.31076, -1.86943,  4.29297
-1.95239, -3.47058, 44.42752, -1.75359, -1.01583,  0.43511, -3.12424, -3.77296,  0.00000, -2.40138, -1.79612,  4.21631
-2.12988, -3.38159, 43.72787, -1.66366, -1.08839,  0.39728, -3.21350, -3.68312,  0.00000, -2.40138, -1.75946,  4.19714
-2.57361, -3.91553, 42.67841, -1.88848, -1.08839,  0.43511, -2.94571, -3.68312,  0.00000, -2.40138, -1.72281,  4.21631
-2.30737, -3.55957, 43.72787, -1.84352, -1.05211,  0.39728, -2.94571, -3.68312,  0.00000, -2.31076, -1.75946,  4.27380
-2.04114, -3.29260, 42.32858, -1.79855, -0.90699,  0.37836, -3.12424, -3.41363,  0.00000, -2.40138, -1.75946,  4.23547
-2.21863, -3.64856, 41.97876, -1.93344, -0.94327,  0.47295, -3.03497, -3.77296,  0.00000, -2.26545, -1.79612,  4.19714
-2.39612, -3.73755, 44.42752, -1.70863, -0.90699,  0.37836, -3.03497, -3.32380,  0.00000, -2.40138, -1.72281,  4.17798
-2.30737, -3.55957, 44.07770, -1.79855, -0.97955,  0.34052, -3.30276, -3.50346,  0.00000, -2.53731, -1.79612,  4.25464
-2.21863, -3.55957, 43.72787, -1.97841, -0.97955,  0.34052, -3.39203, -3.59329,  0.00000, -2.49200, -1.86943,  4.15881
-2.66235, -3.55957, 44.42752, -1.70863, -1.08839,  0.37836, -3.21350, -3.05430,  0.00000, -2.40138, -1.86943,  4.19714
-2.30737, -3.55957, 43.37805, -1.61870, -0.90699,  0.35944, -3.21350, -3.59329,  0.00000, -2.44669, -1.83277,  4.23547
-2.04114, -3.55957, 40.92929, -1.66366, -0.83443,  0.34052, -3.03497, -3.41363,  0.00000, -2.44669, -1.68615,  4.19714
-2.39612, -3.91553, 42.67841, -1.79855, -0.94327,  0.43511, -3.57056, -3.41363,  0.00000, -2.53731, -1.68615,  4.23547
-2.48486, -3.64856, 42.67841, -1.70863, -0.97955,  0.41620, -3.30276, -3.59329,  0.00000, -2.53731, -1.75946,  4.21631
-2.66235, -3.29260, 44.42752, -1.61870, -0.97955,  0.34052, -3.21350, -3.41363,  0.00000, -2.44669, -1.83277,  4.27380
-2.21863, -3.55957, 44.42752, -1.75359, -0.79815,  0.35944, -3.21350, -3.68312,  0.00000, -2.40138, -1.72281,  4.19714
-2.21863, -3.73755, 42.67841, -1.61870, -0.90699,  0.32161, -3.30276, -3.50346,  0.00000, -2.40138, -1.64949,  4.27380
-2.21863, -3.64856, 44.77734, -1.84352, -0.94327,  0.32161, -2.94571, -3.77296,  0.00000, -2.44669, -1.64949,  4.15881
-2.21863, -3.82654, 41.97876, -1.70863, -0.94327,  0.39728, -3.21350, -3.14413,  0.00000, -2.53731, -1.75946,  4.13965
-1.95239, -3.47058, 44.07770, -1.75359, -1.05211,  0.35944, -3.30276, -3.14413,  0.00000, -2.40138, -1.64949,  4.15881
-2.21863, -3.82654, 43.02823, -1.88848, -0.90699,  0.39728, -3.12424, -3.32380,  0.00000, -2.31076, -1.86943,  4.19714
-2.30737, -3.38159, 44.42752, -1.75359, -0.97955,  0.45403, -2.76718, -3.68312,  0.00000, -2.49200, -1.72281,  4.17798
-2.21863, -3.11462, 43.37805, -1.84352, -0.87071,  0.43511, -3.12424, -3.14413,  0.00000, -2.44669, -1.83277,  4.19714
-2.39612, -4.00452, 44.07770, -1.66366, -0.94327,  0.39728, -3.12424, -3.23396,  0.00000, -2.40138, -1.72281,  4.19714
-2.30737, -3.73755, 44.77734, -1.75359, -0.97955,  0.37836, -3.30276, -3.59329,  0.00000, -2.35607, -1.64949,  4.27380
-2.21863, -3.20361, 44.77734, -1.84352, -0.90699,  0.30269, -2.58865, -3.59329,  0.00000, -2.26545, -1.83277,  4.19714
-2.30737, -3.47058, 44.42752, -1.88848, -1.01583,  0.34052, -3.39203, -3.32380,  0.00000, -2.53731, -1.72281,  4.27380
-2.21863, -3.29260, 44.42752, -1.79855, -0.87071,  0.41620, -2.94571, -3.41363,  0.00000, -2.62793, -1.75946,  4.25464
-2.39612, -3.64856, 43.72787, -1.66366, -0.90699,  0.43511, -2.94571, -3.23396,  0.00000, -2.49200, -1.68615,  4.12048
-2.30737, -3.64856, 44.42752, -1.75359, -1.08839,  0.41620, -3.03497, -3.68312,  0.00000, -2.40138, -1.72281,  4.19714
-2.57361, -3.38159, 42.32858, -1.75359, -1.01583,  0.34052, -3.03497, -3.50346,  0.00000, -2.40138, -1.57618,  4.19714
-2.57361, -3.38159, 43.02823, -1.84352, -0.97955,  0.41620, -3.21350, -3.23396,  0.00000, -2.67323, -1.68615,  4.23547
-2.12988, -3.47058, 42.67841, -1.61870, -1.12467,  0.37836, -3.12424, -3.50346,  0.00000, -2.44669, -1.72281,  4.25464
-2.21863, -3.55957, 42.67841, -1.79855, -1.01583,  0.39728, -2.94571, -3.59329,  0.00000, -2.58262, -1.83277,  4.15881
-2.57361, -3.29260, 42.32858, -1.88848, -0.90699,  0.39728, -2.76718, -3.41363,  0.00000, -2.67323, -1.75946,  4.25464
-2.21863, -3.73755, 44.07770, -1.75359, -0.97955,  0.34052, -2.94571, -3.23396,  0.00000, -2.53731, -1.90608,  4.17798
-2.12988, -3.82654, 43.72787, -1.75359, -1.01583,  0.28377, -3.03497, -3.50346,  0.00000, -2.44669, -1.86943,  4.17798
-2.30737, -3.38159, 44.07770, -1.75359, -1.08839,  0.39728, -3.03497, -3.14413,  0.00000, -2.44669, -1.75946,  4.21631
-2.21863, -3.55957, 43.02823, -1.75359, -1.01583,  0.32161, -3.12424, -3.50346,  0.00000, -2.49200, -1.86943,  4.12048
-2.04114, -3.47058, 43.37805, -1.57373, -0.97955,  0.39728, -3.30276, -3.32380,  0.00000, -2.35607, -1.72281,  4.21631
-2.48486, -3.64856, 44.42752, -1.75359, -0.97955,  0.41620, -3.21350, -3.50346,  0.00000, -2.71854, -1.75946,  4.25464
-2.30737, -3.64856, 43.02823, -1.70863, -0.97955,  0.35944, -3.30276, -3.41363,  0.00000, -2.40138, -1.64949,  4.23547
-2.30737, -3.73755, 44.07770, -1.84352, -0.90699,  0.37836, -3.30276, -3.41363,  0.00000, -2.49200, -1.75946,  4.17798
-2.12988, -3.47058, 43.02823, -1.79855, -1.12467,  0.37836, -2.67792, -3.50346,  0.00000, -2.58262, -1.79612,  4.17798
-2.39612, -3.73755, 43.72787, -1.75359, -1.12467,  0.41620, -3.03497, -3.59329,  0.00000, -2.49200, -1.75946,  4.13965
-2.48486, -3.73755, 43.37805, -1.84352, -0.90699,  0.43511, -3.12424, -3.41363,  0.00000, -2.35607, -1.83277,  4.17798
-2.30737, -4.00452, 44.77734, -1.79855, -0.76187,  0.32161, -2.67792, -3.86279,  0.00000, -2.35607, -1.64949,  4.19714
-2.30737, -3.47058, 43.72787, -1.70863, -0.90699,  0.41620, -3.12424, -3.50346,  0.00000, -2.44669, -1.79612,  4.21631
-2.39612, -3.29260, 43.02823, -1.70863, -0.97955,  0.35944, -3.21350, -3.41363,  0.00000, -2.44669, -1.79612,  4.19714
-2.39612, -3.82654, 43.72787, -1.75359, -1.05211,  0.35944, -3.03497, -3.23396,  0.00000, -2.44669, -1.64949,  4.27380
-2.57361, -3.47058, 42.32858, -1.70863, -0.94327,  0.37836, -3.30276, -3.68312,  0.00000, -2.35607, -1.90608,  4.23547
-1.95239, -3.38159, 43.37805, -1.79855, -0.94327,  0.37836, -3.48129, -3.41363,  0.00000, -2.44669, -1.75946,  4.15881
-2.57361, -3.91553, 44.77734, -1.70863, -0.87071,  0.41620, -3.03497, -3.59329,  0.00000, -2.44669, -1.86943,  4.25464
-2.48486, -3.73755, 44.77734, -1.70863, -0.97955,  0.37836, -3.30276, -3.41363,  0.00000, -2.53731, -1.72281,  4.17798
-2.30737, -3.47058, 43.02823, -1.79855, -0.97955,  0.39728, -2.67792, -3.50346,  0.00000, -2.49200, -1.79612,  4.25464
-2.57361, -3.47058, 43.02823, -1.61870, -1.01583,  0.37836, -3.21350, -3.68312,  0.00000, -2.40138, -1.75946,  4.29297
-2.12988, -3.55957, 44.07770, -1.75359, -0.90699,  0.41620, -3.12424, -3.95262,  0.00000, -2.49200, -1.68615,  4.19714
-2.12988, -4.09351, 43.02823, -2.02337, -0.94327,  0.37836, -3.30276, -3.68312,  0.00000, -2.53731, -1.79612,  4.17798
-2.39612, -3.82654, 45.12717, -1.84352, -1.05211,  0.37836, -3.12424, -3.14413,  0.00000, -2.67323, -1.75946,  4.27380
-2.04114, -3.55957, 43.02823, -1.70863, -1.05211,  0.35944, -2.85645, -3.41363,  0.00000, -2.40138, -1.72281,  4.19714
-2.21863, -3.64856, 43.02823, -1.61870, -0.97955,  0.37836, -2.94571, -3.50346,  0.00000, -2.35607, -1.83277,  4.15881
-2.21863, -3.29260, 43.37805, -1.88848, -1.01583,  0.35944, -3.30276, -2.87463,  0.00000, -2.31076, -1.64949,  4.23547
-2.48486, -3.64856, 43.72787, -1.75359, -0.83443,  0.34052, -3.03497, -3.41363,  0.00000, -2.49200, -1.83277,  4.17798
-2.04114, -3.64856, 41.97876, -1.70863, -0.94327,  0.43511, -3.12424, -3.41363,  0.00000, -2.31076, -1.72281,  4.17798
-2.39612, -3.64856, 44.77734, -1.88848, -0.94327,  0.43511, -2.76718, -3.59329,  0.00000, -2.49200, -1.72281,  4.27380
-2.21863, -3.82654, 42.67841, -1.75359, -0.97955,  0.43511, -3.12424, -3.32380,  0.00000, -2.44669, -1.83277,  4.25464
-2.04114, -3.38159, 41.97876, -1.79855, -0.90699,  0.35944, -2.67792, -3.41363,  0.00000, -2.44669, -1.86943,  4.27380
-2.21863, -3.73755, 43.72787, -1.84352, -0.97955,  0.34052, -3.12424, -3.68312,  0.00000, -2.58262, -1.72281,  4.23547
-2.48486, -3.29260, 43.37805, -1.88848, -0.94327,  0.39728, -3.30276, -3.32380,  0.00000, -2.49200, -1.75946,  4.23547
-2.21863, -3.82654, 43.37805, -1.70863, -0.97955,  0.37836, -3.12424, -3.59329,  0.00000, -2.44669, -1.83277,  4.19714
-2.66235, -3.91553, 43.72787, -1.84352, -1.05211,  0.39728, -3.21350, -3.32380,  0.00000, -2.44669, -1.83277,  4.23547
-2.48486, -3.73755, 43.72787, -1.70863, -0.97955,  0.51079, -3.65982, -3.23396,  0.00000, -2.44669, -1.72281,  4.19714
-2.30737, -3.73755, 43.37805, -1.66366, -0.97955,  0.41620, -2.85645, -3.59329,  0.00000, -2.40138, -1.79612,  4.19714
-1.95239, -3.47058, 42.67841, -1.57373, -0.90699,  0.35944, -3.39203, -3.23396,  0.00000, -2.35607, -1.72281,  4.33130
-2.57361, -3.73755, 43.02823, -1.75359, -0.97955,  0.37836, -3.21350, -3.14413,  0.00000, -2.40138, -1.79612,  4.17798
-1.95239, -3.64856, 43.37805, -1.84352, -1.08839,  0.37836, -3.12424, -3.86279,  0.00000, -2.58262, -1.83277,  4.15881
-2.12988, -3.73755, 43.72787, -1.75359, -0.94327,  0.39728, -3.21350, -3.50346,  0.00000, -2.26545, -1.75946,  4.19714
-2.39612, -3.64856, 43.37805, -1.84352, -1.01583,  0.32161, -3.30276, -3.86279,  0.00000, -2.40138, -1.75946,  4.25464
-2.21863, -3.55957, 43.72787, -1.75359, -0.94327,  0.35944, -3.03497, -3.14413,  0.00000, -2.26545, -1.97939,  4.17798
-2.04114, -3.82654, 41.27911, -1.79855, -0.79815,  0.41620, -3.12424, -3.41363,  0.00000, -2.44669, -1.79612,  4.15881
-1.86365, -3.38159, 42.67841, -1.79855, -0.87071,  0.39728, -2.85645, -3.41363,  0.00000, -2.58262, -1.68615,  4.21631
-2.39612, -3.55957, 43.37805, -1.70863, -1.12467,  0.32161, -2.67792, -3.68312,  0.00000, -2.40138, -1.72281,  4.29297
-2.92859, -3.64856, 44.42752, -1.70863, -0.90699,  0.39728, -2.94571, -3.50346,  0.00000, -2.35607, -1.79612,  4.19714
-2.30737, -3.38159, 44.07770, -1.70863, -1.01583,  0.34052, -3.39203, -3.41363,  0.00000, -2.44669, -1.68615,  4.23547
-2.12988, -3.64856, 44.42752, -1.75359, -1.08839,  0.37836, -3.03497, -3.59329,  0.00000, -2.53731, -1.68615,  4.19714
-2.04114, -3.82654, 43.37805, -1.70863, -1.05211,  0.39728, -3.57056, -3.50346,  0.00000, -2.49200, -1.64949,  4.12048
-2.30737, -3.55957, 42.32858, -1.79855, -0.90699,  0.35944, -3.03497, -3.68312,  0.00000, -2.49200, -1.75946,  4.17798
-2.04114, -3.29260, 43.37805, -1.88848, -0.83443,  0.37836, -3.39203, -3.32380,  0.00000, -2.26545, -1.64949,  4.13965
-2.48486, -3.73755, 44.42752, -1.79855, -0.94327,  0.35944, -3.74908, -3.41363,  0.00000, -2.53731, -1.90608,  4.12048
-2.57361, -3.73755, 43.72787, -1.75359, -0.94327,  0.35944, -3.03497, -3.59329,  0.00000, -2.40138, -1.75946,  4.23547
-2.21863, -3.82654, 44.07770, -1.79855, -0.90699,  0.35944, -3.12424, -3.77296,  0.00000, -2.49200, -1.64949,  4.15881
-2.39612, -3.73755, 43.37805, -1.70863, -1.01583,  0.37836, -2.94571, -3.50346,  0.00000, -2.44669, -1.72281,  4.21631
-2.04114, -3.55957, 43.02823, -1.66366, -0.97955,  0.41620, -3.30276, -3.32380,  0.00000, -2.44669, -1.75946,  4.23547
-2.30737, -3.38159, 43.37805, -1.66366, -0.90699,  0.34052, -3.21350, -3.41363,  0.00000, -2.62793, -1.72281,  4.15881
-2.21863, -3.38159, 43.37805, -1.79855, -0.87071,  0.37836, -3.03497, -3.23396,  0.00000, -2.31076, -1.79612,  4.15881
-2.30737, -3.47058, 43.02823, -1.84352, -0.97955,  0.39728, -3.30276, -3.14413,  0.00000, -2.40138, -1.86943,  4.21631
-2.30737, -3.55957, 43.37805, -1.88848, -1.08839,  0.37836, -3.21350, -3.50346,  0.00000, -2.53731, -1.79612,  4.17798
-2.39612, -3.64856, 43.02823, -1.88848, -1.05211,  0.41620, -3.39203, -3.32380,  0.00000, -2.49200, -1.72281,  4.19714
-2.04114, -3.55957, 43.02823, -1.79855, -1.01583,  0.37836, -3.39203, -3.32380,  0.00000, -2.35607, -1.83277,  4.17798
-2.21863, -3.82654, 45.82681, -1.75359, -1.05211,  0.32161, -3.30276, -3.68312,  0.00000, -2.26545, -1.79612,  4.25464
-2.21863, -3.82654, 42.67841, -1.79855, -0.94327,  0.32161, -3.03497, -3.14413,  0.00000, -2.53731, -1.72281,  4.25464
-2.30737, -3.38159, 43.37805, -1.57373, -0.94327,  0.43511, -3.03497, -3.68312,  0.00000, -2.31076, -1.97939,  4.23547
-2.21863, -3.73755, 44.77734, -1.66366, -0.94327,  0.34052, -3.21350, -3.86279,  0.00000, -2.49200, -1.86943,  4.19714
-2.12988, -3.73755, 43.37805, -1.66366, -1.01583,  0.30269, -2.85645, -3.68312,  0.00000, -2.35607, -1.68615,  4.15881
-2.21863, -3.47058, 45.12717, -1.66366, -1.01583,  0.37836, -3.30276, -3.14413,  0.00000, -2.62793, -1.86943,  4.17798
-2.57361, -3.38159, 43.72787, -1.66366, -0.97955,  0.34052, -3.21350, -3.23396,  0.00000, -2.44669, -1.79612,  4.27380
-2.75110, -2.49170, 47.57593, -1.70863, -0.90699,  0.43511, -3.21350, -3.50346,  0.00000, -2.49200, -1.75946,  4.21631
-3.28357, -2.75867, 51.42398, -1.39388, -0.72559,  0.71889, -3.39203, -3.41363,  0.00000, -2.49200, -1.83277,  4.21631
-3.28357, -1.42383, 45.12717, -1.57373, -0.76187,  0.52971, -3.39203, -3.23396,  0.00000, -2.58262, -1.79612,  4.17798
-2.48486, -1.33484, 45.82681, -1.66366, -0.79815,  0.49187, -2.94571, -3.41363,  0.00000, -2.40138, -1.75946,  4.27380
-2.83984, -3.29260, 43.37805, -1.61870, -0.90699,  0.41620, -2.94571, -3.41363,  0.00000, -2.35607, -1.68615,  4.19714
-2.48486, -2.93665, 43.72787, -1.70863, -0.97955,  0.47295, -3.21350, -3.50346,  0.00000, -2.58262, -1.75946,  4.23547
-1.77490, -3.38159, 44.77734, -1.66366, -0.87071,  0.37836, -2.85645, -3.32380,  0.00000, -2.53731, -1.61284,  4.25464
-2.75110, -2.84766, 46.87628, -1.66366, -0.83443,  0.43511, -2.94571, -3.05430,  0.00000, -2.49200, -1.68615,  4.23547
-2.57361, -1.95776, 49.32504, -1.48381, -0.79815,  0.45403, -3.39203, -3.23396,  0.00000, -2.44669, -1.72281,  4.23547
-2.75110, -1.06787, 50.72433, -1.70863, -0.76187,  0.58646, -3.30276, -3.23396,  0.00000, -2.71854, -1.75946,  4.23547
-3.46106, -0.53394, 50.37451, -1.16906, -0.50792,  0.58646, -3.03497, -3.41363,  0.00000, -2.31076, -1.61284,  4.23547
-3.28357,  0.62292, 53.52292, -2.06834, -0.61675,  0.73780, -2.76718, -3.95262,  0.00000, -2.53731, -1.79612,  4.19714
-1.15369, -0.17798, 57.72079, -1.61870, -1.08839,  0.81348, -3.03497, -3.59329,  0.00000, -2.44669, -1.61284,  4.23547
-2.57361, -0.71191, 52.12363, -1.57373, -0.97955,  0.56754, -2.94571, -3.32380,  0.00000, -2.44669, -1.72281,  4.21631
-2.83984, -1.69080, 55.62186, -1.48381, -1.05211,  0.79456, -2.76718, -3.32380,  0.00000, -2.44669, -1.61284,  4.29297
-2.66235, -2.04675, 50.72433, -1.61870, -0.79815,  0.66213, -2.94571, -3.32380,  0.00000, -2.35607, -1.83277,  4.17798
-0.88745, -0.97888, 89.55469, -2.33812, -2.90237,  3.31066, -3.39203, -3.32380,  0.00000, -2.49200, -1.68615,  4.15881
-6.83337, -2.49170, 108.79495, -1.34892,  1.63259,  5.86459, -3.92761, -2.51530,  0.00000, -2.85447, -1.64949,  4.48462
-7.54333,  4.98340, 86.75610, -1.12410, -3.70053,  1.94856, -3.92761, -3.50346,  0.00000, -2.67323, -1.68615,  4.12048
-3.81604,  2.40271, 47.92575, -2.29316, -0.32652,  1.17292, -3.83835, -3.05430,  0.00000, -1.99360, -1.75946,  4.25464
-2.75110,  1.95776, 71.71371, -1.07913, -1.30607,  0.88915, -2.85645, -3.41363,  0.00000, -2.40138, -1.72281,  4.25464
-2.66235, -1.60181, 83.95752, -1.39388, -0.54420,  1.83505, -3.21350, -3.41363,  0.00000, -2.53731, -1.90608,  4.17798
-3.10608, -0.97888, 77.66071, -1.30395, -0.65303,  1.38102, -2.85645, -3.05430,  0.00000, -2.40138, -1.75946,  4.15881
-3.46106, -0.80090, 75.91159, -1.39388, -0.36280,  1.22967, -3.12424, -3.32380,  0.00000, -2.40138, -1.72281,  4.21631
-3.28357,  3.11462, 79.06000, -1.70863, -0.61675,  1.24859, -3.03497, -3.41363,  0.00000, -2.62793, -1.68615,  4.19714
-3.72729, -4.62744, 82.55823, -1.30395, -0.47164,  1.49452, -3.21350, -3.41363,  0.00000, -2.31076, -1.72281,  4.15881
-3.81604, -1.77979, 79.06000, -1.52877, -0.21768,  1.26751, -3.12424, -3.41363,  0.00000, -2.49200, -1.83277,  4.23547
-3.10608, -1.77979, 83.95752, -1.52877, -0.50792,  1.41885, -3.12424, -3.77296,  0.00000, -2.44669, -1.72281,  4.23547
-2.12988, -0.62292, 84.65717, -1.34892, -0.61675,  1.60803, -3.12424, -3.50346,  0.00000, -2.49200, -1.72281,  4.17798
-2.39612, -0.88989, 83.25787, -1.79855, -0.50792,  1.45669, -3.12424, -3.50346,  0.00000, -2.35607, -1.75946,  4.21631
-3.01733, -1.86877, 81.85858, -1.48381, -0.50792,  1.32426, -3.39203, -3.50346,  0.00000, -2.44669, -1.64949,  4.25464
-3.63855, -2.22473, 83.95752, -1.30395, -0.50792,  1.38102, -3.21350, -3.50346,  0.00000, -2.62793, -1.83277,  4.21631
-3.10608, -2.31372, 83.95752, -1.66366, -0.50792,  1.34318, -2.85645, -3.23396,  0.00000, -2.40138, -1.79612,  4.17798
-3.01733, -2.75867, 84.30734, -1.70863, -0.61675,  1.36210, -3.12424, -3.68312,  0.00000, -2.49200, -1.75946,  4.19714
-2.75110, -2.84766, 85.00699, -1.75359, -0.76187,  1.34318, -3.30276, -3.50346,  0.00000, -2.53731, -1.79612,  4.23547
-2.75110, -3.29260, 86.75610, -2.06834, -0.50792,  1.39993, -3.03497, -3.41363,  0.00000, -2.40138, -1.57618,  4.19714
-2.04114, -3.55957, 87.45575, -2.02337, -0.50792,  1.38102, -3.12424, -3.32380,  0.00000, -2.35607, -1.90608,  4.19714
-2.21863, -3.02563, 86.75610, -2.29316, -0.76187,  1.39993, -3.12424, -3.68312,  0.00000, -2.53731, -1.75946,  4.19714
-2.21863, -3.73755, 87.80557, -2.02337, -0.65303,  1.49452, -3.83835, -3.77296,  0.00000, -2.53731, -1.72281,  4.15881
-1.95239, -3.55957, 88.50522, -2.20323, -1.01583,  1.45669, -2.94571, -3.86279,  0.00000, -2.49200, -1.68615,  4.23547
-1.95239, -3.29260, 87.10593, -2.15826, -0.72559,  1.47561, -2.94571, -3.41363,  0.00000, -2.49200, -1.72281,  4.13965
-1.77490, -3.11462, 85.70663, -2.06834, -0.76187,  1.43777, -3.21350, -3.77296,  0.00000, -2.49200, -1.57618,  4.21631
-1.86365, -4.00452, 87.80557, -1.97841, -0.76187,  1.43777, -3.30276, -3.14413,  0.00000, -2.44669, -1.79612,  4.19714
-1.95239, -3.47058, 86.75610, -2.15826, -0.68931,  1.45669, -2.94571, -3.59329,  0.00000, -2.35607, -1.79612,  4.19714
-1.59741, -3.47058, 88.15540, -2.06834, -0.68931,  1.51344, -3.12424, -3.50346,  0.00000, -2.31076, -1.75946,  4.21631
-1.95239, -3.38159, 87.80557, -2.15826, -0.79815,  1.41885, -3.21350, -3.41363,  0.00000, -2.40138, -1.72281,  4.21631
-1.95239, -3.47058, 87.10593, -2.29316, -0.79815,  1.43777, -2.76718, -3.23396,  0.00000, -2.40138, -1.79612,  4.15881
-1.86365, -3.82654, 87.45575, -2.02337, -0.79815,  1.45669, -3.21350, -3.05430,  0.00000, -2.49200, -1.68615,  4.29297
-2.12988, -3.82654, 87.45575, -2.11330, -0.87071,  1.43777, -3.48129, -3.41363,  0.00000, -2.22014, -1.75946,  4.17798
-2.04114, -4.09351, 86.40628, -2.15826, -0.65303,  1.45669, -3.12424, -3.50346,  0.00000, -2.35607, -1.83277,  4.23547
-1.77490, -3.47058, 87.45575, -2.06834, -0.87071,  1.41885, -2.85645, -3.41363,  0.00000, -2.40138, -1.72281,  4.21631
-2.21863, -3.38159, 87.45575, -2.06834, -0.79815,  1.39993, -2.76718, -3.50346,  0.00000, -2.35607, -1.64949,  4.21631
-1.86365, -4.00452, 87.80557, -1.97841, -0.79815,  1.45669, -2.94571, -3.23396,  0.00000, -2.49200, -1.79612,  4.19714
-1.86365, -3.20361, 88.15540, -2.11330, -0.76187,  1.47561, -3.30276, -3.59329,  0.00000, -2.44669, -1.57618,  4.19714
-2.04114, -3.38159, 86.75610, -2.06834, -0.97955,  1.43777, -3.12424, -3.41363,  0.00000, -2.26545, -1.72281,  4.17798
-1.95239, -3.47058, 88.85504, -1.97841, -0.68931,  1.43777, -2.94571, -3.50346,  0.00000, -2.53731, -1.86943,  4.17798
-2.04114, -3.64856, 86.40628, -2.06834, -0.72559,  1.36210, -3.12424, -3.68312,  0.00000, -2.53731, -1.61284,  4.15881
-1.68616, -3.82654, 88.50522, -2.11330, -0.65303,  1.41885, -3.39203, -3.68312,  0.00000, -2.49200, -1.75946,  4.21631
-2.21863, -3.38159, 87.80557, -2.11330, -0.72559,  1.34318, -2.94571, -3.50346,  0.00000, -2.40138, -1.75946,  4.27380
-1.77490, -3.55957, 87.80557, -2.06834, -0.61675,  1.47561, -2.94571, -3.32380,  0.00000, -2.26545, -1.75946,  4.25464
-1.77490, -3.64856, 87.45575, -2.11330, -0.72559,  1.39993, -3.12424, -3.50346,  0.00000, -2.44669, -1.61284,  4.23547
-2.04114, -3.73755, 87.80557, -2.02337, -0.72559,  1.49452, -3.21350, -3.32380,  0.00000, -2.53731, -1.79612,  4.19714
-2.30737, -3.64856, 88.15540, -2.24819, -0.79815,  1.38102, -3.30276, -3.41363,  0.00000, -2.44669, -1.68615,  4.17798
-2.21863, -3.64856, 87.10593, -2.20323, -0.79815,  1.39993, -3.21350, -3.32380,  0.00000, -2.49200, -1.64949,  4.25464
-1.68616, -3.73755, 85.70663, -2.06834, -0.68931,  1.41885, -3.39203, -3.32380,  0.00000, -2.35607, -1.75946,  4.21631
-2.12988, -3.64856, 87.45575, -2.11330, -0.68931,  1.49452, -3.39203, -3.50346,  0.00000, -2.40138, -1.61284,  4.12048
-2.04114, -3.64856, 86.75610, -2.38308, -0.76187,  1.41885, -3.57056, -3.14413,  0.00000, -2.26545, -1.97939,  4.21631
-2.04114, -3.29260, 88.85504, -2.02337, -0.76187,  1.45669, -2.67792, -3.23396,  0.00000, -2.49200, -1.64949,  4.23547
-1.86365, -3.64856, 86.75610, -2.06834, -0.87071,  1.47561, -3.03497, -3.50346,  0.00000, -2.58262, -1.57618,  4.23547
-2.12988, -3.64856, 87.10593, -2.11330, -0.79815,  1.45669, -3.48129, -3.86279,  0.00000, -2.44669, -1.86943,  4.23547
-2.04114, -3.82654, 89.55469, -2.15826, -0.90699,  1.43777, -3.21350, -3.77296,  0.00000, -2.67323, -1.61284,  4.13965
-2.04114, -3.47058, 87.45575, -2.20323, -0.87071,  1.34318, -3.12424, -3.68312,  0.00000, -2.26545, -1.68615,  4.12048
-2.12988, -3.91553, 87.80557, -2.11330, -0.87071,  1.41885, -3.30276, -3.59329,  0.00000, -2.35607, -1.75946,  4.29297
-1.77490, -3.82654, 86.75610, -2.33812, -0.83443,  1.41885, -3.21350, -3.23396,  0.00000, -2.44669, -1.64949,  4.19714
-2.21863, -3.11462, 87.45575, -2.15826, -0.76187,  1.39993, -3.30276, -3.77296,  0.00000, -2.49200, -1.83277,  4.23547
-2.30737, -3.29260, 88.15540, -2.02337, -0.76187,  1.36210, -3.12424, -3.50346,  0.00000, -2.53731, -1.68615,  4.17798
-1.95239, -3.64856, 86.40628, -1.93344, -0.90699,  1.49452, -3.30276, -3.59329,  0.00000, -2.53731, -1.64949,  4.21631
-2.12988, -3.64856, 88.50522, -2.38308, -0.83443,  1.45669, -3.12424, -3.32380,  0.00000, -2.49200, -1.75946,  4.19714
-1.77490, -3.47058, 88.50522, -2.20323, -0.79815,  1.43777, -3.03497, -3.41363,  0.00000, -2.53731, -1.61284,  4.17798
-2.21863, -3.64856, 88.15540, -2.20323, -0.76187,  1.45669, -3.21350, -3.41363,  0.00000, -2.44669, -1.64949,  4.23547
-2.12988, -3.73755, 88.50522, -2.06834, -0.87071,  1.39993, -2.58865, -3.50346,  0.00000, -2.49200, -1.75946,  4.17798
-1.59741, -3.55957, 87.80557, -2.06834, -0.79815,  1.41885, -3.21350, -3.50346,  0.00000, -2.44669, -1.79612,  4.25464
-1.95239, -3.11462, 86.40628, -2.02337, -0.83443,  1.41885, -3.57056, -3.68312,  0.00000, -2.31076, -1.86943,  4.23547
-1.95239, -3.38159, 87.45575, -2.15826, -0.65303,  1.47561, -3.21350, -3.32380,  0.00000, -2.40138, -1.79612,  4.19714
-2.12988, -3.38159, 87.45575, -1.97841, -0.83443,  1.41885, -3.12424, -3.59329,  0.00000, -2.26545, -1.64949,  4.23547
-1.68616, -3.55957, 88.85504, -1.88848, -0.72559,  1.49452, -2.76718, -3.32380,  0.00000, -2.49200, -1.83277,  4.23547
-1.95239, -3.64856, 86.75610, -2.02337, -0.54420,  1.43777, -3.57056, -3.68312,  0.00000, -2.49200, -1.79612,  4.08215
-2.21863, -3.47058, 88.15540, -1.97841, -0.61675,  1.43777, -3.03497, -3.59329,  0.00000, -2.53731, -1.75946,  4.25464
-1.95239, -2.93665, 88.15540, -2.06834, -0.94327,  1.45669, -3.30276, -3.23396,  0.00000, -2.49200, -1.79612,  4.19714
-1.77490, -3.55957, 88.15540, -2.15826, -0.76187,  1.43777, -3.30276, -3.59329,  0.00000, -2.49200, -1.79612,  4.13965
-2.04114, -3.64856, 87.45575, -2.02337, -0.76187,  1.47561, -3.21350, -3.68312,  0.00000, -2.53731, -1.72281,  4.23547
-1.86365, -3.64856, 89.55469, -2.15826, -0.76187,  1.41885, -2.85645, -3.68312,  0.00000, -2.53731, -1.68615,  4.13965
-1.77490, -3.02563, 86.40628, -2.11330, -0.68931,  1.43777, -2.85645, -3.50346,  0.00000, -2.26545, -1.83277,  4.13965
-2.04114, -3.20361, 85.70663, -1.97841, -0.79815,  1.38102, -3.03497, -3.59329,  0.00000, -2.44669, -1.90608,  4.23547
-1.86365, -3.64856, 88.50522, -1.97841, -0.72559,  1.39993, -2.85645, -3.23396,  0.00000, -2.44669, -1.72281,  4.29297
-2.04114, -3.73755, 87.10593, -2.11330, -0.76187,  1.43777, -2.94571, -3.68312,  0.00000, -2.35607, -1.75946,  4.25464
-2.21863, -3.38159, 87.45575, -2.15826, -0.65303,  1.47561, -3.12424, -3.14413,  0.00000, -2.44669, -1.68615,  4.23547
-1.95239, -3.64856, 87.45575, -2.02337, -0.79815,  1.39993, -3.57056, -3.68312,  0.00000, -2.44669, -1.72281,  4.21631
-2.12988, -3.64856, 88.50522, -2.11330, -0.76187,  1.41885, -2.85645, -3.59329,  0.00000, -2.49200, -1.83277,  4.23547
-1.86365, -3.47058, 87.45575, -2.20323, -0.76187,  1.49452, -3.30276, -3.41363,  0.00000, -2.44669, -1.57618,  4.23547
-1.86365, -3.47058, 86.40628, -2.20323, -0.72559,  1.36210, -2.85645, -3.32380,  0.00000, -2.49200, -1.61284,  4.17798
-1.95239, -3.47058, 87.80557, -2.29316, -0.87071,  1.49452, -3.39203, -3.23396,  0.00000, -2.53731, -1.75946,  4.21631
-2.04114, -3.73755, 88.15540, -2.29316, -0.61675,  1.49452, -3.12424, -3.14413,  0.00000, -2.49200, -1.75946,  4.23547
-2.04114, -3.82654, 88.50522, -2.20323, -0.76187,  1.45669, -3.30276, -3.41363,  0.00000, -2.31076, -1.86943,  4.25464
-2.21863, -3.55957, 88.50522, -1.93344, -0.76187,  1.38102, -3.39203, -3.41363,  0.00000, -2.31076, -1.75946,  4.23547
-1.95239, -3.64856, 87.80557, -2.06834, -0.76187,  1.39993, -3.21350, -3.68312,  0.00000, -2.71854, -1.79612,  4.27380
-2.04114, -3.64856, 88.15540, -2.02337, -0.72559,  1.47561, -3.30276, -3.59329,  0.00000, -2.40138, -1.79612,  4.19714
-2.04114, -3.55957, 86.05646, -2.02337, -0.76187,  1.43777, -2.85645, -3.14413,  0.00000, -2.35607, -1.68615,  4.17798
-2.21863, -3.64856, 87.45575, -1.93344, -0.83443,  1.41885, -3.39203, -3.32380,  0.00000, -2.35607, -1.79612,  4.25464
-1.68616, -3.38159, 89.20486, -1.88848, -0.68931,  1.43777, -2.76718, -3.32380,  0.00000, -2.58262, -1.72281,  4.12048
-1.77490, -3.47058, 87.45575, -2.11330, -0.72559,  1.47561, -3.21350, -3.50346,  0.00000, -2.44669, -1.72281,  4.23547
-1.77490, -3.38159, 86.75610, -2.33812, -0.90699,  1.47561, -3.30276, -3.68312,  0.00000, -2.44669, -1.61284,  4.17798
-1.59741, -3.55957, 87.80557, -2.15826, -0.87071,  1.34318, -3.12424, -3.23396,  0.00000, -2.40138, -1.75946,  4.25464
-1.95239, -3.29260, 88.85504, -2.02337, -0.76187,  1.43777, -2.85645, -3.23396,  0.00000, -2.35607, -1.75946,  4.29297
-2.30737, -3.38159, 88.15540, -2.15826, -0.76187,  1.38102, -3.12424, -3.41363,  0.00000, -2.35607, -1.83277,  4.17798
-1.95239, -3.38159, 87.80557, -2.20323, -0.68931,  1.41885, -2.94571, -3.32380,  0.00000, -2.53731, -1.68615,  4.29297
-2.30737, -3.38159, 87.10593, -1.97841, -0.87071,  1.41885, -3.48129, -3.68312,  0.00000, -2.53731, -1.75946,  4.13965
-2.21863, -3.20361, 87.80557, -2.20323, -0.83443,  1.43777, -2.85645, -3.05430,  0.00000, -2.49200, -1.79612,  4.27380
-2.30737, -3.64856, 86.75610, -2.15826, -0.79815,  1.41885, -2.94571, -3.32380,  0.00000, -2.49200, -1.64949,  4.21631
-1.77490, -3.64856, 87.10593, -1.97841, -0.87071,  1.49452, -3.03497, -3.32380,  0.00000, -2.49200, -1.75946,  4.13965
-2.04114, -3.64856, 87.80557, -2.11330, -0.94327,  1.39993, -3.30276, -3.50346,  0.00000, -2.40138, -1.72281,  4.25464
-2.04114, -3.55957, 87.45575, -2.11330, -0.68931,  1.47561, -3.21350, -3.50346,  0.00000, -2.44669, -1.79612,  4.17798
-1.86365, -3.64856, 87.45575, -2.15826, -0.72559,  1.45669, -3.21350, -3.59329,  0.00000, -2.53731, -1.61284,  4.25464
-2.30737, -3.91553, 88.15540, -1.97841, -0.76187,  1.45669, -3.48129, -2.96447,  0.00000, -2.40138, -1.61284,  4.21631
-2.30737, -3.91553, 87.80557, -2.15826, -0.76187,  1.43777, -3.48129, -3.32380,  0.00000, -2.49200, -1.83277,  4.25464
-2.04114, -3.73755, 86.40628, -2.15826, -0.87071,  1.47561, -3.12424, -3.77296,  0.00000, -2.49200, -1.72281,  4.21631
-1.95239, -3.38159, 87.80557, -2.20323, -0.72559,  1.36210, -3.30276, -3.59329,  0.00000, -2.44669, -1.79612,  4.25464
-2.12988, -3.20361, 87.45575, -2.15826, -0.72559,  1.45669, -3.30276, -3.32380,  0.00000, -2.44669, -1.68615,  4.23547
-1.95239, -3.11462, 86.75610, -2.11330, -0.94327,  1.47561, -2.94571, -3.68312,  0.00000, -2.26545, -1.68615,  4.25464
-2.04114, -3.55957, 87.45575, -2.11330, -0.94327,  1.45669, -2.76718, -3.50346,  0.00000, -2.49200, -1.90608,  4.23547
-1.77490, -3.73755, 88.15540, -2.11330, -0.79815,  1.36210, -2.85645, -4.04245,  0.00000, -2.44669, -1.61284,  4.21631
-2.12988, -3.47058, 86.40628, -2.06834, -0.72559,  1.45669, -3.12424, -3.32380,  0.00000, -2.49200, -1.79612,  4.23547
-1.95239, -4.00452, 86.75610, -2.06834, -0.68931,  1.36210, -3.21350, -3.68312,  0.00000, -2.53731, -1.72281,  4.12048
-2.30737, -3.29260, 86.75610, -2.02337, -0.68931,  1.47561, -2.67792, -3.41363,  0.00000, -2.40138, -1.68615,  4.17798
-2.12988, -3.64856, 88.50522, -2.06834, -0.83443,  1.34318, -3.03497, -3.59329,  0.00000, -2.35607, -1.75946,  4.23547
-1.68616, -3.38159, 86.75610, -2.02337, -0.76187,  1.41885, -3.39203, -3.23396,  0.00000, -2.58262, -1.75946,  4.13965
-1.95239, -3.47058, 88.15540, -2.02337, -0.76187,  1.49452, -2.94571, -3.59329,  0.00000, -2.44669, -1.72281,  4.13965
-1.77490, -3.55957, 87.45575, -1.88848, -0.79815,  1.45669, -2.76718, -3.41363,  0.00000, -2.40138, -1.68615,  4.19714
-1.86365, -3.47058, 88.50522, -1.93344, -0.76187,  1.49452, -3.30276, -3.41363,  0.00000, -2.49200, -1.75946,  4.23547
-2.21863, -3.73755, 88.85504, -2.20323, -0.87071,  1.39993, -3.48129, -3.59329,  0.00000, -2.35607, -1.64949,  4.21631
-2.21863, -3.29260, 88.15540, -2.06834, -0.79815,  1.39993, -3.03497, -3.41363,  0.00000, -2.40138, -2.01605,  4.19714
-2.21863, -3.29260, 86.40628, -2.20323, -0.83443,  1.47561, -3.12424, -3.59329,  0.00000, -2.53731, -1.68615,  4.17798
-1.86365, -3.55957, 86.40628, -2.02337, -0.83443,  1.41885, -3.57056, -3.59329,  0.00000, -2.53731, -1.86943,  4.17798
-1.77490, -3.73755, 88.85504, -1.97841, -0.79815,  1.38102, -2.94571, -3.23396,  0.00000, -2.49200, -1.72281,  4.23547
-1.95239, -3.91553, 90.95398, -2.02337, -0.87071,  1.51344, -3.30276, -3.77296,  0.00000, -2.35607, -1.72281,  4.12048
-2.04114, -3.82654, 87.10593, -2.02337, -0.79815,  1.45669, -3.48129, -3.32380,  0.00000, -2.53731, -1.72281,  4.21631
-2.04114, -3.64856, 89.20486, -2.06834, -0.79815,  1.43777, -3.12424, -3.59329,  0.00000, -2.35607, -1.57618,  4.27380
-2.48486, -3.38159, 87.45575, -2.06834, -0.72559,  1.41885, -2.85645, -3.59329,  0.00000, -2.49200, -1.57618,  4.25464
-1.77490, -3.20361, 87.10593, -2.06834, -0.68931,  1.45669, -3.30276, -3.50346,  0.00000, -2.44669, -1.72281,  4.21631
-1.95239, -3.55957, 87.10593, -2.24819, -0.87071,  1.45669, -3.48129, -2.87463,  0.00000, -2.58262, -1.90608,  4.21631
-1.77490, -3.29260, 87.10593, -2.02337, -0.72559,  1.43777, -3.39203, -3.59329,  0.00000, -2.44669, -1.75946,  4.19714
-2.21863, -3.64856, 87.45575, -2.24819, -0.72559,  1.43777, -2.94571, -3.32380,  0.00000, -2.62793, -1.72281,  4.21631
-2.04114, -3.64856, 87.10593, -2.20323, -0.68931,  1.45669, -3.12424, -3.41363,  0.00000, -2.35607, -1.79612,  4.29297
-1.86365, -3.20361, 87.45575, -2.33812, -0.68931,  1.43777, -3.12424, -3.05430,  0.00000, -2.40138, -1.83277,  4.25464
-1.86365, -3.38159, 88.50522, -2.15826, -0.79815,  1.43777, -3.39203, -3.68312,  0.00000, -2.40138, -1.57618,  4.23547
-1.68616, -3.29260, 87.45575, -1.97841, -0.72559,  1.41885, -3.12424, -3.50346,  0.00000, -2.44669, -1.68615,  4.15881
-1.95239, -3.91553, 88.50522, -1.97841, -0.72559,  1.39993, -3.74908, -3.68312,  0.00000, -2.44669, -1.79612,  4.21631
-1.77490, -3.38159, 86.75610, -2.24819, -0.87071,  1.45669, -3.03497, -3.23396,  0.00000, -2.40138, -1.57618,  4.23547
-1.95239, -3.55957, 88.15540, -2.11330, -0.83443,  1.41885, -3.12424, -3.86279,  0.00000, -2.40138, -1.97939,  4.21631
-1.68616, -3.29260, 86.40628, -2.20323, -0.76187,  1.49452, -3.12424, -3.50346,  0.00000, -2.44669, -1.64949,  4.29297
-1.86365, -3.55957, 87.45575, -2.11330, -0.83443,  1.41885, -2.67792, -3.32380,  0.00000, -2.40138, -1.68615,  4.21631
-1.95239, -3.38159, 88.50522, -2.02337, -0.72559,  1.43777, -2.76718, -3.77296,  0.00000, -2.49200, -1.72281,  4.19714
-1.95239, -3.73755, 87.45575, -2.15826, -0.68931,  1.39993, -3.30276, -3.14413,  0.00000, -2.53731, -1.57618,  4.21631
-1.77490, -3.64856, 85.70663, -2.02337, -0.79815,  1.41885, -3.48129, -3.68312,  0.00000, -2.31076, -1.72281,  4.19714
-1.86365, -3.47058, 88.15540, -2.06834, -0.90699,  1.36210, -3.21350, -3.50346,  0.00000, -2.26545, -1.75946,  4.19714
-1.77490, -2.93665, 87.10593, -2.06834, -0.79815,  1.43777, -3.12424, -3.68312,  0.00000, -2.35607, -1.61284,  4.19714
-2.04114, -3.55957, 86.40628, -1.93344, -0.83443,  1.38102, -2.94571, -3.32380,  0.00000, -2.58262, -1.79612,  4.21631
-1.59741, -3.47058, 88.15540, -1.93344, -0.83443,  1.47561, -3.39203, -3.50346,  0.00000, -2.22014, -1.86943,  4.19714
-1.77490, -3.47058, 86.40628, -2.02337, -0.83443,  1.41885, -3.12424, -3.50346,  0.00000, -2.17484, -1.79612,  4.19714
-2.12988, -3.29260, 86.75610, -2.15826, -0.79815,  1.39993, -3.30276, -3.41363,  0.00000, -2.17484, -1.86943,  4.13965
-1.59741, -3.47058, 87.80557, -1.88848, -0.87071,  1.36210, -3.12424, -3.14413,  0.00000, -2.44669, -1.75946,  4.25464
-2.12988, -3.38159, 88.15540, -1.79855, -0.76187,  1.47561, -3.21350, -3.50346,  0.00000, -2.49200, -1.75946,  4.19714
-1.77490, -3.55957, 88.50522, -1.88848, -0.79815,  1.43777, -3.21350, -3.32380,  0.00000, -2.49200, -1.68615,  4.21631
-1.86365, -3.73755, 88.50522, -1.93344, -0.83443,  1.47561, -3.12424, -3.41363,  0.00000, -2.44669, -1.90608,  4.23547
-2.04114, -3.64856, 88.15540, -2.29316, -0.87071,  1.51344, -3.12424, -3.50346,  0.00000, -2.49200, -1.79612,  4.19714
-1.95239, -3.20361, 88.50522, -2.33812, -0.87071,  1.53236, -2.94571, -3.50346,  0.00000, -2.49200, -1.57618,  4.21631
-1.86365, -3.20361, 87.45575, -2.02337, -0.72559,  1.41885, -3.12424, -3.23396,  0.00000, -2.40138, -1.68615,  4.19714
-1.95239, -3.55957, 87.45575, -1.88848, -0.79815,  1.41885, -3.48129, -3.32380,  0.00000, -2.49200, -1.64949,  4.19714
-2.04114, -3.20361, 88.15540, -2.02337, -0.87071,  1.41885, -3.39203, -3.59329,  0.00000, -2.35607, -1.75946,  4.17798
-2.21863, -3.38159, 88.15540, -2.20323, -0.68931,  1.45669, -2.85645, -3.23396,  0.00000, -2.53731, -1.53953,  4.21631
-2.04114, -3.11462, 89.55469, -2.15826, -0.72559,  1.36210, -2.94571, -3.68312,  0.00000, -2.53731, -1.64949,  4.27380
-2.39612, -3.38159, 87.10593, -2.15826, -0.76187,  1.49452, -3.12424, -3.68312,  0.00000, -2.49200, -1.83277,  4.21631
-2.12988, -3.73755, 86.75610, -2.02337, -0.72559,  1.45669, -3.21350, -3.23396,  0.00000, -2.40138, -1.79612,  4.15881
-2.21863, -3.38159, 86.40628, -2.20323, -0.76187,  1.38102, -3.21350, -3.50346,  0.00000, -2.67323, -1.86943,  4.15881
-2.04114, -3.20361, 87.10593, -2.15826, -0.83443,  1.41885, -2.94571, -3.86279,  0.00000, -2.62793, -1.64949,  4.19714
-2.21863, -3.38159, 86.40628, -2.24819, -0.87071,  1.45669, -3.65982, -3.68312,  0.00000, -2.26545, -1.79612,  4.27380
-2.04114, -3.55957, 87.45575, -2.06834, -0.72559,  1.43777, -3.03497, -3.50346,  0.00000, -2.35607, -1.79612,  4.21631
-1.86365, -3.64856, 87.45575, -2.11330, -0.79815,  1.43777, -3.39203, -3.59329,  0.00000, -2.40138, -1.79612,  4.17798
-2.04114, -3.91553, 88.15540, -2.11330, -0.76187,  1.41885, -3.12424, -3.41363,  0.00000, -2.35607, -1.86943,  4.21631
-2.12988, -3.29260, 86.75610, -2.06834, -0.68931,  1.38102, -3.12424, -3.59329,  0.00000, -2.26545, -1.57618,  4.21631
-2.12988, -3.38159, 87.10593, -2.02337, -0.50792,  1.43777, -3.12424, -3.59329,  0.00000, -2.58262, -1.83277,  4.21631
-1.95239, -3.38159, 87.10593, -2.11330, -0.72559,  1.41885, -3.39203, -3.41363,  0.00000, -2.53731, -1.72281,  4.21631
-2.04114, -3.47058, 87.10593, -2.20323, -0.76187,  1.49452, -3.12424, -3.50346,  0.00000, -2.40138, -1.75946,  4.25464
-2.39612, -3.20361, 87.10593, -1.84352, -0.65303,  1.41885, -3.39203, -3.50346,  0.00000, -2.40138, -1.75946,  4.23547
-1.86365, -3.64856, 88.50522, -2.11330, -0.79815,  1.45669, -3.48129, -3.50346,  0.00000, -2.62793, -1.79612,  4.21631
-2.30737, -3.64856, 87.45575, -2.06834, -0.90699,  1.49452, -2.94571, -3.41363,  0.00000, -2.31076, -1.79612,  4.27380
-1.77490, -3.64856, 88.15540, -2.06834, -0.83443,  1.49452, -2.94571, -3.50346,  0.00000, -2.31076, -1.79612,  4.19714
-1.95239, -3.82654, 88.15540, -2.02337, -0.68931,  1.41885, -3.39203, -3.77296,  0.00000, -2.44669, -1.86943,  4.17798
-2.04114, -3.38159, 87.80557, -1.93344, -0.87071,  1.39993, -3.39203, -3.59329,  0.00000, -2.35607, -1.72281,  4.21631
-1.95239, -3.55957, 87.80557, -2.02337, -0.65303,  1.47561, -3.30276, -3.41363,  0.00000, -2.49200, -1.79612,  4.23547
-2.30737, -3.55957, 87.80557, -2.02337, -0.68931,  1.39993, -3.30276, -3.32380,  0.00000, -2.53731, -1.86943,  4.17798
-2.12988, -3.38159, 87.80557, -2.02337, -0.83443,  1.39993, -3.21350, -3.14413,  0.00000, -2.40138, -1.75946,  4.27380
-1.86365, -3.47058, 88.15540, -2.20323, -0.87071,  1.49452, -3.48129, -3.32380,  0.00000, -2.31076, -1.79612,  4.19714
-1.86365, -3.38159, 87.80557, -2.15826, -0.68931,  1.45669, -3.03497, -3.14413,  0.00000, -2.44669, -1.72281,  4.13965
-2.04114, -3.73755, 88.50522, -2.20323, -0.72559,  1.43777, -3.30276, -3.23396,  0.00000, -2.31076, -1.72281,  4.23547
-2.21863, -3.47058, 88.15540, -1.97841, -0.90699,  1.45669, -3.30276, -3.68312,  0.00000, -2.40138, -1.61284,  4.29297
-2.04114, -3.47058, 86.75610, -2.15826, -0.87071,  1.41885, -2.67792, -3.50346,  0.00000, -2.40138, -1.72281,  4.31213
-1.68616, -3.11462, 89.20486, -1.97841, -0.68931,  1.53236, -3.21350, -3.14413,  0.00000, -2.40138, -1.68615,  4.19714
-1.86365, -3.38159, 85.35681, -1.97841, -0.79815,  1.41885, -3.39203, -3.68312,  0.00000, -2.26545, -1.83277,  4.19714
-2.04114, -3.47058, 86.05646, -2.15826, -0.90699,  1.43777, -3.83835, -3.50346,  0.00000, -2.53731, -1.57618,  4.17798
-1.68616, -3.38159, 88.50522, -2.33812, -0.76187,  1.47561, -3.30276, -2.87463,  0.00000, -2.26545, -1.72281,  4.17798
-2.39612, -3.55957, 88.15540, -2.15826, -0.83443,  1.39993, -2.76718, -3.68312,  0.00000, -2.40138, -1.68615,  4.25464
-1.59741, -3.55957, 87.80557, -2.11330, -0.83443,  1.45669, -2.94571, -3.50346,  0.00000, -2.40138, -1.75946,  4.19714
-1.95239, -3.11462, 88.50522, -2.20323, -0.72559,  1.47561, -2.94571, -3.23396,  0.00000, -2.31076, -1.79612,  4.17798
-2.21863, -3.82654, 87.80557, -2.11330, -0.65303,  1.51344, -3.30276, -3.32380,  0.00000, -2.44669, -1.75946,  4.23547
-2.21863, -3.38159, 88.15540, -2.11330, -0.79815,  1.38102, -3.30276, -3.23396,  0.00000, -2.53731, -1.79612,  4.23547
-2.12988, -3.55957, 87.45575, -2.24819, -0.72559,  1.47561, -2.58865, -3.59329,  0.00000, -2.67323, -1.72281,  4.17798
-1.68616, -3.20361, 85.70663, -2.15826, -0.79815,  1.43777, -3.39203, -3.41363,  0.00000, -2.44669, -1.68615,  4.29297
-2.21863, -3.38159, 87.80557, -2.15826, -0.72559,  1.41885, -3.30276, -3.14413,  0.00000, -2.44669, -1.68615,  4.25464
-2.39612, -3.11462, 88.85504, -2.15826, -0.83443,  1.36210, -3.30276, -3.59329,  0.00000, -2.49200, -1.68615,  4.27380
-2.04114, -3.02563, 89.20486, -2.06834, -0.79815,  1.49452, -2.94571, -3.41363,  0.00000, -2.31076, -1.75946,  4.15881
-1.77490, -3.55957, 88.50522, -1.88848, -0.90699,  1.45669, -3.21350, -3.41363,  0.00000, -2.26545, -1.94274,  4.25464
-2.04114, -3.82654, 88.15540, -2.11330, -0.87071,  1.43777, -3.39203, -3.50346,  0.00000, -2.49200, -1.83277,  4.19714
-2.12988, -3.11462, 87.10593, -2.11330, -0.90699,  1.39993, -3.30276, -3.23396,  0.00000, -2.40138, -1.90608,  4.15881
-1.86365, -3.47058, 87.45575, -2.24819, -0.79815,  1.41885, -3.21350, -3.50346,  0.00000, -2.44669, -1.86943,  4.31213
-1.95239, -3.38159, 87.80557, -2.15826, -0.83443,  1.45669, -3.03497, -3.59329,  0.00000, -2.35607, -1.75946,  4.19714
-2.04114, -3.64856, 87.10593, -2.02337, -0.94327,  1.47561, -2.85645, -3.50346,  0.00000, -2.53731, -1.72281,  4.23547
-1.86365, -3.38159, 87.45575, -2.06834, -0.76187,  1.45669, -3.03497, -3.23396,  0.00000, -2.35607, -1.72281,  4.21631
-1.95239, -3.55957, 87.45575, -2.11330, -0.90699,  1.39993, -3.21350, -3.95262,  0.00000, -2.35607, -1.61284,  4.19714
-2.04114, -3.64856, 87.10593, -2.38308, -0.83443,  1.45669, -3.30276, -3.68312,  0.00000, -2.12953, -1.83277,  4.21631
-2.04114, -3.38159, 90.25433, -2.29316, -0.68931,  1.43777, -2.85645, -3.59329,  0.00000, -2.44669, -1.79612,  4.19714
-1.86365, -3.82654, 86.40628, -2.15826, -0.76187,  1.39993, -3.39203, -3.32380,  0.00000, -2.31076, -1.61284,  4.23547
-1.86365, -2.93665, 88.50522, -2.15826, -0.87071,  1.53236, -2.76718, -3.32380,  0.00000, -2.62793, -1.75946,  4.23547
-2.04114, -3.47058, 88.15540, -2.02337, -0.90699,  1.45669, -3.21350, -3.50346,  0.00000, -2.58262, -1.64949,  4.21631
-1.95239, -3.20361, 88.85504, -2.06834, -0.83443,  1.45669, -2.85645, -3.68312,  0.00000, -2.58262, -1.64949,  4.19714
-1.86365, -3.20361, 87.45575, -2.15826, -0.79815,  1.49452, -2.94571, -3.68312,  0.00000, -2.35607, -1.79612,  4.25464
-1.41992, -3.29260, 88.15540, -2.11330, -0.68931,  1.36210, -2.94571, -3.23396,  0.00000, -2.26545, -1.61284,  4.29297
-1.86365, -3.47058, 87.80557, -2.06834, -0.79815,  1.43777, -3.12424, -3.50346,  0.00000, -2.26545, -1.72281,  4.15881
-2.04114, -3.73755, 89.20486, -2.20323, -1.01583,  1.45669, -3.03497, -3.41363,  0.00000, -2.49200, -1.79612,  4.13965
-1.95239, -3.38159, 86.75610, -1.97841, -0.83443,  1.36210, -3.12424, -3.50346,  0.00000, -2.49200, -1.90608,  4.25464
-2.12988, -3.47058, 87.45575, -2.11330, -0.76187,  1.45669, -2.85645, -3.50346,  0.00000, -2.49200, -1.61284,  4.12048
-8.16455, -15.84009, 133.98221,  3.91185, -3.30145,  1.64587, -2.94571, -3.41363,  0.00000, -2.44669, -1.68615,  4.12048
-0.17749, -5.33936, 83.95752, -2.47301, -1.26979,  1.30534, -3.39203, -3.59329,  0.00000, -2.40138, -1.86943,  4.25464
 0.17749, -6.14026, 89.55469, -2.47301, -1.05211,  1.17292, -3.30276, -3.05430,  0.00000, -2.22014, -1.83277,  4.27380
 0.35498, -6.85217, 98.65009, -2.33812, -0.90699,  1.22967, -3.30276, -3.50346,  0.00000, -2.26545, -1.72281,  4.21631
 3.99353, -5.25037, 95.85150, -2.56294, -1.05211,  1.36210, -2.94571, -3.95262,  0.00000, -2.40138, -1.68615,  4.13965
 0.97620, -7.20813, 94.45221, -2.42805, -0.79815,  1.43777, -2.94571, -3.59329,  0.00000, -2.31076, -1.72281,  4.21631
 1.86365, -5.69531, 96.55115, -2.02337, -1.12467,  1.45669, -3.21350, -3.50346,  0.00000, -2.44669, -1.79612,  4.25464
 0.35498, -5.25037, 99.34973, -2.11330, -1.19723,  1.47561, -3.03497, -3.41363,  0.00000, -2.44669, -1.72281,  4.25464
-6.56714, 12.28052, 106.69601, -4.09171,  1.41491,  1.81613, -3.12424, -3.14413,  0.00000, -2.49200, -1.83277,  4.17798
 2.92859,  0.80090, 102.84796, -0.71942, -2.06794,  1.21075, -3.39203, -3.50346,  0.00000, -2.35607, -1.72281,  4.27380
-0.70996, -2.93665, 110.19424, -2.24819, -1.05211,  2.25125, -3.39203, -3.23396,  0.00000, -2.58262, -1.53953,  4.15881
 2.92859, -6.67419, 113.34265, -2.20323, -0.76187,  1.91072, -3.48129, -3.50346,  0.00000, -2.49200, -1.79612,  4.10132
 1.24243, -7.03015, 115.79141, -2.11330, -0.76187,  2.17557, -3.30276, -3.50346,  0.00000, -2.58262, -1.72281,  4.21631
-7.63208, -18.59875, 160.56876, -3.46222,  0.50792,  2.66744, -3.30276, -3.50346,  0.00000, -2.62793, -1.75946,  4.17798
 0.35498, -9.16589, 120.68893, -2.65287, -0.47164,  2.11882, -3.57056, -3.14413,  0.00000, -2.53731, -1.72281,  4.23547
-1.06494, -6.05127, 120.33911, -2.02337, -1.05211,  2.47826, -2.85645, -3.23396,  0.00000, -2.31076, -1.72281,  4.21631
-0.62122, -7.47510, 125.93628, -2.74279, -0.54420,  2.44043, -3.30276, -3.77296,  0.00000, -2.53731, -1.79612,  4.23547
-1.06494, -6.94116, 130.83380, -2.69783, -0.39908,  2.51610, -3.12424, -3.50346,  0.00000, -2.35607, -1.64949,  4.15881
-1.77490, -6.76318, 129.78433, -2.56294, -0.47164,  2.45934, -3.03497, -3.59329,  0.00000, -2.53731, -1.75946,  4.19714
-1.95239, -5.33936, 130.13416, -2.56294, -0.39908,  2.49718, -3.12424, -3.59329,  0.00000, -2.49200, -1.83277,  4.17798
-1.77490, -3.73755, 130.83380, -2.33812, -0.54420,  2.49718, -3.21350, -3.50346,  0.00000, -2.40138, -1.86943,  4.29297
-1.86365, -3.38159, 131.88327, -2.15826, -0.54420,  2.47826, -3.12424, -3.50346,  0.00000, -2.53731, -1.79612,  4.15881
-1.50867, -3.55957, 131.18362, -2.06834, -0.47164,  2.51610, -3.48129, -3.59329,  0.00000, -2.58262, -1.86943,  4.29297
-1.95239, -3.47058, 130.48398, -2.33812, -0.39908,  2.55394, -3.30276, -3.68312,  0.00000, -2.40138, -1.79612,  4.21631
-1.50867, -3.11462, 132.23309, -2.38308, -0.21768,  2.44043, -3.21350, -3.41363,  0.00000, -2.58262, -1.83277,  4.19714
-1.33118, -3.11462, 131.88327, -2.11330, -0.36280,  2.49718, -3.48129, -3.32380,  0.00000, -2.49200, -1.75946,  4.19714
-1.68616, -3.29260, 131.88327, -2.20323, -0.43536,  2.42151, -3.03497, -3.23396,  0.00000, -2.49200, -1.86943,  4.25464
-1.50867, -3.20361, 132.23309, -2.29316, -0.32652,  2.49718, -3.57056, -3.59329,  0.00000, -2.53731, -1.83277,  4.19714
-1.59741, -3.38159, 132.58292, -2.38308, -0.32652,  2.53502, -3.03497, -3.32380,  0.00000, -2.26545, -1.83277,  4.13965
-1.24243, -3.64856, 132.23309, -2.06834, -0.47164,  2.49718, -3.12424, -3.50346,  0.00000, -2.31076, -1.72281,  4.15881
-1.77490, -3.38159, 132.58292, -2.11330, -0.36280,  2.53502, -3.12424, -3.50346,  0.00000, -2.49200, -1.83277,  4.23547
-1.68616, -3.55957, 132.23309, -2.15826, -0.47164,  2.42151, -2.94571, -2.96447,  0.00000, -2.40138, -1.75946,  4.27380
-1.68616, -3.55957, 130.83380, -2.24819, -0.47164,  2.55394, -2.94571, -3.86279,  0.00000, -2.49200, -1.79612,  4.19714
-1.41992, -3.55957, 132.58292, -2.15826, -0.43536,  2.53502, -3.21350, -3.50346,  0.00000, -2.35607, -1.79612,  4.23547
-1.77490, -3.38159, 132.58292, -2.24819, -0.36280,  2.47826, -3.03497, -3.50346,  0.00000, -2.53731, -1.61284,  4.21631
-1.68616, -3.55957, 131.53345, -2.11330, -0.39908,  2.51610, -2.94571, -3.41363,  0.00000, -2.35607, -1.90608,  4.23547
-1.59741, -3.47058, 132.23309, -2.47301, -0.36280,  2.53502, -3.03497, -3.59329,  0.00000, -2.49200, -1.75946,  4.19714
-2.04114, -3.29260, 131.88327, -2.20323, -0.39908,  2.51610, -3.03497, -3.23396,  0.00000, -2.44669, -1.97939,  4.19714
-1.50867, -3.29260, 131.53345, -2.15826, -0.39908,  2.53502, -3.30276, -3.41363,  0.00000, -2.53731, -1.75946,  4.23547
-1.77490, -3.11462, 130.13416, -2.20323, -0.36280,  2.51610, -3.12424, -3.41363,  0.00000, -2.53731, -1.83277,  4.29297
-1.68616, -3.47058, 132.93274, -2.20323, -0.43536,  2.49718, -3.12424, -3.41363,  0.00000, -2.58262, -1.90608,  4.21631
-1.77490, -3.38159, 131.88327, -2.24819, -0.43536,  2.49718, -3.12424, -3.68312,  0.00000, -2.44669, -1.75946,  4.17798
-1.95239, -3.64856, 132.23309, -2.24819, -0.39908,  2.49718, -2.94571, -3.32380,  0.00000, -2.62793, -1.61284,  4.23547
-1.33118, -3.20361, 133.28256, -2.24819, -0.32652,  2.49718, -2.85645, -3.50346,  0.00000, -2.40138, -1.79612,  4.17798
-1.68616, -3.82654, 131.53345, -2.15826, -0.32652,  2.53502, -2.85645, -3.77296,  0.00000, -2.35607, -1.86943,  4.17798
-1.95239, -2.93665, 132.23309, -2.33812, -0.36280,  2.49718, -3.03497, -3.68312,  0.00000, -2.35607, -1.68615,  4.12048
-1.77490, -2.93665, 131.88327, -2.33812, -0.39908,  2.47826, -3.03497, -3.32380,  0.00000, -2.31076, -1.79612,  4.27380
-2.04114, -3.29260, 132.93274, -2.20323, -0.32652,  2.47826, -3.03497, -3.41363,  0.00000, -2.40138, -1.83277,  4.17798
-1.68616, -3.47058, 132.23309, -2.24819, -0.36280,  2.53502, -3.12424, -3.41363,  0.00000, -2.31076, -1.64949,  4.23547
-1.68616, -3.55957, 131.88327, -2.20323, -0.39908,  2.61069, -3.21350, -3.77296,  0.00000, -2.40138, -1.83277,  4.17798
-1.95239, -3.38159, 131.18362, -2.24819, -0.36280,  2.47826, -3.12424, -3.32380,  0.00000, -2.49200, -1.72281,  4.19714
-1.86365, -3.64856, 132.23309, -2.24819, -0.47164,  2.49718, -3.03497, -3.59329,  0.00000, -2.58262, -1.72281,  4.15881
-1.86365, -3.29260, 132.23309, -2.33812, -0.39908,  2.47826, -3.12424, -3.23396,  0.00000, -2.44669, -1.75946,  4.21631
-1.41992, -3.38159, 131.88327, -2.33812, -0.43536,  2.53502, -2.94571, -3.50346,  0.00000, -2.53731, -1.83277,  4.29297
-1.59741, -3.47058, 131.88327, -2.29316, -0.29024,  2.44043, -2.94571, -3.41363,  0.00000, -2.49200, -1.64949,  4.21631
-1.41992, -3.55957, 132.23309, -2.11330, -0.25396,  2.45934, -3.21350, -3.59329,  0.00000, -2.58262, -1.86943,  4.15881
-1.50867, -3.55957, 130.83380, -2.38308, -0.47164,  2.55394, -3.03497, -3.23396,  0.00000, -2.40138, -1.79612,  4.19714
-2.04114, -3.38159, 132.23309, -2.20323, -0.29024,  2.57285, -3.39203, -3.05430,  0.00000, -2.53731, -1.83277,  4.21631
-1.59741, -3.73755, 130.48398, -2.47301, -0.47164,  2.51610, -3.65982, -3.32380,  0.00000, -2.53731, -1.79612,  4.21631
-1.59741, -3.20361, 132.58292, -2.24819, -0.32652,  2.62961, -3.03497, -3.41363,  0.00000, -2.35607, -1.72281,  4.27380
-1.24243, -3.47058, 130.83380, -2.20323, -0.39908,  2.51610, -3.48129, -3.50346,  0.00000, -2.44669, -1.68615,  4.23547
-1.59741, -3.29260, 131.53345, -2.06834, -0.47164,  2.53502, -3.21350, -3.50346,  0.00000, -2.49200, -1.64949,  4.17798
-2.12988, -3.29260, 131.53345, -2.20323, -0.58047,  2.47826, -3.21350, -3.23396,  0.00000, -2.17484, -1.68615,  4.19714
-1.24243, -3.64856, 132.23309, -2.15826, -0.39908,  2.47826, -3.21350, -3.41363,  0.00000, -2.62793, -1.83277,  4.19714
-1.95239, -3.38159, 132.93274, -2.15826, -0.29024,  2.47826, -3.12424, -3.41363,  0.00000, -2.67323, -1.94274,  4.19714
-1.68616, -2.93665, 132.23309, -2.20323, -0.39908,  2.55394, -3.39203, -3.68312,  0.00000, -2.49200, -1.75946,  4.21631
-1.59741, -3.73755, 130.83380, -2.20323, -0.39908,  2.53502, -3.03497, -3.41363,  0.00000, -2.35607, -1.75946,  4.31213
-1.33118, -3.38159, 130.48398, -2.11330, -0.39908,  2.51610, -2.58865, -3.50346,  0.00000, -2.31076, -1.64949,  4.17798
-1.59741, -3.20361, 130.83380, -2.11330, -0.43536,  2.61069, -3.21350, -3.59329,  0.00000, -2.44669, -1.68615,  4.15881
-1.50867, -3.38159, 131.53345, -2.38308, -0.50792,  2.47826, -3.21350, -3.41363,  0.00000, -2.49200, -1.61284,  4.17798
-1.59741, -3.11462, 131.53345, -2.33812, -0.50792,  2.49718, -3.12424, -3.77296,  0.00000, -2.53731, -1.75946,  4.21631
-1.33118, -3.38159, 132.23309, -2.29316, -0.36280,  2.49718, -2.76718, -3.14413,  0.00000, -2.62793, -1.72281,  4.15881
-1.77490, -3.64856, 131.53345, -2.02337, -0.36280,  2.53502, -3.21350, -3.23396,  0.00000, -2.40138, -1.61284,  4.23547
-1.50867, -3.38159, 131.88327, -2.33812, -0.43536,  2.55394, -3.21350, -3.95262,  0.00000, -2.62793, -1.72281,  4.19714
-1.24243, -3.20361, 131.88327, -2.29316, -0.43536,  2.47826, -3.39203, -3.77296,  0.00000, -2.49200, -1.79612,  4.25464
-1.59741, -3.38159, 132.93274, -2.24819, -0.39908,  2.47826, -3.21350, -3.68312,  0.00000, -2.44669, -1.75946,  4.17798
-1.50867, -3.11462, 132.58292, -2.38308, -0.25396,  2.51610, -2.85645, -3.41363,  0.00000, -2.49200, -1.79612,  4.23547
-1.33118, -3.20361, 132.23309, -2.11330, -0.29024,  2.44043, -3.30276, -3.32380,  0.00000, -2.49200, -1.79612,  4.25464
-1.41992, -3.20361, 131.53345, -2.33812, -0.43536,  2.45934, -3.30276, -3.32380,  0.00000, -2.35607, -1.75946,  4.25464
-2.12988, -3.38159, 132.93274, -2.11330, -0.29024,  2.49718, -3.21350, -3.32380,  0.00000, -2.26545, -1.68615,  4.17798
-1.50867, -3.82654, 131.18362, -2.06834, -0.25396,  2.49718, -3.30276, -3.23396,  0.00000, -2.53731, -1.83277,  4.23547
-1.59741, -3.38159, 131.88327, -2.33812, -0.36280,  2.44043, -3.21350, -3.86279,  0.00000, -2.49200, -1.79612,  4.19714
-1.50867, -2.66968, 132.23309, -2.38308, -0.43536,  2.44043, -3.03497, -3.68312,  0.00000, -2.31076, -1.72281,  4.25464
-1.50867, -3.20361, 131.88327, -2.06834, -0.32652,  2.45934, -3.03497, -3.23396,  0.00000, -2.53731, -1.68615,  4.15881
-2.04114, -3.38159, 131.18362, -2.33812, -0.47164,  2.45934, -3.30276, -3.50346,  0.00000, -2.49200, -1.79612,  4.17798
-1.59741, -3.38159, 132.93274, -2.29316, -0.50792,  2.51610, -3.30276, -3.50346,  0.00000, -2.35607, -1.75946,  4.19714
-1.59741, -3.64856, 132.93274, -2.24819, -0.47164,  2.51610, -3.39203, -3.59329,  0.00000, -2.40138, -1.79612,  4.17798
-1.77490, -2.75867, 131.88327, -2.11330, -0.50792,  2.45934, -3.12424, -3.50346,  0.00000, -2.40138, -1.79612,  4.17798
-1.86365, -3.29260, 131.88327, -2.24819, -0.47164,  2.47826, -3.03497, -3.41363,  0.00000, -2.44669, -1.79612,  4.21631
-1.77490, -3.47058, 132.23309, -2.20323, -0.32652,  2.61069, -2.94571, -3.50346,  0.00000, -2.40138, -1.79612,  4.21631
-1.68616, -3.38159, 132.23309, -2.24819, -0.58047,  2.51610, -3.03497, -3.32380,  0.00000, -2.49200, -1.64949,  4.15881
-1.41992, -3.11462, 132.58292, -2.29316, -0.36280,  2.51610, -3.57056, -3.59329,  0.00000, -2.44669, -1.86943,  4.25464
-1.50867, -3.38159, 132.58292, -2.11330, -0.47164,  2.53502, -3.12424, -3.59329,  0.00000, -2.35607, -1.72281,  4.29297
-1.33118, -3.02563, 131.18362, -2.11330, -0.36280,  2.55394, -3.30276, -3.59329,  0.00000, -2.35607, -1.75946,  4.17798
-1.68616, -3.20361, 130.13416, -2.38308, -0.32652,  2.49718, -3.30276, -3.41363,  0.00000, -2.35607, -1.90608,  4.15881
-1.95239, -3.38159, 131.53345, -2.11330, -0.39908,  2.53502, -3.03497, -3.77296,  0.00000, -2.53731, -1.72281,  4.15881
-1.77490, -3.29260, 133.28256, -2.11330, -0.54420,  2.47826, -3.03497, -3.23396,  0.00000, -2.58262, -1.86943,  4.23547
-1.41992, -3.11462, 130.83380, -2.11330, -0.47164,  2.47826, -3.48129, -3.41363,  0.00000, -2.31076, -1.75946,  4.21631
-1.50867, -3.55957, 132.58292, -2.11330, -0.39908,  2.55394, -3.03497, -3.50346,  0.00000, -2.49200, -1.72281,  4.31213
-1.59741, -3.29260, 132.23309, -2.24819, -0.36280,  2.51610, -2.94571, -3.50346,  0.00000, -2.40138, -1.90608,  4.06299
-1.59741, -3.11462, 131.18362, -2.33812, -0.43536,  2.49718, -3.48129, -3.32380,  0.00000, -2.44669, -1.79612,  4.12048
-1.68616, -3.20361, 132.93274, -2.06834, -0.39908,  2.44043, -3.30276, -3.23396,  0.00000, -2.49200, -1.90608,  4.23547
-1.86365, -3.64856, 132.93274, -1.97841, -0.29024,  2.51610, -3.12424, -3.59329,  0.00000, -2.49200, -1.64949,  4.21631
-1.50867, -3.20361, 131.18362, -2.24819, -0.25396,  2.55394, -3.21350, -3.32380,  0.00000, -2.40138, -1.90608,  4.15881
-1.59741, -3.73755, 131.18362, -2.20323, -0.36280,  2.59177, -3.39203, -3.41363,  0.00000, -2.49200, -1.83277,  4.15881
-1.77490, -3.20361, 133.28256, -2.15826, -0.32652,  2.57285, -3.12424, -3.32380,  0.00000, -2.44669, -1.61284,  4.21631
-1.68616, -3.29260, 132.58292, -2.29316, -0.47164,  2.53502, -3.21350, -3.41363,  0.00000, -2.49200, -1.83277,  4.19714
-1.50867, -3.73755, 131.53345, -2.20323, -0.47164,  2.62961, -3.12424, -3.59329,  0.00000, -2.40138, -1.83277,  4.21631
-1.59741, -3.38159, 131.88327, -2.24819, -0.54420,  2.47826, -2.76718, -3.23396,  0.00000, -2.31076, -1.83277,  4.19714
-1.77490, -3.64856, 132.58292, -2.15826, -0.50792,  2.47826, -3.03497, -3.68312,  0.00000, -2.40138, -1.57618,  4.17798
-1.59741, -3.38159, 132.58292, -2.15826, -0.21768,  2.47826, -3.21350, -3.32380,  0.00000, -2.40138, -1.75946,  4.23547
-1.33118, -3.73755, 131.88327, -2.24819, -0.39908,  2.49718, -3.39203, -3.32380,  0.00000, -2.26545, -1.75946,  4.19714
-1.59741, -3.38159, 130.83380, -2.24819, -0.39908,  2.57285, -3.30276, -3.59329,  0.00000, -2.40138, -1.75946,  4.19714
-1.68616, -3.02563, 131.18362, -2.20323, -0.43536,  2.45934, -2.94571, -3.59329,  0.00000, -2.40138, -1.72281,  4.13965
-1.68616, -3.55957, 132.93274, -2.29316, -0.25396,  2.51610, -3.12424, -3.32380,  0.00000, -2.35607, -1.79612,  4.19714
-1.68616, -3.64856, 131.53345, -2.29316, -0.21768,  2.53502, -3.12424, -3.32380,  0.00000, -2.40138, -1.83277,  4.13965
-1.68616, -3.47058, 132.58292, -2.29316, -0.36280,  2.47826, -3.03497, -3.77296,  0.00000, -2.26545, -1.83277,  4.23547
-1.59741, -3.11462, 130.83380, -2.15826, -0.32652,  2.49718, -3.21350, -3.32380,  0.00000, -2.49200, -1.75946,  4.13965
-1.24243, -3.82654, 131.18362, -2.29316, -0.36280,  2.51610, -3.30276, -3.32380,  0.00000, -2.31076, -1.61284,  4.29297
-1.68616, -3.11462, 132.58292, -2.20323, -0.39908,  2.53502, -2.94571, -3.23396,  0.00000, -2.49200, -1.57618,  4.21631
-1.95239, -3.29260, 132.23309, -2.15826, -0.32652,  2.53502, -2.85645, -3.59329,  0.00000, -2.49200, -1.72281,  4.17798
-1.77490, -3.20361, 132.93274, -2.11330, -0.43536,  2.53502, -3.21350, -3.41363,  0.00000, -2.40138, -1.79612,  4.12048
-1.77490, -3.29260, 130.83380, -2.29316, -0.43536,  2.51610, -3.30276, -3.41363,  0.00000, -2.62793, -1.79612,  4.13965
-1.86365, -3.64856, 132.93274, -2.38308, -0.39908,  2.47826, -3.12424, -3.32380,  0.00000, -2.62793, -1.75946,  4.17798
-1.95239, -3.29260, 131.88327, -2.20323, -0.58047,  2.51610, -3.48129, -3.41363,  0.00000, -2.35607, -1.75946,  4.15881
-1.77490, -3.29260, 131.18362, -2.24819, -0.39908,  2.44043, -3.39203, -3.41363,  0.00000, -2.44669, -1.75946,  4.15881
-1.95239, -3.38159, 132.93274, -2.42805, -0.39908,  2.44043, -2.85645, -3.59329,  0.00000, -2.22014, -1.72281,  4.13965
-1.68616, -3.02563, 133.63239, -2.11330, -0.32652,  2.53502, -2.94571, -3.50346,  0.00000, -2.53731, -1.75946,  4.15881
-1.68616, -3.29260, 133.28256, -2.20323, -0.39908,  2.51610, -3.03497, -3.41363,  0.00000, -2.58262, -1.72281,  4.17798
-1.50867, -3.47058, 132.58292, -2.24819, -0.29024,  2.51610, -3.12424, -3.23396,  0.00000, -2.44669, -1.75946,  4.21631
-1.50867, -3.55957, 131.88327, -2.02337, -0.39908,  2.55394, -3.03497, -3.05430,  0.00000, -2.49200, -1.75946,  4.19714
-1.68616, -3.55957, 132.58292, -2.20323, -0.47164,  2.44043, -3.57056, -3.32380,  0.00000, -2.62793, -1.61284,  4.13965
-1.68616, -2.93665, 132.58292, -2.29316, -0.43536,  2.53502, -3.30276, -3.68312,  0.00000, -2.35607, -1.64949,  4.23547
-1.95239, -3.20361, 131.18362, -2.06834, -0.50792,  2.45934, -3.30276, -3.41363,  0.00000, -2.49200, -1.57618,  4.19714
-1.77490, -3.11462, 131.18362, -2.20323, -0.47164,  2.47826, -3.21350, -3.50346,  0.00000, -2.22014, -1.75946,  4.21631
-1.33118, -3.38159, 131.18362, -2.24819, -0.36280,  2.47826, -2.94571, -3.86279,  0.00000, -2.49200, -1.86943,  4.17798
-1.50867, -3.11462, 131.88327, -2.33812, -0.39908,  2.49718, -3.03497, -3.50346,  0.00000, -2.49200, -1.61284,  4.23547
-1.33118, -3.47058, 132.58292, -2.29316, -0.39908,  2.42151, -2.85645, -3.50346,  0.00000, -2.40138, -1.68615,  4.15881
-1.86365, -2.93665, 131.88327, -2.24819, -0.32652,  2.55394, -3.03497, -3.50346,  0.00000, -2.44669, -1.86943,  4.21631
-1.68616, -3.55957, 131.53345, -2.29316, -0.36280,  2.49718, -3.21350, -3.23396,  0.00000, -2.44669, -1.75946,  4.13965
-1.59741, -3.55957, 130.13416, -2.42805, -0.47164,  2.49718, -3.21350, -3.50346,  0.00000, -2.49200, -1.75946,  4.21631
-1.33118, -3.11462, 131.18362, -2.20323, -0.14512,  2.49718, -3.30276, -3.23396,  0.00000, -2.67323, -1.68615,  4.17798
-1.50867, -3.47058, 130.13416, -2.24819, -0.43536,  2.42151, -3.21350, -3.32380,  0.00000, -2.31076, -1.83277,  4.19714
-1.77490, -3.20361, 132.23309, -1.97841, -0.47164,  2.51610, -3.12424, -3.32380,  0.00000, -2.44669, -1.83277,  4.23547
-1.86365, -3.20361, 131.53345, -2.29316, -0.43536,  2.53502, -3.21350, -3.50346,  0.00000, -2.53731, -1.72281,  4.17798
-1.33118, -3.38159, 131.18362, -2.20323, -0.32652,  2.51610, -3.65982, -3.41363,  0.00000, -2.40138, -1.86943,  4.25464
-2.04114, -2.75867, 131.88327, -2.33812, -0.36280,  2.44043, -3.30276, -3.68312,  0.00000, -2.44669, -1.64949,  4.23547
-1.59741, -3.38159, 130.48398, -2.24819, -0.43536,  2.53502, -3.12424, -3.41363,  0.00000, -2.49200, -1.75946,  4.25464
-1.68616, -3.20361, 131.18362, -2.42805, -0.39908,  2.49718, -3.21350, -3.23396,  0.00000, -2.62793, -1.68615,  4.12048
-1.95239, -3.64856, 131.88327, -2.02337, -0.43536,  2.51610, -3.39203, -3.41363,  0.00000, -2.53731, -1.75946,  4.21631
-1.86365, -3.02563, 132.23309, -2.24819, -0.43536,  2.47826, -3.03497, -3.95262,  0.00000, -2.26545, -1.68615,  4.27380
-1.77490, -2.93665, 131.53345, -2.24819, -0.25396,  2.49718, -3.12424, -3.41363,  0.00000, -2.35607, -1.57618,  4.13965
-1.41992, -3.20361, 132.93274, -2.11330, -0.36280,  2.51610, -2.94571, -3.05430,  0.00000, -2.40138, -1.75946,  4.21631
-1.68616, -3.47058, 131.18362, -2.24819, -0.43536,  2.53502, -2.76718, -3.32380,  0.00000, -2.44669, -1.68615,  4.23547
-1.33118, -3.55957, 132.23309, -2.24819, -0.43536,  2.49718, -3.21350, -3.32380,  0.00000, -2.31076, -1.75946,  4.25464
-1.41992, -3.38159, 131.53345, -2.20323, -0.39908,  2.61069, -3.30276, -3.23396,  0.00000, -2.58262, -1.61284,  4.23547
-1.59741, -3.47058, 130.13416, -2.24819, -0.58047,  2.49718, -3.03497, -3.59329,  0.00000, -2.31076, -1.75946,  4.23547
-1.50867, -3.55957, 131.53345, -2.15826, -0.47164,  2.51610, -3.03497, -3.41363,  0.00000, -2.44669, -1.75946,  4.19714
-1.24243, -3.11462, 132.23309, -2.38308, -0.39908,  2.47826, -3.57056, -3.50346,  0.00000, -2.17484, -1.83277,  4.21631
-1.86365, -3.20361, 131.18362, -2.24819, -0.47164,  2.47826, -3.12424, -3.23396,  0.00000, -2.44669, -1.61284,  4.25464
-1.59741, -3.47058, 131.88327, -2.15826, -0.21768,  2.47826, -3.48129, -3.68312,  0.00000, -2.49200, -1.72281,  4.25464
-1.59741, -3.47058, 131.88327, -2.15826, -0.50792,  2.53502, -3.30276, -3.41363,  0.00000, -2.40138, -1.75946,  4.27380
-1.50867, -3.38159, 132.58292, -2.06834, -0.32652,  2.47826, -2.94571, -3.59329,  0.00000, -2.40138, -1.86943,  4.17798
-1.68616, -3.02563, 130.83380, -2.33812, -0.54420,  2.47826, -3.12424, -3.32380,  0.00000, -2.40138, -1.68615,  4.23547
-1.77490, -3.20361, 131.53345, -2.20323, -0.32652,  2.61069, -2.94571, -3.41363,  0.00000, -2.67323, -1.86943,  4.25464
-1.77490, -3.02563, 132.23309, -2.24819, -0.50792,  2.53502, -3.30276, -3.50346,  0.00000, -2.44669, -1.75946,  4.25464
-1.50867, -3.64856, 132.23309, -2.33812, -0.29024,  2.53502, -3.12424, -3.59329,  0.00000, -2.44669, -1.72281,  4.21631
-1.15369, -3.47058, 132.93274, -2.33812, -0.25396,  2.51610, -2.85645, -3.23396,  0.00000, -2.31076, -1.64949,  4.25464
-1.68616, -3.55957, 130.48398, -2.20323, -0.29024,  2.49718, -2.94571, -3.50346,  0.00000, -2.58262, -2.01605,  4.21631
-1.68616, -3.29260, 132.23309, -2.33812, -0.32652,  2.53502, -3.12424, -3.41363,  0.00000, -2.49200, -1.79612,  4.23547
-1.59741, -3.73755, 131.18362, -2.20323, -0.39908,  2.49718, -3.30276, -3.32380,  0.00000, -2.49200, -1.57618,  4.21631
-1.33118, -3.55957, 132.23309, -2.24819, -0.47164,  2.51610, -3.30276, -3.50346,  0.00000, -2.44669, -1.75946,  4.17798
-1.77490, -3.55957, 130.83380, -2.11330, -0.43536,  2.51610, -3.21350, -3.32380,  0.00000, -2.35607, -1.79612,  4.17798
-1.15369, -2.93665, 131.88327, -2.20323, -0.39908,  2.51610, -3.12424, -3.77296,  0.00000, -2.53731, -1.57618,  4.25464
-1.68616, -3.38159, 132.93274, -2.20323, -0.32652,  2.44043, -3.39203, -3.32380,  0.00000, -2.35607, -1.79612,  4.21631
-1.68616, -3.20361, 131.53345, -2.24819, -0.43536,  2.51610, -3.57056, -3.32380,  0.00000, -2.58262, -1.83277,  4.23547
-1.33118, -3.38159, 132.23309, -2.24819, -0.50792,  2.53502, -3.39203, -3.50346,  0.00000, -2.44669, -1.57618,  4.23547
-1.33118, -3.55957, 131.88327, -2.24819, -0.36280,  2.55394, -3.39203, -3.50346,  0.00000, -2.35607, -1.61284,  4.17798
-1.68616, -3.38159, 131.53345, -2.20323, -0.50792,  2.51610, -3.12424, -3.41363,  0.00000, -2.58262, -1.83277,  4.17798
-1.68616, -3.64856, 133.28256, -2.33812, -0.14512,  2.49718, -3.30276, -3.50346,  0.00000, -2.49200, -1.72281,  4.17798
-1.59741, -3.47058, 132.58292, -2.29316, -0.32652,  2.47826, -3.03497, -3.50346,  0.00000, -2.53731, -1.68615,  4.25464
-1.59741, -3.38159, 131.88327, -2.20323, -0.21768,  2.51610, -2.94571, -3.77296,  0.00000, -2.49200, -1.79612,  4.12048
-1.59741, -3.20361, 131.88327, -2.15826, -0.29024,  2.53502, -3.48129, -3.95262,  0.00000, -2.44669, -1.83277,  4.23547
-1.68616, -3.38159, 131.53345, -2.15826, -0.47164,  2.51610, -2.76718, -3.14413,  0.00000, -2.40138, -1.68615,  4.15881
-1.95239, -3.64856, 131.53345, -1.97841, -0.39908,  2.51610, -3.03497, -3.50346,  0.00000, -2.40138, -1.75946,  4.15881
-1.59741, -3.55957, 130.83380, -2.11330, -0.32652,  2.49718, -2.85645, -3.41363,  0.00000, -2.31076, -1.94274,  4.19714
-1.68616, -3.47058, 133.28256, -2.15826, -0.39908,  2.57285, -2.94571, -3.41363,  0.00000, -2.44669, -1.94274,  4.25464
-1.77490, -3.47058, 132.23309, -2.15826, -0.36280,  2.44043, -3.57056, -3.95262,  0.00000, -2.58262, -1.64949,  4.15881
-1.77490, -3.64856, 129.78433, -2.20323, -0.39908,  2.51610, -3.12424, -3.32380,  0.00000, -2.49200, -1.64949,  4.21631
-1.59741, -3.47058, 131.88327, -2.15826, -0.25396,  2.45934, -3.39203, -3.59329,  0.00000, -2.44669, -1.72281,  4.19714
-1.77490, -3.73755, 133.28256, -2.29316, -0.43536,  2.51610, -3.30276, -3.32380,  0.00000, -2.44669, -1.68615,  4.21631
-1.33118, -3.64856, 132.23309, -2.15826, -0.32652,  2.53502, -3.03497, -3.68312,  0.00000, -2.40138, -1.72281,  4.19714
-1.86365, -3.38159, 132.23309, -2.20323, -0.39908,  2.53502, -3.30276, -3.50346,  0.00000, -2.40138, -1.79612,  4.21631
-1.68616, -3.55957, 131.53345, -2.02337, -0.47164,  2.49718, -3.21350, -3.50346,  0.00000, -2.44669, -1.83277,  4.21631
-1.68616, -3.47058, 134.33203, -2.38308, -0.39908,  2.42151, -3.39203, -3.32380,  0.00000, -2.44669, -1.75946,  4.19714
-1.68616, -3.20361, 131.53345, -2.33812, -0.39908,  2.47826, -3.12424, -3.50346,  0.00000, -2.53731, -1.75946,  4.17798
-1.59741, -3.38159, 131.18362, -2.20323, -0.43536,  2.45934, -3.21350, -3.50346,  0.00000, -2.49200, -1.79612,  4.19714
-1.77490, -3.38159, 130.83380, -2.11330, -0.39908,  2.47826, -3.21350, -3.41363,  0.00000, -2.53731, -1.83277,  4.21631
-2.04114, -3.38159, 132.23309, -2.20323, -0.43536,  2.51610, -3.12424, -3.59329,  0.00000, -2.40138, -1.72281,  4.23547
-1.33118, -3.38159, 132.23309, -2.06834, -0.43536,  2.49718, -2.94571, -3.77296,  0.00000, -2.58262, -1.83277,  4.23547
-1.59741, -3.29260, 133.28256, -2.38308, -0.43536,  2.47826, -3.48129, -3.59329,  0.00000, -2.44669, -1.68615,  4.15881
-1.95239, -2.84766, 132.23309, -2.20323, -0.36280,  2.51610, -2.85645, -3.68312,  0.00000, -2.49200, -1.72281,  4.19714
-1.59741, -3.55957, 131.88327, -2.38308, -0.29024,  2.51610, -3.39203, -3.41363,  0.00000, -2.53731, -1.83277,  4.19714
-1.86365, -3.64856, 131.88327, -2.29316, -0.43536,  2.47826, -2.94571, -3.41363,  0.00000, -2.44669, -1.72281,  4.19714
-1.86365, -3.55957, 133.28256, -2.15826, -0.36280,  2.53502, -3.48129, -3.32380,  0.00000, -2.49200, -1.72281,  4.21631
-1.33118, -3.47058, 131.88327, -2.15826, -0.43536,  2.51610, -3.21350, -3.77296,  0.00000, -2.44669, -1.64949,  4.19714
-1.59741, -3.55957, 131.88327, -2.20323, -0.36280,  2.45934, -3.39203, -3.41363,  0.00000, -2.35607, -1.79612,  4.17798
-1.59741, -3.55957, 132.58292, -2.15826, -0.32652,  2.57285, -2.85645, -3.23396,  0.00000, -2.44669, -1.90608,  4.15881
-1.33118, -3.64856, 132.23309, -2.06834, -0.39908,  2.59177, -3.48129, -3.32380,  0.00000, -2.53731, -1.68615,  4.21631
-1.86365, -3.29260, 132.58292, -2.33812, -0.18140,  2.49718, -3.39203, -3.32380,  0.00000, -2.49200, -1.79612,  4.17798
-1.59741, -3.38159, 131.53345, -2.15826, -0.47164,  2.55394, -3.21350, -3.68312,  0.00000, -2.44669, -1.64949,  4.17798
-1.50867, -3.02563, 132.23309, -2.20323, -0.47164,  2.45934, -3.03497, -3.32380,  0.00000, -2.53731, -1.72281,  4.23547
-1.68616, -3.64856, 131.53345, -2.20323, -0.39908,  2.59177, -3.48129, -3.59329,  0.00000, -2.44669, -1.83277,  4.23547
-1.50867, -3.55957, 131.18362, -2.11330, -0.43536,  2.57285, -3.03497, -3.50346,  0.00000, -2.53731, -1.72281,  4.17798
-1.33118, -3.38159, 131.53345, -2.11330, -0.43536,  2.51610, -3.30276, -3.32380,  0.00000, -2.49200, -1.75946,  4.19714
-1.50867, -3.73755, 132.23309, -2.20323, -0.39908,  2.49718, -3.12424, -3.23396,  0.00000, -2.49200, -1.79612,  4.15881
-1.86365, -3.29260, 131.88327, -2.20323, -0.39908,  2.45934, -3.03497, -3.14413,  0.00000, -2.26545, -1.68615,  4.21631
-1.15369, -3.38159, 130.83380, -2.24819, -0.47164,  2.53502, -2.94571, -3.23396,  0.00000, -2.53731, -1.72281,  4.19714
-1.24243, -3.20361, 132.23309, -1.97841, -0.36280,  2.55394, -3.48129, -3.59329,  0.00000, -2.53731, -1.79612,  4.29297
-1.50867, -3.20361, 132.23309, -2.38308, -0.47164,  2.53502, -3.12424, -3.68312,  0.00000, -2.40138, -1.86943,  4.21631
-1.86365, -3.55957, 132.58292, -2.24819, -0.25396,  2.49718, -3.30276, -3.14413,  0.00000, -2.22014, -1.72281,  4.23547
-1.68616, -3.38159, 131.53345, -2.24819, -0.36280,  2.49718, -3.30276, -3.59329,  0.00000, -2.35607, -1.64949,  4.15881
-1.59741, -3.20361, 131.88327, -1.93344, -0.54420,  2.47826, -3.30276, -3.05430,  0.00000, -2.53731, -1.68615,  4.12048
-1.86365, -3.64856, 130.48398, -2.15826, -0.47164,  2.53502, -2.76718, -3.68312,  0.00000, -2.40138, -1.79612,  4.19714
-1.77490, -3.82654, 132.23309, -2.15826, -0.32652,  2.53502, -3.30276, -3.77296,  0.00000, -2.58262, -1.79612,  4.19714
-1.68616, -3.47058, 131.88327, -2.20323, -0.25396,  2.55394, -3.03497, -3.77296,  0.00000, -2.53731, -1.72281,  4.21631
-1.95239, -3.11462, 132.93274, -2.38308, -0.43536,  2.49718, -3.03497, -3.14413,  0.00000, -2.31076, -1.75946,  4.12048
-1.68616, -3.47058, 131.18362, -2.24819, -0.54420,  2.51610, -3.03497, -3.50346,  0.00000, -2.17484, -1.72281,  4.23547
-18.10400, -1.69080, 160.21893, -1.25899,  1.52375,  2.25125, -3.12424, -3.23396,  0.00000, -2.53731, -1.79612,  4.23547
-0.88745, -0.26697, 131.53345, -2.74279,  0.25396,  2.34584, -2.76718, -3.68312,  0.00000, -2.53731, -1.64949,  4.19714
 1.50867, -3.29260, 143.42743, -2.87769, -0.94327,  2.59177, -3.12424, -3.32380,  0.00000, -2.26545, -1.75946,  4.19714
-3.19482,  5.42834, 97.60062, -2.33812,  2.28562,  1.02157, -3.74908, -3.59329,  0.00000, -2.31076, -1.86943,  4.12048
-0.17749, -20.82349, 264.81604, -4.00178,  2.06794,  3.67010, -3.39203, -3.23396,  0.00000, -2.53731, -1.90608,  4.27380
-1.59741, -3.82654, 155.67123, -1.39388, -1.26979,  1.53236, -3.12424, -3.68312,  0.00000, -2.67323, -1.72281,  4.17798
-0.62122, -8.54297, 144.47690, -3.05754, -0.58047,  2.15666, -3.30276, -3.50346,  0.00000, -2.44669, -1.83277,  4.17798
 9.49573, -1.95776, 154.62177, -2.20323,  0.07256,  3.29174, -2.76718, -3.05430,  0.00000, -2.62793, -1.79612,  4.15881
 9.14075, -7.47510, 167.91504, -2.96761, -1.12467,  3.34849, -3.21350, -3.77296,  0.00000, -2.40138, -1.68615,  4.25464
 2.83984, -5.25037, 168.61469, -3.01258, -0.50792,  3.23498, -3.12424, -3.59329,  0.00000, -2.22014, -1.75946,  4.19714
-2.92859, -4.09351, 172.46274, -2.78776,  0.87071,  3.51875, -3.03497, -3.41363,  0.00000, -2.40138, -1.75946,  4.25464
-2.12988, -5.07239, 172.81256, -2.51797, -0.14512,  3.49984, -3.30276, -3.68312,  0.00000, -2.44669, -1.64949,  4.19714
-0.44373, -2.84766, 175.96097, -2.38308,  0.00000,  3.63226, -3.12424, -3.50346,  0.00000, -2.40138, -1.90608,  4.19714
-3.01733, -4.53845, 177.71008, -2.83272,  1.05211,  3.48092, -3.12424, -3.59329,  0.00000, -2.31076, -1.64949,  4.19714
-1.95239, -1.51282, 178.05991, -2.06834,  0.32652,  3.70794, -3.39203, -3.59329,  0.00000, -2.53731, -1.72281,  4.21631
-2.57361, -3.20361, 181.55814, -2.47301,  0.54420,  3.76469, -3.48129, -3.23396,  0.00000, -2.40138, -1.68615,  4.17798
-0.70996, -1.69080, 179.80902, -2.51797,  0.10884,  3.68902, -2.76718, -3.50346,  0.00000, -2.40138, -1.68615,  4.31213
-0.53247, -4.36047, 179.45920, -2.83272,  0.07256,  3.57551, -3.57056, -3.50346,  0.00000, -2.49200, -1.68615,  4.29297
-2.66235, -4.09351, 174.91150, -2.74279,  0.65303,  3.57551, -3.30276, -3.59329,  0.00000, -2.44669, -1.72281,  4.19714
-1.59741, -1.95776, 181.55814, -2.38308,  0.39908,  3.82144, -3.03497, -3.32380,  0.00000, -2.53731, -1.68615,  4.17798
-1.86365, -2.58069, 176.31079, -2.51797,  0.29024,  3.42416, -3.03497, -3.14413,  0.00000, -2.35607, -1.75946,  4.21631
-1.68616, -3.02563, 180.50867, -2.47301,  0.47164,  3.80253, -3.12424, -3.23396,  0.00000, -2.44669, -1.83277,  4.21631
 0.35498, -4.53845, 176.66061, -2.74279,  0.10884,  3.44308, -3.74908, -3.14413,  0.00000, -2.44669, -1.68615,  4.19714
-1.59741, -2.04675, 178.75955, -2.51797,  0.32652,  3.67010, -3.65982, -3.68312,  0.00000, -2.35607, -1.68615,  4.25464
-1.33118, -4.27148, 179.45920, -2.74279,  0.21768,  3.67010, -3.48129, -3.59329,  0.00000, -2.49200, -1.86943,  4.21631
-0.53247, -2.84766, 178.05991, -2.60790,  0.21768,  3.63226, -3.39203, -3.41363,  0.00000, -2.44669, -1.75946,  4.19714
-1.15369, -1.95776, 177.71008, -2.33812,  0.21768,  3.65118, -3.39203, -3.41363,  0.00000, -2.31076, -1.79612,  4.08215
-1.50867, -3.47058, 178.40973, -2.33812,  0.32652,  3.70794, -3.30276, -3.50346,  0.00000, -2.49200, -2.05270,  4.23547
-1.24243, -3.29260, 179.10938, -2.47301,  0.21768,  3.61335, -3.21350, -3.68312,  0.00000, -2.62793, -1.75946,  4.19714
-1.86365, -3.20361, 178.05991, -2.60790,  0.29024,  3.78361, -3.21350, -3.68312,  0.00000, -2.49200, -1.83277,  4.21631
-0.44373, -3.38159, 178.05991, -2.60790,  0.29024,  3.67010, -3.21350, -3.32380,  0.00000, -2.31076, -1.68615,  4.15881
-1.50867, -3.29260, 179.45920, -2.69783,  0.54420,  3.65118, -3.03497, -3.32380,  0.00000, -2.53731, -1.64949,  4.25464
-1.33118, -3.02563, 178.05991, -2.74279,  0.39908,  3.63226, -3.21350, -3.68312,  0.00000, -2.53731, -1.68615,  4.17798
-1.33118, -3.64856, 176.66061, -2.51797,  0.32652,  3.74577, -2.76718, -3.68312,  0.00000, -2.26545, -1.79612,  4.19714
-1.06494, -3.11462, 178.75955, -2.56294,  0.36280,  3.74577, -3.48129, -3.50346,  0.00000, -2.40138, -1.72281,  4.13965
-1.41992, -3.38159, 177.36026, -2.69783,  0.29024,  3.67010, -3.48129, -3.32380,  0.00000, -2.49200, -1.53953,  4.19714
-1.24243, -3.20361, 177.71008, -2.42805,  0.14512,  3.68902, -3.12424, -3.50346,  0.00000, -2.40138, -1.68615,  4.17798
-1.86365, -3.47058, 177.71008, -2.65287,  0.29024,  3.76469, -3.30276, -3.50346,  0.00000, -2.62793, -1.50287,  4.17798
-1.06494, -3.47058, 177.71008, -2.65287,  0.32652,  3.72685, -3.21350, -3.59329,  0.00000, -2.26545, -1.64949,  4.23547
-1.24243, -3.29260, 177.71008, -2.51797,  0.29024,  3.68902, -3.30276, -3.41363,  0.00000, -2.35607, -1.79612,  4.13965
-1.33118, -3.02563, 178.05991, -2.42805,  0.21768,  3.74577, -3.57056, -3.68312,  0.00000, -2.31076, -1.94274,  4.21631
-1.50867, -3.29260, 177.01044, -2.47301,  0.21768,  3.67010, -3.21350, -3.77296,  0.00000, -2.40138, -1.72281,  4.25464
-1.33118, -2.93665, 177.71008, -2.51797,  0.25396,  3.70794, -3.21350, -3.32380,  0.00000, -2.49200, -1.79612,  4.25464
-1.59741, -3.20361, 178.40973, -2.51797,  0.14512,  3.72685, -2.76718, -3.32380,  0.00000, -2.26545, -1.61284,  4.27380
-0.97620, -2.84766, 177.01044, -2.60790,  0.32652,  3.65118, -3.12424, -3.59329,  0.00000, -2.44669, -1.68615,  4.13965
-1.41992, -3.20361, 179.45920, -2.60790,  0.25396,  3.63226, -3.39203, -3.23396,  0.00000, -2.35607, -2.01605,  4.21631
-1.15369, -3.55957, 178.05991, -2.38308,  0.25396,  3.70794, -3.12424, -3.32380,  0.00000, -2.49200, -1.64949,  4.13965
-0.97620, -3.29260, 177.71008, -2.56294,  0.39908,  3.68902, -3.03497, -3.32380,  0.00000, -2.58262, -1.64949,  4.21631
-1.33118, -3.38159, 179.45920, -2.69783,  0.25396,  3.70794, -2.94571, -3.50346,  0.00000, -2.35607, -1.64949,  4.21631
-1.41992, -3.20361, 180.15884, -2.65287,  0.29024,  3.78361, -3.03497, -3.50346,  0.00000, -2.44669, -1.53953,  4.17798
-1.15369, -3.47058, 177.36026, -2.69783,  0.43536,  3.65118, -2.94571, -3.23396,  0.00000, -2.49200, -1.86943,  4.27380
-1.15369, -3.47058, 178.05991, -2.60790,  0.21768,  3.65118, -3.30276, -3.50346,  0.00000, -2.67323, -1.94274,  4.21631
-1.24243, -3.82654, 177.71008, -2.60790,  0.32652,  3.72685, -3.03497, -3.50346,  0.00000, -2.49200, -1.68615,  4.21631
-1.24243, -3.47058, 178.40973, -2.51797,  0.32652,  3.74577, -3.12424, -3.23396,  0.00000, -2.49200, -1.72281,  4.23547
-1.24243, -3.64856, 178.05991, -2.69783,  0.36280,  3.70794, -3.21350, -3.41363,  0.00000, -2.44669, -1.83277,  4.21631
-1.24243, -3.02563, 179.10938, -2.60790,  0.25396,  3.74577, -2.94571, -3.50346,  0.00000, -2.40138, -1.64949,  4.19714
-0.97620, -3.11462, 178.75955, -2.51797,  0.29024,  3.70794, -3.21350, -3.50346,  0.00000, -2.35607, -1.79612,  4.25464
-1.59741, -3.38159, 178.75955, -2.51797,  0.29024,  3.74577, -3.30276, -3.23396,  0.00000, -2.62793, -1.61284,  4.31213
-1.59741, -3.02563, 177.71008, -2.51797,  0.25396,  3.63226, -3.30276, -3.41363,  0.00000, -2.31076, -1.83277,  4.17798
-1.33118, -3.29260, 178.40973, -2.51797,  0.29024,  3.72685, -3.39203, -3.32380,  0.00000, -2.44669, -1.64949,  4.21631
-1.06494, -3.55957, 177.71008, -2.60790,  0.32652,  3.63226, -3.48129, -3.32380,  0.00000, -2.26545, -1.72281,  4.25464
-1.68616, -2.93665, 178.40973, -2.47301,  0.32652,  3.67010, -3.12424, -3.41363,  0.00000, -2.40138, -1.61284,  4.23547
-0.97620, -2.93665, 178.05991, -2.56294,  0.18140,  3.74577, -3.30276, -3.95262,  0.00000, -2.44669, -1.61284,  4.21631
